{"learner":{"attributes":{"scikit_learn":"{\"_estimator_type\": \"regressor\"}"},"feature_names":[],"feature_types":[],"gradient_booster":{"model":{"gbtree_model_param":{"num_parallel_tree":"1","num_trees":"81"},"iteration_indptr":[0,1,2,3,4,5,6,7,8,9,10,11,12,13,14,15,16,17,18,19,20,21,22,23,24,25,26,27,28,29,30,31,32,33,34,35,36,37,38,39,40,41,42,43,44,45,46,47,48,49,50,51,52,53,54,55,56,57,58,59,60,61,62,63,64,65,66,67,68,69,70,71,72,73,74,75,76,77,78,79,80,81],"tree_info":[0,0,0,0,0,0,0,0,0,0,0,0,0,0,0,0,0,0,0,0,0,0,0,0,0,0,0,0,0,0,0,0,0,0,0,0,0,0,0,0,0,0,0,0,0,0,0,0,0,0,0,0,0,0,0,0,0,0,0,0,0,0,0,0,0,0,0,0,0,0,0,0,0,0,0,0,0,0,0,0,0],"trees":[{"base_weights":[1.6759777E1,-2.6165002E2,2.0608553E2,-3.4814307E2,4.2803707E1,3.6056677E2,-9.286972E1,-6.027274E2,-1.355639E2,4.8467896E2,-7.4133396E0,1.4934023E2,-8.126206E1,-4.210164E1,-1.1463752E2,-6.0665264E1,2.313363E1,6.103158E2,2.4671665E1,-2.886204E1,6.0152035E1,3.0731707E1,-3.4108852E1,1.0922061E2,2.4101051E1],"categories":[],"categories_nodes":[],"categories_segments":[],"categories_sizes":[],"default_left":[0,0,0,0,0,0,0,0,0,0,0,0,0,0,0,0,0,0,0,0,0,0,0,0,0],"id":0,"left_children":[1,3,5,7,-1,9,11,13,15,17,-1,19,-1,-1,-1,-1,21,23,-1,-1,-1,-1,-1,-1,-1],"loss_changes":[1.8014746E7,6.793081E6,9.438831E6,6.400516E6,0E0,6.897906E6,8.052612E6,2.840398E6,3.022975E6,3.948428E6,0E0,4.4633275E6,0E0,0E0,0E0,0E0,2.217576E6,4.407918E6,0E0,0E0,0E0,0E0,0E0,0E0,0E0],"parents":[2147483647,0,0,1,1,2,2,3,3,5,5,6,6,7,7,8,8,9,9,11,11,16,16,17,17],"right_children":[2,4,6,8,-1,10,12,14,16,18,-1,20,-1,-1,-1,-1,22,24,-1,-1,-1,-1,-1,-1,-1],"split_conditions":[-3.0871323E-1,9.765866E-1,1.1355306E-1,7.427091E-2,4.2803707E1,7.441977E-1,2.969329E-1,-5.1158625E-1,4.7587812E-2,4.622615E-1,-7.4133396E0,-2.0532845E-1,-8.126206E1,-4.210164E1,-1.1463752E2,-6.0665264E1,3.2490943E-2,6.1086947E-1,2.4671665E1,-2.886204E1,6.0152035E1,3.0731707E1,-3.4108852E1,1.0922061E2,2.4101051E1],"split_indices":[24,10,16,18,0,24,3,0,13,34,0,32,0,0,0,0,8,14,0,0,0,0,0,0,0],"split_type":[0,0,0,0,0,0,0,0,0,0,0,0,0,0,0,0,0,0,0,0,0,0,0,0,0],"sum_hessian":[3.39E2,1.37E2,2.02E2,1.19E2,1.8E1,1.33E2,6.9E1,5.3E1,6.6E1,1.02E2,3.1E1,4.6E1,2.3E1,2.1E1,3.2E1,2.3E1,4.3E1,7.2E1,3E1,2E1,2.6E1,2.5E1,1.8E1,5.4E1,1.8E1],"tree_param":{"num_deleted":"0","num_feature":"35","num_nodes":"25","size_leaf_vector":"1"}},{"base_weights":[8.295634E0,1.783204E2,-2.8620465E2,3.4972202E2,-2.4978586E2,-9.6701195E1,-4.9816357E2,1.795398E2,7.288793E2,-3.931448E1,-1.03891495E2,-2.8741232E2,2.1608742E1,-1.0806592E2,-3.228109E1,5.1661774E1,7.144648E1,1.4323041E2,7.420593E1,3.5498333E1,-3.8520203E1,-1.0841029E1,-6.843691E1,2.9806696E1,-1.93376E1],"categories":[],"categories_nodes":[],"categories_segments":[],"categories_sizes":[],"default_left":[0,0,0,0,0,0,0,0,0,0,0,0,0,0,0,0,0,0,0,0,0,0,0,0,0],"id":1,"left_children":[1,3,5,7,9,11,13,15,17,19,-1,21,-1,-1,-1,23,-1,-1,-1,-1,-1,-1,-1,-1,-1],"loss_changes":[1.7012682E7,1.5923462E7,4.928053E6,9.779232E6,6.0546495E6,3.2096178E6,3.716594E6,4.281278E6,1.957632E6,2.9226575E6,0E0,1.4453738E6,0E0,0E0,0E0,2.2537902E6,0E0,0E0,0E0,0E0,0E0,0E0,0E0,0E0,0E0],"parents":[2147483647,0,0,1,1,2,2,3,3,4,4,5,5,6,6,7,7,8,8,9,9,11,11,15,15],"right_children":[2,4,6,8,10,12,14,16,18,20,-1,22,-1,-1,-1,24,-1,-1,-1,-1,-1,-1,-1,-1,-1],"split_conditions":[-1.793377E-1,2.6821458E-1,4.622615E-1,7.850976E-2,5.268108E-1,-3.3984157E-1,4.7587812E-2,1.1941468E-1,-2.4334747E-1,-4.2367983E-1,-1.03891495E2,4.8925042E-2,2.1608742E1,-1.0806592E2,-3.228109E1,5.086919E-2,7.144648E1,1.4323041E2,7.420593E1,3.5498333E1,-3.8520203E1,-1.0841029E1,-6.843691E1,2.9806696E1,-1.93376E1],"split_indices":[4,31,34,33,11,26,13,11,32,16,0,13,0,0,0,27,0,0,0,0,0,0,0,0,0],"split_type":[0,0,0,0,0,0,0,0,0,0,0,0,0,0,0,0,0,0,0,0,0,0,0,0,0],"sum_hessian":[3.37E2,2.14E2,1.23E2,1.53E2,6.1E1,6.6E1,5.7E1,1.07E2,4.6E1,4.3E1,1.8E1,3.7E1,2.9E1,2.9E1,2.8E1,7.7E1,3E1,1.9E1,2.7E1,1.9E1,2.4E1,1.8E1,1.9E1,4.2E1,3.5E1],"tree_param":{"num_deleted":"0","num_feature":"35","num_nodes":"25","size_leaf_vector":"1"}},{"base_weights":[-4.5691654E1,7.694282E1,-3.4224744E2,-2.5305054E1,4.155447E2,-1.962216E2,-9.8358696E1,1.1284639E2,-2.9157257E2,9.6291046E1,1.286712E1,-6.303477E1,1.68761E1,2.5174057E0,3.3679654E2,-4.475298E2,3.1375427E0,-2.617202E1,2.9530128E1,-2.9711018E1,2.1911814E1,1.6640053E1,7.400137E1,-9.741644E1,-1.9838816E1],"categories":[],"categories_nodes":[],"categories_segments":[],"categories_sizes":[],"default_left":[0,0,0,0,0,0,0,0,0,0,0,0,0,0,0,0,0,0,0,0,0,0,0,0,0],"id":2,"left_children":[1,3,5,7,9,11,-1,13,15,-1,-1,-1,17,19,21,23,-1,-1,-1,-1,-1,-1,-1,-1,-1],"loss_changes":[1.2233507E7,8.268104E6,4.611099E6,6.827664E6,4.37893E6,3.5657358E6,0E0,3.0215335E6,3.1090815E6,0E0,0E0,0E0,1.4551521E6,2.5944628E6,1.461755E6,2.800489E6,0E0,0E0,0E0,0E0,0E0,0E0,0E0,0E0,0E0],"parents":[2147483647,0,0,1,1,2,2,3,3,4,4,5,5,7,7,8,8,12,12,13,13,14,14,15,15],"right_children":[2,4,6,8,10,12,-1,14,16,-1,-1,-1,18,20,22,24,-1,-1,-1,-1,-1,-1,-1,-1,-1],"split_conditions":[-8.029876E-2,1.1159501E0,9.513227E-1,3.6029257E-2,-4.5421767E-1,-3.318937E-1,-9.8358696E1,-3.2909372E-1,-1.4983529E-1,9.6291046E1,1.286712E1,-6.303477E1,-3.3984157E-1,-3.9621165E-1,4.9689982E-2,1.7394864E-3,3.1375427E0,-2.617202E1,2.9530128E1,-2.9711018E1,2.1911814E1,1.6640053E1,7.400137E1,-9.741644E1,-1.9838816E1],"split_indices":[4,22,0,26,30,0,0,26,12,0,0,0,26,11,13,9,0,0,0,0,0,0,0,0,0],"split_type":[0,0,0,0,0,0,0,0,0,0,0,0,0,0,0,0,0,0,0,0,0,0,0,0,0],"sum_hessian":[3.34E2,2.37E2,9.7E1,1.83E2,5.4E1,6.9E1,2.8E1,1.21E2,6.2E1,3E1,2.4E1,3.2E1,3.7E1,8.2E1,3.9E1,4.1E1,2.1E1,1.8E1,1.9E1,3.4E1,4.8E1,1.8E1,2.1E1,2.3E1,1.8E1],"tree_param":{"num_deleted":"0","num_feature":"35","num_nodes":"25","size_leaf_vector":"1"}},{"base_weights":[1.8621559E0,6.2339478E1,-4.4161887E2,1.8265523E2,-1.69437E2,-1.02431274E2,-1.797939E1,3.3294662E2,1.9664192E0,-8.497232E0,-3.627931E2,-1.3855999E1,4.5487976E2,-1.3405498E2,7.626368E1,-2.1878664E2,5.3757866E1,-8.442092E1,-1.2235484E1,7.678066E0,8.631713E1,-9.903132E-1,-5.313556E1,-5.8533672E1,-4.2790117E0],"categories":[],"categories_nodes":[],"categories_segments":[],"categories_sizes":[],"default_left":[0,0,0,0,0,0,0,0,0,0,0,0,0,0,0,0,0,0,0,0,0,0,0,0,0],"id":3,"left_children":[1,3,5,7,9,-1,-1,11,13,15,17,-1,19,21,-1,23,-1,-1,-1,-1,-1,-1,-1,-1,-1],"loss_changes":[9.246156E6,8.50235E6,3.331635E6,5.439511E6,3.242709E6,0E0,0E0,5.770515E6,6.658751E6,4.7502355E6,2.80242E6,0E0,4.706958E6,2.1833182E6,0E0,1.3163729E6,0E0,0E0,0E0,0E0,0E0,0E0,0E0,0E0,0E0],"parents":[2147483647,0,0,1,1,2,2,3,3,4,4,7,7,8,8,9,9,10,10,12,12,13,13,15,15],"right_children":[2,4,6,8,10,-1,-1,12,14,16,18,-1,20,22,-1,24,-1,-1,-1,-1,-1,-1,-1,-1,-1],"split_conditions":[1.6146569E0,-9.7696364E-2,-7.080207E-2,8.345392E-2,3.1485417E-1,-1.02431274E2,-1.797939E1,-4.0458044E-1,9.337908E-1,4.3994442E-1,1.046596E0,-1.3855999E1,-5.080726E-1,-4.1122106E-1,7.626368E1,-1.7864616E-3,5.3757866E1,-8.442092E1,-1.2235484E1,7.678066E0,8.631713E1,-9.903132E-1,-5.313556E1,-5.8533672E1,-4.2790117E0],"split_indices":[0,5,24,15,21,0,0,25,10,10,5,0,17,30,0,32,0,0,0,0,0,0,0,0,0],"split_type":[0,0,0,0,0,0,0,0,0,0,0,0,0,0,0,0,0,0,0,0,0,0,0,0,0],"sum_hessian":[3.42E2,3.02E2,4E1,1.99E2,1.03E2,2.1E1,1.9E1,1.08E2,9.1E1,5.7E1,4.6E1,2.4E1,8.4E1,7.3E1,1.8E1,3.7E1,2E1,2.5E1,2.1E1,2.2E1,6.2E1,4.8E1,2.5E1,1.8E1,1.9E1],"tree_param":{"num_deleted":"0","num_feature":"35","num_nodes":"25","size_leaf_vector":"1"}},{"base_weights":[1.834467E1,-1.3111212E2,1.6289488E2,2.555624E1,-3.2846133E2,3.544401E2,9.198995E0,-3.7215366E1,1.5271062E2,-4.9634848E2,-1.6949097E2,1.8959052E2,9.436263E1,1.2050707E2,-6.739551E1,3.7076405E1,6.3955677E1,-1.0159529E2,-3.939568E1,-5.057307E1,1.1007949E1,6.398896E1,-9.819671E-1,-1.461636E2,4.75592E2,-2.614913E1,2.9435863E1,1.9319702E1,-6.9301285E1,1.1184452E2,2.1626331E1],"categories":[],"categories_nodes":[],"categories_segments":[],"categories_sizes":[],"default_left":[0,0,0,0,0,0,0,0,0,0,0,0,0,0,0,0,0,0,0,0,0,0,0,0,0,0,0,0,0,0,0],"id":4,"left_children":[1,3,5,7,9,11,13,-1,15,17,19,21,-1,23,-1,25,-1,-1,-1,-1,-1,-1,-1,27,29,-1,-1,-1,-1,-1,-1],"loss_changes":[7.96603E6,5.619955E6,5.5107455E6,3.7156175E6,2.028028E6,3.872091E6,5.6166685E6,0E0,2.3440758E6,1.486358E6,1.9305815E6,2.725565E6,0E0,8.2745995E6,0E0,1.9262165E6,0E0,0E0,0E0,0E0,0E0,0E0,0E0,4.7269E6,3.422963E6,0E0,0E0,0E0,0E0,0E0,0E0],"parents":[2147483647,0,0,1,1,2,2,3,3,4,4,5,5,6,6,8,8,9,9,10,10,11,11,13,13,15,15,23,23,24,24],"right_children":[2,4,6,8,10,12,14,-1,16,18,20,22,-1,24,-1,26,-1,-1,-1,-1,-1,-1,-1,28,30,-1,-1,-1,-1,-1,-1],"split_conditions":[-1.2438085E-1,-6.988337E-2,-3.2593423E-1,-3.8770735E-1,-4.8923892E-1,1.7394864E-3,9.3355596E-1,-3.7215366E1,-2.6947913E-1,-1.8055253E-1,-3.4129682E-1,-5.0010774E-2,9.436263E1,-3.167042E-1,-6.739551E1,9.111826E-1,6.3955677E1,-1.0159529E2,-3.939568E1,-5.057307E1,1.1007949E1,6.398896E1,-9.819671E-1,2.4375863E-1,-9.7696364E-2,-2.614913E1,2.9435863E1,1.9319702E1,-6.9301285E1,1.1184452E2,2.1626331E1],"split_indices":[24,1,3,33,14,9,15,0,2,15,19,0,0,5,0,22,0,0,0,0,0,0,0,21,5,0,0,0,0,0,0],"split_type":[0,0,0,0,0,0,0,0,0,0,0,0,0,0,0,0,0,0,0,0,0,0,0,0,0,0,0,0,0,0,0],"sum_hessian":[3.66E2,1.8E2,1.86E2,1.01E2,7.9E1,8.2E1,1.04E2,3.1E1,7E1,3.7E1,4.2E1,5.4E1,2.8E1,8.5E1,1.9E1,5.1E1,1.9E1,1.8E1,1.9E1,2.4E1,1.8E1,2.3E1,3.1E1,4.9E1,3.6E1,2.2E1,2.9E1,2.7E1,2.2E1,1.8E1,1.8E1],"tree_param":{"num_deleted":"0","num_feature":"35","num_nodes":"31","size_leaf_vector":"1"}},{"base_weights":[1.8461473E1,5.741904E1,-4.9416378E1,8.954407E1,-5.0790524E1,1.7763985E2,-1.1101212E2,2.9400095E2,-2.6829855E1,-2.5869824E2,8.923953E1,2.3167242E1,7.429006E1,5.0504864E1,-2.9127108E1,-2.0355003E1,-6.562078E1,-3.2055202E1,5.299131E1],"categories":[],"categories_nodes":[],"categories_segments":[],"categories_sizes":[],"default_left":[0,0,0,0,0,0,0,0,0,0,0,0,0,0,0,0,0,0,0],"id":5,"left_children":[1,3,-1,5,-1,7,9,11,13,15,17,-1,-1,-1,-1,-1,-1,-1,-1],"loss_changes":[4.8863225E6,4.1608E6,0E0,5.210513E6,0E0,4.873938E6,2.704724E6,3.692788E6,4.981659E6,1.1085865E6,3.461935E6,0E0,0E0,0E0,0E0,0E0,0E0,0E0,0E0],"parents":[2147483647,0,0,1,1,3,3,5,5,6,6,7,7,8,8,9,9,10,10],"right_children":[2,4,-1,6,-1,8,10,12,14,16,18,-1,-1,-1,-1,-1,-1,-1,-1],"split_conditions":[1.6146569E0,1.8016933E0,-4.9416378E1,-1.5281275E-1,-5.0790524E1,1.779565E-1,-1.555675E-1,-9.190673E-2,-7.769042E-2,-3.7367338E-1,-1.0708686E-1,2.3167242E1,7.429006E1,5.0504864E1,-2.9127108E1,-2.0355003E1,-6.562078E1,-3.2055202E1,5.299131E1],"split_indices":[0,15,0,12,0,21,28,7,31,3,16,0,0,0,0,0,0,0,0],"split_type":[0,0,0,0,0,0,0,0,0,0,0,0,0,0,0,0,0,0,0],"sum_hessian":[3.47E2,3.14E2,3.3E1,2.92E2,2.2E1,2.03E2,8.9E1,1.29E2,7.4E1,5.1E1,3.8E1,8.1E1,4.8E1,2.3E1,5.1E1,3.3E1,1.8E1,1.8E1,2E1],"tree_param":{"num_deleted":"0","num_feature":"35","num_nodes":"19","size_leaf_vector":"1"}},{"base_weights":[-1.3371985E1,7.470522E1,-2.0345184E2,1.4142113E2,-1.4924597E2,-1.6537477E1,-3.6953467E2,-8.3532455E1,2.1705055E2,2.0409481E1,-4.8274643E1,-4.3575706E1,2.2079458E1,-1.6122467E1,-8.33014E1,2.5961557E1,-3.673578E1,8.9551895E1,3.495585E2,-2.5579987E1,3.8191124E1,1.4381979E1,6.9310905E1],"categories":[],"categories_nodes":[],"categories_segments":[],"categories_sizes":[],"default_left":[0,0,0,0,0,0,0,0,0,0,0,0,0,0,0,0,0,0,0,0,0,0,0],"id":6,"left_children":[1,3,5,7,9,11,13,15,17,-1,-1,-1,-1,-1,-1,-1,-1,19,21,-1,-1,-1,-1],"loss_changes":[5.8367315E6,3.5904278E6,3.416909E6,3.1619038E6,2.9910768E6,2.6044355E6,2.977395E6,2.1588428E6,2.293697E6,0E0,0E0,0E0,0E0,0E0,0E0,0E0,0E0,3.3850712E6,2.0764305E6,0E0,0E0,0E0,0E0],"parents":[2147483647,0,0,1,1,2,2,3,3,4,4,5,5,6,6,7,7,8,8,17,17,18,18],"right_children":[2,4,6,8,10,12,14,16,18,-1,-1,-1,-1,-1,-1,-1,-1,20,22,-1,-1,-1,-1],"split_conditions":[3.7710553E-1,7.327882E-1,-2.5221637E-1,-5.7413065E-1,-2.7676636E-1,-4.582192E-1,-1.627757E-1,-7.617961E-1,-7.7427423E-1,2.0409481E1,-4.8274643E1,-4.3575706E1,2.2079458E1,-1.6122467E1,-8.33014E1,2.5961557E1,-3.673578E1,-1.6407141E-1,-3.6547646E-1,-2.5579987E1,3.8191124E1,1.4381979E1,6.9310905E1],"split_indices":[0,8,8,24,14,26,12,25,23,0,0,0,0,0,0,0,0,12,17,0,0,0,0],"split_type":[0,0,0,0,0,0,0,0,0,0,0,0,0,0,0,0,0,0,0,0,0,0,0],"sum_hessian":[3.46E2,2.37E2,1.09E2,1.83E2,5.4E1,5.2E1,5.7E1,4.6E1,1.37E2,2.1E1,3.3E1,1.9E1,3.3E1,2.6E1,3.1E1,1.8E1,2.8E1,7.1E1,6.6E1,2.8E1,4.3E1,2.3E1,4.3E1],"tree_param":{"num_deleted":"0","num_feature":"35","num_nodes":"23","size_leaf_vector":"1"}},{"base_weights":[-1.6399641E1,-1.7839581E2,8.159648E1,-1.1114648E2,-6.5944374E1,2.798165E2,-6.968879E1,-5.3694912E1,-2.2486252E1,-7.018641E0,4.4923184E2,3.6258106E1,-2.4902856E2,1.2976787E2,-3.4325554E1,2.8662744E2,1.1130981E2,-5.2959637E1,4.6044914E1,-8.160664E1,-3.4859426E0,-3.0674994E0,3.8956318E1,6.3938527E0,7.7620316E1,9.286927E0,-3.4039925E1],"categories":[],"categories_nodes":[],"categories_segments":[],"categories_sizes":[],"default_left":[0,0,0,0,0,0,0,0,0,0,0,0,0,0,0,0,0,0,0,0,0,0,0,0,0,0,0],"id":7,"left_children":[1,3,5,7,-1,9,11,-1,13,-1,15,17,19,21,-1,23,-1,25,-1,-1,-1,-1,-1,-1,-1,-1,-1],"loss_changes":[5.534702E6,2.357871E6,6.5457165E6,2.44292E6,0E0,5.2756605E6,2.376016E6,0E0,2.6866402E6,0E0,2.900031E6,2.008011E6,3.235141E6,1.0152902E6,0E0,2.5649622E6,0E0,1.3183244E6,0E0,0E0,0E0,0E0,0E0,0E0,0E0,0E0,0E0],"parents":[2147483647,0,0,1,1,2,2,3,3,5,5,6,6,8,8,10,10,11,11,12,12,13,13,15,15,17,17],"right_children":[2,4,6,8,-1,10,12,-1,14,-1,16,18,20,22,-1,24,-1,26,-1,-1,-1,-1,-1,-1,-1,-1,-1],"split_conditions":[-3.856637E-1,7.979604E-1,-2.6474577E-1,-8.821446E-1,-6.5944374E1,-1.9865783E-1,2.2673622E-1,-5.3694912E1,3.7812535E-2,-7.018641E0,1.9636184E-1,7.916386E-2,2.7531078E-1,-5.923436E-1,-3.4325554E1,-3.4351867E-1,1.1130981E2,6.923077E-1,4.6044914E1,-8.160664E1,-3.4859426E0,-3.0674994E0,3.8956318E1,6.3938527E0,7.7620316E1,9.286927E0,-3.4039925E1],"split_indices":[24,8,8,15,0,9,25,0,29,0,33,27,8,28,0,2,0,8,0,0,0,0,0,0,0,0,0],"split_type":[0,0,0,0,0,0,0,0,0,0,0,0,0,0,0,0,0,0,0,0,0,0,0,0,0,0,0],"sum_hessian":[3.46E2,1.3E2,2.16E2,1.06E2,2.4E1,9.3E1,1.23E2,2.6E1,8E1,3.2E1,6.1E1,7.8E1,4.5E1,4.7E1,3.3E1,4.2E1,1.9E1,6E1,1.8E1,1.8E1,2.7E1,2.3E1,2.4E1,2.2E1,2E1,3.7E1,2.3E1],"tree_param":{"num_deleted":"0","num_feature":"35","num_nodes":"27","size_leaf_vector":"1"}},{"base_weights":[2.5316946E1,-1.4829999E2,9.148709E1,-2.6486084E2,1.2010948E1,1.9665024E2,-3.1746637E1,-5.401855E0,-3.8184476E2,9.745027E1,4.2917368E2,2.0024443E2,-1.5991925E2,-3.472821E1,-7.0432236E1,-2.591109E1,2.238123E2,8.976014E1,2.6450687E1,-4.973516E0,6.2984547E1,6.113088E0,-3.322138E2,-1.6245111E1,5.5153465E1,-8.635994E1,-1.3964386E1],"categories":[],"categories_nodes":[],"categories_segments":[],"categories_sizes":[],"default_left":[0,0,0,0,0,0,0,0,0,0,0,0,0,0,0,0,0,0,0,0,0,0,0,0,0,0,0],"id":8,"left_children":[1,3,5,7,-1,9,11,-1,13,15,17,19,21,-1,-1,-1,23,-1,-1,-1,-1,-1,25,-1,-1,-1,-1],"loss_changes":[4.0091335E6,2.6236488E6,3.2796078E6,1.6943985E6,0E0,3.086911E6,3.5337892E6,0E0,4.600385E5,3.445078E6,1.719541E6,2.3324395E6,2.677002E6,0E0,0E0,0E0,3.5681948E6,0E0,0E0,0E0,0E0,0E0,2.474585E6,0E0,0E0,0E0,0E0],"parents":[2147483647,0,0,1,1,2,2,3,3,5,5,6,6,8,8,9,9,10,10,11,11,12,12,16,16,22,22],"right_children":[2,4,6,8,-1,10,12,-1,14,16,18,20,22,-1,-1,-1,24,-1,-1,-1,-1,-1,26,-1,-1,-1,-1],"split_conditions":[-5.3793424E-1,-1.9715454E-1,-2.2041473E-1,5.2500427E-2,1.2010948E1,1.3774715E-1,-3.8579133E-1,-5.401855E0,-3.7363272E-2,-8.085874E-1,9.232755E-2,-5.2729267E-1,5.365287E-2,-3.472821E1,-7.0432236E1,-2.591109E1,-4.278134E-1,8.976014E1,2.6450687E1,-4.973516E0,6.2984547E1,6.113088E0,5.925045E-1,-1.6245111E1,5.5153465E1,-8.635994E1,-1.3964386E1],"split_indices":[28,33,29,4,0,33,8,0,17,23,15,15,21,0,0,0,17,0,0,0,0,0,21,0,0,0,0],"split_type":[0,0,0,0,0,0,0,0,0,0,0,0,0,0,0,0,0,0,0,0,0,0,0,0,0,0,0],"sum_hessian":[3.46E2,9.5E1,2.51E2,6.3E1,3.2E1,1.35E2,1.16E2,2.2E1,4.1E1,9.6E1,3.9E1,4.1E1,7.5E1,1.9E1,2.2E1,3E1,6.6E1,2.1E1,1.8E1,2.1E1,2E1,3.5E1,4E1,2.1E1,4.5E1,1.8E1,2.2E1],"tree_param":{"num_deleted":"0","num_feature":"35","num_nodes":"27","size_leaf_vector":"1"}},{"base_weights":[-1.6092506E1,1.3722134E1,-4.545926E1,-5.121846E1,4.3762238E1,-5.6037903E0,2.4672522E2,5.1329285E1,-4.416692E1,6.690589E1,6.2278447E0,-3.0563334E1,1.0716839E1],"categories":[],"categories_nodes":[],"categories_segments":[],"categories_sizes":[],"default_left":[0,0,0,0,0,0,0,0,0,0,0,0,0],"id":9,"left_children":[1,3,-1,-1,5,7,9,-1,11,-1,-1,-1,-1],"loss_changes":[3.2262565E6,3.672332E6,0E0,0E0,3.092217E6,3.4672482E6,2.595741E6,0E0,4.4467995E6,0E0,0E0,0E0,0E0],"parents":[2147483647,0,0,1,1,4,4,5,5,6,6,8,8],"right_children":[2,4,-1,-1,6,8,10,-1,12,-1,-1,-1,-1],"split_conditions":[1.6146569E0,-1.6817385E-1,-4.545926E1,-5.121846E1,1.166555E0,-1.1344705E0,-8.450872E-2,5.1329285E1,-2.4808341E-1,6.690589E1,6.2278447E0,-3.0563334E1,1.0716839E1],"split_indices":[0,12,0,0,22,0,14,0,0,0,0,0,0],"split_type":[0,0,0,0,0,0,0,0,0,0,0,0,0],"sum_hessian":[3.63E2,3.31E2,3.2E1,2.4E1,3.07E2,2.48E2,5.9E1,2.3E1,2.25E2,2.8E1,3.1E1,9.3E1,1.32E2],"tree_param":{"num_deleted":"0","num_feature":"35","num_nodes":"13","size_leaf_vector":"1"}},{"base_weights":[-3.6479553E1,4.2019684E1,-1.7676172E2,1.4262057E2,-1.2448556E2,-3.3471484E2,-4.9498882E1,-4.756003E0,3.2762637E2,2.4235342E1,-3.0738184E2,-4.04642E0,-8.197017E1,3.8438324E1,-1.5613748E2,-3.357667E1,1.281769E2,5.0939716E2,-9.777923E-1,-7.155225E1,-1.3674866E1,-7.178668E1,9.18903E0,5.1064568E1,-1.9871984E1,1.0136465E2,4.5993877E1],"categories":[],"categories_nodes":[],"categories_segments":[],"categories_sizes":[],"default_left":[0,0,0,0,0,0,0,0,0,0,0,0,0,0,0,0,0,0,0,0,0,0,0,0,0,0,0],"id":10,"left_children":[1,3,5,7,9,11,13,15,17,-1,19,-1,-1,-1,21,-1,23,25,-1,-1,-1,-1,-1,-1,-1,-1,-1],"loss_changes":[4.0339972E6,3.9669715E6,2.6170722E6,4.0210885E6,4.8281585E6,4.0739945E6,2.544164E6,2.5458345E6,3.9788315E6,0E0,2.1142545E6,0E0,0E0,0E0,4.213277E6,0E0,3.2147355E6,1.229491E6,0E0,0E0,0E0,0E0,0E0,0E0,0E0,0E0,0E0],"parents":[2147483647,0,0,1,1,2,2,3,3,4,4,5,5,6,6,7,7,8,8,10,10,14,14,16,16,17,17],"right_children":[2,4,6,8,10,12,14,16,18,-1,20,-1,-1,-1,22,-1,24,26,-1,-1,-1,-1,-1,-1,-1,-1,-1],"split_conditions":[-1.793377E-1,-1.9007343E-1,-1.4366683E-1,-4.6095496E-1,5.365287E-2,-4.4603795E-1,-5.815009E-1,-3.6547646E-1,1.777118E-1,2.4235342E1,6.94221E-1,-4.04642E0,-8.197017E1,3.8438324E1,1.1539707E-1,-3.357667E1,-1.2983361E-1,-5.18912E-1,-9.777923E-1,-7.155225E1,-1.3674866E1,-7.178668E1,9.18903E0,5.1064568E1,-1.9871984E1,1.0136465E2,4.5993877E1],"split_indices":[4,29,16,21,21,17,29,17,19,0,31,0,0,0,27,0,16,31,0,0,0,0,0,0,0,0,0],"split_type":[0,0,0,0,0,0,0,0,0,0,0,0,0,0,0,0,0,0,0,0,0,0,0,0,0,0,0],"sum_hessian":[3.64E2,2.34E2,1.3E2,1.46E2,8.8E1,5.7E1,7.3E1,8.2E1,6.4E1,3.4E1,5.4E1,2.5E1,3.2E1,1.8E1,5.5E1,3E1,5.2E1,4.1E1,2.3E1,2.8E1,2.6E1,2.1E1,3.4E1,2.8E1,2.4E1,1.9E1,2.2E1],"tree_param":{"num_deleted":"0","num_feature":"35","num_nodes":"27","size_leaf_vector":"1"}},{"base_weights":[1.4085063E1,8.93504E1,-1.3701143E2,2.5984583E2,-2.2867779E1,-5.263696E1,-6.6741356E1,1.4380676E2,7.767539E1,-1.6157112E2,1.4965533E2,4.1643517E1,-5.035349E1,5.615639E1,-4.0328037E1,-2.5029202E0,-7.3800224E1,-4.4603737E1,6.335539E1,-2.4677479E1,1.8679988E2,-2.3008522E1,1.2555072E1,-3.826465E1,2.3205023E1,3.1245682E1,-4.1953335E1,4.8821037E1,4.989996E-1],"categories":[],"categories_nodes":[],"categories_segments":[],"categories_sizes":[],"default_left":[0,0,0,0,0,0,0,0,0,0,0,0,0,0,0,0,0,0,0,0,0,0,0,0,0,0,0,0,0],"id":11,"left_children":[1,3,5,7,9,11,-1,13,-1,15,17,19,-1,-1,21,23,-1,25,-1,-1,27,-1,-1,-1,-1,-1,-1,-1,-1],"loss_changes":[3.876091E6,4.358954E6,3.043151E6,2.7668915E6,3.3443132E6,2.5485618E6,0E0,2.937334E6,0E0,4.2514385E6,3.4905425E6,2.2014595E6,0E0,0E0,5.9133056E5,2.3523212E6,0E0,2.5109925E6,0E0,0E0,1.153417E6,0E0,0E0,0E0,0E0,0E0,0E0,0E0,0E0],"parents":[2147483647,0,0,1,1,2,2,3,3,4,4,5,5,7,7,9,9,10,10,11,11,14,14,15,15,17,17,20,20],"right_children":[2,4,6,8,10,12,-1,14,-1,16,18,20,-1,-1,22,24,-1,26,-1,-1,28,-1,-1,-1,-1,-1,-1,-1,-1],"split_conditions":[4.622615E-1,-3.2593423E-1,8.403483E-1,2.2126515E-1,-1.0280479E-1,1.7665885E-1,-6.6741356E1,5.086919E-2,7.767539E1,1.3528475E-1,-2.7787212E-1,-5.163965E-1,-5.035349E1,5.615639E1,-6.792352E-1,-8.042578E-1,-7.3800224E1,-7.833696E-1,6.335539E1,-2.4677479E1,-2.703196E-1,-2.3008522E1,1.2555072E1,-3.826465E1,2.3205023E1,3.1245682E1,-4.1953335E1,4.8821037E1,4.989996E-1],"split_indices":[34,3,8,14,9,27,0,27,0,26,0,26,0,0,31,23,0,0,0,0,26,0,0,0,0,0,0,0,0],"split_type":[0,0,0,0,0,0,0,0,0,0,0,0,0,0,0,0,0,0,0,0,0,0,0,0,0,0,0,0,0],"sum_hessian":[3.38E2,2.26E2,1.12E2,8.9E1,1.37E2,9E1,2.2E1,6.4E1,2.5E1,7.6E1,6.1E1,6.9E1,2.1E1,2.7E1,3.7E1,5.3E1,2.3E1,3.7E1,2.4E1,2.8E1,4.1E1,1.9E1,1.8E1,2E1,3.3E1,1.8E1,1.9E1,2.2E1,1.9E1],"tree_param":{"num_deleted":"0","num_feature":"35","num_nodes":"29","size_leaf_vector":"1"}},{"base_weights":[1.7952322E1,-1.641801E2,7.686508E1,-3.3568362E2,1.2574331E1,2.3396559E2,-3.5249073E1,-1.8901075E1,-8.3027466E1,-3.300698E1,3.8195835E1,2.5560425E1,3.3856082E2,5.4488575E1,-2.4660649E2,-2.9177402E1,3.637077E1,5.8746066E0,4.380427E2,-2.6645569E1,6.1846134E1,-4.9333744E0,-7.029689E1,3.289831E1,8.232711E1,-4.861712E1,9.144947E0],"categories":[],"categories_nodes":[],"categories_segments":[],"categories_sizes":[],"default_left":[0,0,0,0,0,0,0,0,0,0,0,0,0,0,0,0,0,0,0,0,0,0,0,0,0,0,0],"id":12,"left_children":[1,3,5,7,9,11,13,-1,-1,-1,-1,15,17,19,21,-1,-1,-1,23,25,-1,-1,-1,-1,-1,-1,-1],"loss_changes":[3.6584955E6,2.5338998E6,4.544923E6,1.945463E6,2.6176998E6,2.327701E6,2.889906E6,0E0,0E0,0E0,0E0,1.965248E6,2.0916615E6,3.2450428E6,2.2592228E6,0E0,0E0,0E0,1.268372E6,2.4893075E6,0E0,0E0,0E0,0E0,0E0,0E0,0E0],"parents":[2147483647,0,0,1,1,2,2,3,3,4,4,5,5,6,6,11,11,12,12,13,13,14,14,18,18,19,19],"right_children":[2,4,6,8,10,12,14,-1,-1,-1,-1,16,18,20,22,-1,-1,-1,24,26,-1,-1,-1,-1,-1,-1,-1],"split_conditions":[4.3009996E-2,-5.4390885E-2,-2.1253473E-1,-2.8905947E-2,-3.8626868E-1,-8.2342213E-1,4.01449E-1,-1.8901075E1,-8.3027466E1,-3.300698E1,3.8195835E1,1.07308306E-1,-4.907448E-1,4.207728E-1,-2.0698431E-1,-2.9177402E1,3.637077E1,5.8746066E0,-1.370206E-1,-8.153762E-1,6.1846134E1,-4.9333744E0,-7.029689E1,3.289831E1,8.232711E1,-4.861712E1,9.144947E0],"split_indices":[13,10,15,26,6,8,32,0,0,0,0,11,33,33,28,0,0,0,9,23,0,0,0,0,0,0,0],"split_type":[0,0,0,0,0,0,0,0,0,0,0,0,0,0,0,0,0,0,0,0,0,0,0,0,0,0,0],"sum_hessian":[3.38E2,8.2E1,2.56E2,4.1E1,4.1E1,1.06E2,1.5E2,2.3E1,1.8E1,2.1E1,2E1,3.6E1,7E1,1.06E2,4.4E1,1.8E1,1.8E1,1.8E1,5.2E1,8.8E1,1.8E1,2.4E1,2E1,2.1E1,3.1E1,1.9E1,6.9E1],"tree_param":{"num_deleted":"0","num_feature":"35","num_nodes":"27","size_leaf_vector":"1"}},{"base_weights":[1.705178E1,-9.936799E1,7.5788506E1,-1.8556477E1,-4.912397E1,3.294716E2,1.7657312E1,1.2416464E2,-1.8192203E2,8.033427E1,1.82525E1,6.677005E1,-5.489067E1,-4.933048E0,5.0487946E1,-1.2897621E0,-5.1082207E1,-3.19928E1,1.0435666E2,-1.2736283E1,2.3540213E1],"categories":[],"categories_nodes":[],"categories_segments":[],"categories_sizes":[],"default_left":[0,0,0,0,0,0,0,0,0,0,0,0,0,0,0,0,0,0,0,0,0],"id":13,"left_children":[1,3,5,7,-1,9,11,13,15,-1,-1,17,-1,-1,-1,-1,-1,-1,19,-1,-1],"loss_changes":[2.2898882E6,2.154312E6,3.2704235E6,2.0215805E6,0E0,1.7829725E6,3.5711468E6,1.6504608E6,1.1768381E6,0E0,0E0,1.7914715E6,0E0,0E0,0E0,0E0,0E0,0E0,1.6221219E6,0E0,0E0],"parents":[2147483647,0,0,1,1,2,2,3,3,5,5,6,6,7,7,8,8,11,11,18,18],"right_children":[2,4,6,8,-1,10,12,14,16,-1,-1,18,-1,-1,-1,-1,-1,-1,20,-1,-1],"split_conditions":[-4.0112066E-1,-4.6378306E-1,-6.5129876E-1,3.131948E-2,-4.912397E1,4.1204083E-1,1.1339426E0,-6.571243E-1,-6.8437874E-2,8.033427E1,1.82525E1,-4.0791136E-1,-5.489067E1,-4.933048E0,5.0487946E1,-1.2897621E0,-5.1082207E1,-3.19928E1,-1.0573412E0,-1.2736283E1,2.3540213E1],"split_indices":[25,28,11,17,0,18,15,28,20,0,0,28,0,0,0,0,0,0,22,0,0],"split_type":[0,0,0,0,0,0,0,0,0,0,0,0,0,0,0,0,0,0,0,0,0],"sum_hessian":[3.32E2,1.11E2,2.21E2,8.4E1,2.7E1,4E1,1.81E2,4.5E1,3.9E1,1.8E1,2.2E1,1.62E2,1.9E1,2.7E1,1.8E1,2E1,1.9E1,1.8E1,1.44E2,3.3E1,1.11E2],"tree_param":{"num_deleted":"0","num_feature":"35","num_nodes":"21","size_leaf_vector":"1"}},{"base_weights":[-3.6215816E0,8.4721375E1,-1.3599612E2,-2.321862E1,1.2878177E2,-2.1156291E2,2.4721157E1,-1.8044968E1,1.8365106E2,-3.024372E2,7.305776E-1,2.711427E2,-3.5536594E0,1.2061031E0,-4.0558618E2,1.6444717E1,5.6067318E1,-4.1524483E1,2.7493631E1,-7.4268974E1,-3.05642E1],"categories":[],"categories_nodes":[],"categories_segments":[],"categories_sizes":[],"default_left":[0,0,0,0,0,0,0,0,0,0,0,0,0,0,0,0,0,0,0,0,0],"id":14,"left_children":[1,3,5,-1,7,9,-1,-1,11,13,-1,15,17,-1,19,-1,-1,-1,-1,-1,-1],"loss_changes":[3.9261702E6,2.1957488E6,3.155625E6,0E0,2.408563E6,2.13578E6,0E0,0E0,2.317485E6,2.453383E6,0E0,1.679621E6,2.5905445E6,0E0,1.027737E6,0E0,0E0,0E0,0E0,0E0,0E0],"parents":[2147483647,0,0,1,1,2,2,4,4,5,5,8,8,9,9,11,11,12,12,14,14],"right_children":[2,4,6,-1,8,10,-1,-1,12,14,-1,16,18,-1,20,-1,-1,-1,-1,-1,-1],"split_conditions":[-1.8737555E-1,-9.8171544E-1,6.464229E-1,-2.321862E1,-8.4742016E-1,5.2127592E-2,2.4721157E1,-1.8044968E1,9.389852E-2,-8.366568E-1,7.305776E-1,-1.0542974E0,-4.9583063E-1,1.2061031E0,8.637231E-1,1.6444717E1,5.6067318E1,-4.1524483E1,2.7493631E1,-7.4268974E1,-3.05642E1],"split_indices":[29,31,10,0,8,13,0,0,20,24,0,22,21,0,22,0,0,0,0,0,0],"split_type":[0,0,0,0,0,0,0,0,0,0,0,0,0,0,0,0,0,0,0,0,0],"sum_hessian":[3.33E2,2E2,1.33E2,3E1,1.7E2,1.07E2,2.6E1,3E1,1.4E2,7.5E1,3.2E1,9.5E1,4.5E1,1.9E1,5.6E1,4.1E1,5.4E1,1.8E1,2.7E1,3.5E1,2.1E1],"tree_param":{"num_deleted":"0","num_feature":"35","num_nodes":"21","size_leaf_vector":"1"}},{"base_weights":[-2.1365711E1,-2.1406204E2,1.5441717E1,-6.6531006E1,-9.545839E0,4.8598408E1,-1.2900096E1,-4.0347336E1,3.7599525E1,-4.561939E1,-1.2222362E1,2.8001953E1,-1.0123099E1],"categories":[],"categories_nodes":[],"categories_segments":[],"categories_sizes":[],"default_left":[0,0,0,0,0,0,0,0,0,0,0,0,0],"id":15,"left_children":[1,3,5,-1,-1,-1,7,9,-1,-1,11,-1,-1],"loss_changes":[2.4049798E6,1.920763E6,2.583499E6,0E0,0E0,0E0,1.9751844E6,1.8409652E6,0E0,0E0,2.5936142E6,0E0,0E0],"parents":[2147483647,0,0,1,1,2,2,6,6,7,7,10,10],"right_children":[2,4,6,-1,-1,-1,8,10,-1,-1,12,-1,-1],"split_conditions":[-1.6671894E-1,-8.0961514E-1,-1.1830108E0,-6.6531006E1,-9.545839E0,4.8598408E1,5.4261017E-1,-9.534505E-1,3.7599525E1,-4.561939E1,-6.8747115E-1,2.8001953E1,-1.0123099E1],"split_indices":[12,23,20,0,0,0,9,29,0,0,2,0,0],"split_type":[0,0,0,0,0,0,0,0,0,0,0,0,0],"sum_hessian":[3.37E2,5.3E1,2.84E2,1.9E1,3.4E1,2.2E1,2.62E2,2.39E2,2.3E1,2.1E1,2.18E2,4.7E1,1.71E2],"tree_param":{"num_deleted":"0","num_feature":"35","num_nodes":"13","size_leaf_vector":"1"}},{"base_weights":[1.6683804E1,-1.2802322E2,9.848911E1,3.2689068E1,-2.3226932E2,5.0448914E1,5.214297E1,3.5400818E1,-1.9395985E1,-1.20824554E2,-5.4875473E1,1.2071693E2,-1.9872963E2,-4.111248E1,8.166849E0,2.7082214E2,-6.5120804E1,-6.153442E1,4.0347533E0,1.4631963E1,6.1596752E1,-5.364812E1,9.66343E0],"categories":[],"categories_nodes":[],"categories_segments":[],"categories_sizes":[],"default_left":[0,0,0,0,0,0,0,0,0,0,0,0,0,0,0,0,0,0,0,0,0,0,0],"id":16,"left_children":[1,3,5,7,9,-1,11,-1,-1,13,-1,15,17,-1,-1,19,21,-1,-1,-1,-1,-1,-1],"loss_changes":[3.8452035E6,1.9772945E6,2.3602692E6,1.7011385E6,1.0889018E6,0E0,3.0668425E6,0E0,0E0,1.2351602E6,0E0,3.9124638E6,1.9654596E6,0E0,0E0,1.949876E6,2.5653212E6,0E0,0E0,0E0,0E0,0E0,0E0],"parents":[2147483647,0,0,1,1,2,2,3,3,4,4,6,6,9,9,11,11,12,12,15,15,16,16],"right_children":[2,4,6,8,10,-1,12,-1,-1,14,-1,16,18,-1,-1,20,22,-1,-1,-1,-1,-1,-1],"split_conditions":[-4.8188552E-1,-3.323667E-1,-9.1939485E-1,-5.3279144E-1,1.3349982E-1,5.0448914E1,4.0187517E-1,3.5400818E1,-1.9395985E1,-4.5908856E-1,-5.4875473E1,-2.0149419E-1,-4.1569775E-1,-4.111248E1,8.166849E0,-4.6102318E-1,-3.7592426E-1,-6.153442E1,4.0347533E0,1.4631963E1,6.1596752E1,-5.364812E1,9.66343E0],"split_indices":[21,0,15,11,15,0,28,0,0,11,0,4,17,0,0,0,6,0,0,0,0,0,0],"split_type":[0,0,0,0,0,0,0,0,0,0,0,0,0,0,0,0,0,0,0,0,0,0,0],"sum_hessian":[3.22E2,1.16E2,2.06E2,4.6E1,7E1,3.1E1,1.75E2,2E1,2.6E1,4.1E1,2.9E1,1.38E2,3.7E1,2.1E1,2E1,7.6E1,6.2E1,1.8E1,1.9E1,3.7E1,3.9E1,1.8E1,4.4E1],"tree_param":{"num_deleted":"0","num_feature":"35","num_nodes":"23","size_leaf_vector":"1"}},{"base_weights":[-1.8922129E1,-2.8234442E2,2.9879507E1,-9.74199E0,-6.907612E1,-1.04642235E2,1.0392837E2,2.5565516E1,-5.0106194E1,1.090134E1,2.9658365E2,3.115523E1,-7.921655E1,-3.2122852E1,6.293639E1,-1.5226966E1,4.990732E2,-3.9200447E1,1.8167288E1,-1.7212093E0,5.4221878E1,4.977858E1,9.1461624E1],"categories":[],"categories_nodes":[],"categories_segments":[],"categories_sizes":[],"default_left":[0,0,0,0,0,0,0,0,0,0,0,0,0,0,0,0,0,0,0,0,0,0,0],"id":17,"left_children":[1,3,5,-1,-1,7,9,11,-1,13,15,-1,17,-1,19,-1,21,-1,-1,-1,-1,-1,-1],"loss_changes":[4.1435618E6,2.0428938E6,2.7280362E6,0E0,0E0,3.0526395E6,3.155729E6,1.2955266E6,0E0,1.4698678E6,4.7338295E6,0E0,1.6914182E6,0E0,2.3083178E6,0E0,4.82985E5,0E0,0E0,0E0,0E0,0E0,0E0],"parents":[2147483647,0,0,1,1,2,2,5,5,6,6,7,7,9,9,10,10,12,12,14,14,16,16],"right_children":[2,4,6,-1,-1,8,10,12,-1,14,16,-1,18,-1,20,-1,22,-1,-1,-1,-1,-1,-1],"split_conditions":[-7.59326E-1,-5.2452034E-1,4.876045E-2,-9.74199E0,-6.907612E1,1.6809192E-2,1.7198235E-1,-6.0243344E-1,-5.0106194E1,-6.1803126E-1,-1.8070044E-1,3.115523E1,6.907353E-2,-3.2122852E1,4.7922435E-1,-1.5226966E1,3.9200386E-1,-3.9200447E1,1.8167288E1,-1.7212093E0,5.4221878E1,4.977858E1,9.1461624E1],"split_indices":[11,1,13,0,0,25,24,2,0,28,11,0,21,0,0,0,3,0,0,0,0,0,0],"split_type":[0,0,0,0,0,0,0,0,0,0,0,0,0,0,0,0,0,0,0,0,0,0,0],"sum_hessian":[3.2E2,4.9E1,2.71E2,2.4E1,2.5E1,9.6E1,1.75E2,6.3E1,3.3E1,1.19E2,5.6E1,2.2E1,4.1E1,2.1E1,9.8E1,1.9E1,3.7E1,2.1E1,2E1,8E1,1.8E1,1.9E1,1.8E1],"tree_param":{"num_deleted":"0","num_feature":"35","num_nodes":"23","size_leaf_vector":"1"}},{"base_weights":[-5.077458E0,3.1933031E1,-2.1373254E2,1.4986447E2,-3.9142563E1,-6.410499E0,-5.7004997E1,-2.650729E1,2.1658072E2,7.846206E0,-4.2071133E1,3.2759845E2,-9.335037E-1,-1.2538959E2,1.5144194E2,6.092806E1,1.388174E1,-4.3664803E1,-1.7292851E0,4.1189804E1,5.3195715E0],"categories":[],"categories_nodes":[],"categories_segments":[],"categories_sizes":[],"default_left":[0,0,0,0,0,0,0,0,0,0,0,0,0,0,0,0,0,0,0,0,0],"id":18,"left_children":[1,3,5,7,9,-1,-1,-1,11,13,-1,15,-1,17,19,-1,-1,-1,-1,-1,-1],"loss_changes":[2.684636E6,2.4841305E6,1.5576715E6,2.521454E6,2.1816715E6,0E0,0E0,0E0,2.315235E6,3.0369198E6,0E0,1.264439E6,0E0,1.6280006E6,1.1402145E6,0E0,0E0,0E0,0E0,0E0,0E0],"parents":[2147483647,0,0,1,1,2,2,3,3,4,4,8,8,9,9,11,11,13,13,14,14],"right_children":[2,4,6,8,10,-1,-1,-1,12,14,-1,16,-1,18,20,-1,-1,-1,-1,-1,-1],"split_conditions":[-1.2787834E-1,-2.4665545E-1,-9.957831E-2,-1.0577974E0,7.3458457E-1,-6.410499E0,-5.7004997E1,-2.650729E1,5.1904786E-1,-1.088021E-1,-4.2071133E1,5.146998E-1,-9.335037E-1,2.5957525E-1,7.508718E-2,6.092806E1,1.388174E1,-4.3664803E1,-1.7292851E0,4.1189804E1,5.3195715E0],"split_indices":[12,14,22,22,24,0,0,0,23,24,0,18,0,14,10,0,0,0,0,0,0],"split_type":[0,0,0,0,0,0,0,0,0,0,0,0,0,0,0,0,0,0,0,0,0],"sum_hessian":[3.45E2,2.94E2,5.1E1,1.1E2,1.84E2,2.7E1,2.4E1,1.8E1,9.2E1,1.56E2,2.8E1,6.1E1,3.1E1,8.1E1,7.5E1,4.3E1,1.8E1,3.1E1,5E1,3.4E1,4.1E1],"tree_param":{"num_deleted":"0","num_feature":"35","num_nodes":"21","size_leaf_vector":"1"}},{"base_weights":[4.342494E0,3.3124702E1,-1.589749E2,1.2240424E2,-2.9470062E1,-4.112268E1,2.700237E0,2.689246E2,-3.949767E1,-9.296533E1,2.0324635E2,4.0951123E2,9.22611E0,1.8951305E1,-3.279117E1,2.8849588E1,-1.5341965E2,-2.2019385E-1,5.7286716E1,3.176542E1,8.3157776E1,-1.6329165E1,2.9274252E1,-4.0639317E1,-7.539317E-1],"categories":[],"categories_nodes":[],"categories_segments":[],"categories_sizes":[],"default_left":[0,0,0,0,0,0,0,0,0,0,0,0,0,0,0,0,0,0,0,0,0,0,0,0,0],"id":19,"left_children":[1,3,5,7,9,-1,-1,11,13,15,17,19,-1,-1,-1,21,23,-1,-1,-1,-1,-1,-1,-1,-1],"loss_changes":[1.611557E6,1.6334839E6,1.1358199E6,2.8705605E6,2.5726318E6,0E0,0E0,1.7941055E6,1.8824429E6,1.01064725E6,1.4595906E6,9.848145E5,0E0,0E0,0E0,1.1588384E6,1.702715E6,0E0,0E0,0E0,0E0,0E0,0E0,0E0,0E0],"parents":[2147483647,0,0,1,1,2,2,3,3,4,4,7,7,8,8,9,9,10,10,11,11,15,15,16,16],"right_children":[2,4,6,8,10,-1,-1,12,14,16,18,20,-1,-1,-1,22,24,-1,-1,-1,-1,-1,-1,-1,-1],"split_conditions":[9.3526304E-1,-2.7676636E-1,1.6488671E-1,-1.5980445E-1,5.033117E-1,-4.112268E1,2.700237E0,5.164303E-2,-6.3409203E-1,-6.825683E-1,3.0901384E-1,-5.9237975E-1,9.22611E0,1.8951305E1,-3.279117E1,-7.544177E-1,-3.2909372E-1,-2.2019385E-1,5.7286716E1,3.176542E1,8.3157776E1,-1.6329165E1,2.9274252E1,-4.0639317E1,-7.539317E-1],"split_indices":[1,14,18,12,16,0,0,13,15,19,22,29,0,0,0,19,26,0,0,0,0,0,0,0,0],"split_type":[0,0,0,0,0,0,0,0,0,0,0,0,0,0,0,0,0,0,0,0,0,0,0,0,0],"sum_hessian":[3.4E2,2.9E2,5E1,1.19E2,1.71E2,2.9E1,2.1E1,6.2E1,5.7E1,1.35E2,3.6E1,3.6E1,2.6E1,3E1,2.7E1,4.5E1,9E1,1.8E1,1.8E1,1.8E1,1.8E1,2.5E1,2E1,4.8E1,4.2E1],"tree_param":{"num_deleted":"0","num_feature":"35","num_nodes":"25","size_leaf_vector":"1"}},{"base_weights":[-3.0162013E0,2.6225416E1,-4.2667713E1,1.2785706E2,-2.7482082E1,3.086525E2,-1.0682629E1,1.27952324E2,-1.0570422E2,1.5063501E1,7.343078E1,-2.099865E1,2.2584517E1,5.3971195E1,-8.2417564E1,-2.5819324E2,-1.0216319E1,1.4514148E1,-4.040288E1,-6.330268E0,-6.804431E1,-3.1707108E1,1.9139523E1],"categories":[],"categories_nodes":[],"categories_segments":[],"categories_sizes":[],"default_left":[0,0,0,0,0,0,0,0,0,0,0,0,0,0,0,0,0,0,0,0,0,0,0],"id":20,"left_children":[1,3,-1,5,7,9,11,13,15,-1,-1,-1,-1,-1,17,19,21,-1,-1,-1,-1,-1,-1],"loss_changes":[3.0019965E6,1.7592332E6,0E0,2.7948105E6,2.588411E6,1.8721355E6,1.458076E6,3.6913145E6,2.0541809E6,0E0,0E0,0E0,0E0,0E0,1.4391334E6,2.4162392E6,2.6419048E6,0E0,0E0,0E0,0E0,0E0,0E0],"parents":[2147483647,0,0,1,1,3,3,4,4,5,5,6,6,7,7,8,8,14,14,15,15,16,16],"right_children":[2,4,-1,6,8,10,12,14,16,-1,-1,-1,-1,-1,18,20,22,-1,-1,-1,-1,-1,-1],"split_conditions":[1.6456512E0,-3.6589518E-1,-4.2667713E1,4.622615E-1,-2.7693555E-1,-1.8816176E-1,-2.7228713E-1,-5.845344E-1,-6.9254875E-1,1.5063501E1,7.343078E1,-2.099865E1,2.2584517E1,5.3971195E1,-4.449416E-1,-5.7796836E-1,-2.2773026E-2,1.4514148E1,-4.040288E1,-6.330268E0,-6.804431E1,-3.1707108E1,1.9139523E1],"split_indices":[0,33,0,34,32,17,7,19,0,0,0,0,0,0,32,1,32,0,0,0,0,0,0],"split_type":[0,0,0,0,0,0,0,0,0,0,0,0,0,0,0,0,0,0,0,0,0,0,0],"sum_hessian":[3.51E2,3.2E2,3.1E1,1.1E2,2.1E2,4.7E1,6.3E1,7E1,1.4E2,2.4E1,2.3E1,3.5E1,2.8E1,3.2E1,3.8E1,5.3E1,8.7E1,2E1,1.8E1,2.7E1,2.6E1,3.5E1,5.2E1],"tree_param":{"num_deleted":"0","num_feature":"35","num_nodes":"23","size_leaf_vector":"1"}},{"base_weights":[7.1745543E0,-3.248223E1,2.7087734E1,2.2438663E2,-1.3439086E-1,5.3759247E1,1.0353706E1,1.1214331E2,-4.838644E1,-1.1535602E1,2.5010693E2,-2.10551E2,8.962981E0,6.407809E1,6.716653E0,-3.0150664E0,-5.875789E1,9.926314E0,-3.2064625E1],"categories":[],"categories_nodes":[],"categories_segments":[],"categories_sizes":[],"default_left":[0,0,0,0,0,0,0,0,0,0,0,0,0,0,0,0,0,0,0],"id":21,"left_children":[1,-1,3,5,7,-1,-1,9,11,-1,13,15,17,-1,-1,-1,-1,-1,-1],"loss_changes":[1.5788525E6,0E0,1.6998025E6,8.160524E5,1.5208015E6,0E0,0E0,2.255899E6,1.8293519E6,0E0,1.8872605E6,1.872592E6,2.009811E6,0E0,0E0,0E0,0E0,0E0,0E0],"parents":[2147483647,0,0,2,2,3,3,4,4,7,7,8,8,10,10,11,11,12,12],"right_children":[2,-1,4,6,8,-1,-1,10,12,-1,14,16,18,-1,-1,-1,-1,-1,-1],"split_conditions":[-6.13462E-1,-3.248223E1,-1.569692E-1,-9.9838264E-2,-7.256634E-1,5.3759247E1,1.0353706E1,-6.601887E-1,-4.45839E-1,-1.1535602E1,4.9999908E-2,2.1998303E-2,3.2763505E-1,6.407809E1,6.716653E0,-3.0150664E0,-5.875789E1,9.926314E0,-3.2064625E1],"split_indices":[9,0,27,3,1,0,0,6,21,0,13,15,7,0,0,0,0,0,0],"split_type":[0,0,0,0,0,0,0,0,0,0,0,0,0,0,0,0,0,0,0],"sum_hessian":[3.41E2,2.6E1,3.15E2,3.7E1,2.78E2,1.8E1,1.9E1,8.3E1,1.95E2,3.5E1,4.8E1,5E1,1.45E2,2.4E1,2.4E1,2.6E1,2.4E1,1.16E2,2.9E1],"tree_param":{"num_deleted":"0","num_feature":"35","num_nodes":"19","size_leaf_vector":"1"}},{"base_weights":[-1.6319016E1,-3.372172E1,3.488742E1,-2.3412201E2,-6.5457225E0,-5.8841423E1,-6.853265E0,1.763748E1,-2.969464E1,4.667398E1,-2.3996563E1,1.1792606E0,3.628224E1],"categories":[],"categories_nodes":[],"categories_segments":[],"categories_sizes":[],"default_left":[0,0,0,0,0,0,0,0,0,0,0,0,0],"id":22,"left_children":[1,3,-1,5,7,-1,-1,9,-1,11,-1,-1,-1],"loss_changes":[1.4964264E6,1.7039302E6,0E0,1.1631001E6,1.3305699E6,0E0,0E0,1.3269569E6,0E0,1.680384E6,0E0,0E0,0E0],"parents":[2147483647,0,0,1,1,3,3,4,4,7,7,9,9],"right_children":[2,4,-1,6,8,-1,-1,10,-1,12,-1,-1,-1],"split_conditions":[8.778311E-1,-8.133193E-1,3.488742E1,5.1168125E-2,1.6456512E0,-5.8841423E1,-6.853265E0,1.5136701E0,-2.969464E1,6.540888E-1,-2.3996563E1,1.1792606E0,3.628224E1],"split_indices":[18,23,0,13,0,0,0,19,0,20,0,0,0],"split_type":[0,0,0,0,0,0,0,0,0,0,0,0,0],"sum_hessian":[3.32E2,3.12E2,2E1,3.6E1,2.76E2,1.8E1,1.8E1,2.47E2,2.9E1,2.14E2,3.3E1,1.81E2,3.3E1],"tree_param":{"num_deleted":"0","num_feature":"35","num_nodes":"13","size_leaf_vector":"1"}},{"base_weights":[3.62001E-1,-1.119119E2,5.880122E1,1.6029732E1,-1.8488019E2,2.3996012E1,4.424877E1,-6.3437016E1,-2.275243E1,-1.9461847E1,1.9910829E2,1.0387644E2,-3.690317E1,-3.637244E1,2.4649073E1,7.423292E0,5.178038E1,-1.3076687E1,4.225191E1,4.4196335E1,-2.986804E0],"categories":[],"categories_nodes":[],"categories_segments":[],"categories_sizes":[],"default_left":[0,0,0,0,0,0,0,0,0,0,0,0,0,0,0,0,0,0,0,0,0],"id":23,"left_children":[1,3,5,-1,7,9,-1,-1,11,13,15,17,-1,-1,19,-1,-1,-1,-1,-1,-1],"loss_changes":[2.288052E6,1.9625805E6,1.9477841E6,0E0,3.6649815E6,1.5458068E6,0E0,0E0,1.684681E6,1.6703982E6,9.11476E5,1.3869865E6,0E0,0E0,1.7542264E6,0E0,0E0,0E0,0E0,0E0,0E0],"parents":[2147483647,0,0,1,1,2,2,4,4,5,5,8,8,9,9,10,10,11,11,14,14],"right_children":[2,4,6,-1,8,10,-1,-1,12,14,16,18,-1,-1,20,-1,-1,-1,-1,-1,-1],"split_conditions":[-1.6447437E-1,-5.4026836E-1,6.4094025E-1,1.6029732E1,-3.3984157E-1,4.1041285E-1,4.424877E1,-6.3437016E1,8.121364E-2,-7.3809046E-1,-4.40616E-1,-4.7910925E-2,-3.690317E1,-3.637244E1,-1.2431426E0,7.423292E0,5.178038E1,-1.3076687E1,4.225191E1,4.4196335E1,-2.986804E0],"split_indices":[12,26,15,0,26,14,0,0,26,6,17,27,0,0,14,0,0,0,0,0,0],"split_type":[0,0,0,0,0,0,0,0,0,0,0,0,0,0,0,0,0,0,0,0,0],"sum_hessian":[3.46E2,1.18E2,2.28E2,2.9E1,8.9E1,2.01E2,2.7E1,3.4E1,5.5E1,1.62E2,3.9E1,3.6E1,1.9E1,2.5E1,1.37E2,2.1E1,1.8E1,1.8E1,1.8E1,1.8E1,1.19E2],"tree_param":{"num_deleted":"0","num_feature":"35","num_nodes":"21","size_leaf_vector":"1"}},{"base_weights":[9.507451E0,-6.0715572E1,7.020322E1,-4.1616623E1,-2.7639967E1,1.5291548E2,-4.2868256E1,3.6252712E1,-2.005112E2,-1.5148007E1,2.4107164E2,4.396111E1,-3.3484734E1,-1.0882338E2,1.3637813E2,-3.445281E-2,-5.773052E1,1.1338346E2,3.6367572E2,2.5398542E1,-2.7944813E1,-4.5626057E1,1.7747545E1,3.4633324E1,-1.0741362E1,4.513263E1,-1.6044174E1,3.5272263E1,6.7836334E1],"categories":[],"categories_nodes":[],"categories_segments":[],"categories_sizes":[],"default_left":[0,0,0,0,0,0,0,0,0,0,0,0,0,0,0,0,0,0,0,0,0,0,0,0,0,0,0,0,0],"id":24,"left_children":[1,3,5,-1,7,9,11,13,15,-1,17,19,-1,21,23,-1,-1,25,27,-1,-1,-1,-1,-1,-1,-1,-1,-1,-1],"loss_changes":[1.473656E6,1.1836172E6,1.7429222E6,0E0,1.571846E6,2.4676742E6,1.3050622E6,1.5364766E6,1.5073262E6,0E0,1.2004855E6,1.7529795E6,0E0,2.1028802E6,1.3575006E6,0E0,0E0,1.86869E6,3.45391E5,0E0,0E0,0E0,0E0,0E0,0E0,0E0,0E0,0E0,0E0],"parents":[2147483647,0,0,1,1,2,2,4,4,5,5,6,6,7,7,8,8,10,10,11,11,13,13,14,14,17,17,18,18],"right_children":[2,4,6,-1,8,10,12,14,16,-1,18,20,-1,22,24,-1,-1,26,28,-1,-1,-1,-1,-1,-1,-1,-1,-1,-1],"split_conditions":[3.4395516E-2,-8.891549E-1,3.432587E-1,-4.1616623E1,5.1090647E-2,-6.496483E-1,4.622615E-1,-2.73957E-1,-8.392229E-2,-1.5148007E1,-3.690155E-1,7.408306E-2,-3.3484734E1,8.244399E-2,2.5886872E-1,-3.445281E-2,-5.773052E1,-2.8234202E-1,-5.217064E-1,2.5398542E1,-2.7944813E1,-4.5626057E1,1.7747545E1,3.4633324E1,-1.0741362E1,4.513263E1,-1.6044174E1,3.5272263E1,6.7836334E1],"split_indices":[10,2,8,0,26,8,34,32,22,0,5,20,0,14,14,0,0,21,20,0,0,0,0,0,0,0,0,0,0],"split_type":[0,0,0,0,0,0,0,0,0,0,0,0,0,0,0,0,0,0,0,0,0,0,0,0,0,0,0,0,0],"sum_hessian":[3.43E2,1.59E2,1.84E2,1.9E1,1.4E2,1.06E2,7.8E1,1.03E2,3.7E1,2.7E1,7.9E1,5.4E1,2.4E1,4.2E1,6.1E1,1.9E1,1.8E1,4E1,3.9E1,3.5E1,1.9E1,2.2E1,2E1,4.1E1,2E1,2.1E1,1.9E1,2E1,1.9E1],"tree_param":{"num_deleted":"0","num_feature":"35","num_nodes":"29","size_leaf_vector":"1"}},{"base_weights":[-1.7581984E1,2.130502E1,-1.2537377E2,4.7555077E1,-4.215537E1,-1.8825372E2,1.6368036E1,1.310397E2,-1.3180785E1,-4.0236416E0,-2.6875714E2,5.9713333E1,6.3939457E1,5.5647396E1,-1.9819963E2,-5.900486E1,-2.5090591E1,-4.2674823E0,4.056979E1,-2.183487E1,1.7038403E1,-5.748974E1,3.319004E0],"categories":[],"categories_nodes":[],"categories_segments":[],"categories_sizes":[],"default_left":[0,0,0,0,0,0,0,0,0,0,0,0,0,0,0,0,0,0,0,0,0,0,0],"id":25,"left_children":[1,3,5,7,-1,9,-1,11,13,-1,15,-1,17,19,21,-1,-1,-1,-1,-1,-1,-1,-1],"loss_changes":[1.4767642E6,2.1361012E6,1.4258356E6,1.2214672E6,0E0,9.5057275E5,0E0,1.8632778E6,1.8030276E6,0E0,5.5310625E5,0E0,1.68304E6,1.3311311E6,1.683527E6,0E0,0E0,0E0,0E0,0E0,0E0,0E0,0E0],"parents":[2147483647,0,0,1,1,2,2,3,3,5,5,7,7,8,8,10,10,12,12,13,13,14,14],"right_children":[2,4,6,8,-1,10,-1,12,14,-1,16,-1,18,20,22,-1,-1,-1,-1,-1,-1,-1,-1],"split_conditions":[-1.5281275E-1,1.2627419E0,2.2126515E-1,-7.19274E-2,-4.215537E1,-6.1014247E-1,1.6368036E1,-7.6597655E-1,4.071668E-2,-4.0236416E0,-8.2392216E-2,5.9713333E1,5.2217122E-2,-8.891549E-1,4.68373E-1,-5.900486E1,-2.5090591E1,-4.2674823E0,4.056979E1,-2.183487E1,1.7038403E1,-5.748974E1,3.319004E0],"split_indices":[12,11,14,14,0,31,0,30,28,0,5,0,13,2,18,0,0,0,0,0,0,0,0],"split_type":[0,0,0,0,0,0,0,0,0,0,0,0,0,0,0,0,0,0,0,0,0,0,0],"sum_hessian":[3.5E2,2.58E2,9.2E1,2.39E2,1.9E1,7.3E1,1.9E1,1E2,1.39E2,2.5E1,4.8E1,1.8E1,8.2E1,1.02E2,3.7E1,1.8E1,3E1,5.8E1,2.4E1,2.3E1,7.9E1,1.9E1,1.8E1],"tree_param":{"num_deleted":"0","num_feature":"35","num_nodes":"23","size_leaf_vector":"1"}},{"base_weights":[3.0961403E1,4.7853016E1,-3.6313385E1,2.1651703E1,2.0141487E2,6.589014E1,-1.3661746E2,5.8282925E1,-2.618856E0,1.2537361E2,-7.0199356E1,-1.635486E0,-4.329519E1,1.1576325E1,4.403652E1,-2.2661907E1,2.1576473E1],"categories":[],"categories_nodes":[],"categories_segments":[],"categories_sizes":[],"default_left":[0,0,0,0,0,0,0,0,0,0,0,0,0,0,0,0,0],"id":26,"left_children":[1,3,-1,5,7,9,11,-1,-1,13,15,-1,-1,-1,-1,-1,-1],"loss_changes":[1.6146895E6,1.2784522E6,0E0,1.9331856E6,2.0374824E6,1.7556432E6,1.2130112E6,0E0,0E0,1.1872612E6,1.2725725E6,0E0,0E0,0E0,0E0,0E0,0E0],"parents":[2147483647,0,0,1,1,3,3,4,4,5,5,6,6,9,9,10,10],"right_children":[2,4,-1,6,8,10,12,-1,-1,14,16,-1,-1,-1,-1,-1,-1],"split_conditions":[5.3189737E-1,4.2850706E-1,-3.6313385E1,3.2664504E-2,6.606753E-1,5.764322E-2,4.0411454E-2,5.8282925E1,-2.618856E0,7.853619E-1,-5.625817E-2,-1.635486E0,-4.329519E1,1.1576325E1,4.403652E1,-2.2661907E1,2.1576473E1],"split_indices":[27,25,0,25,1,4,21,0,0,15,11,0,0,0,0,0,0],"split_type":[0,0,0,0,0,0,0,0,0,0,0,0,0,0,0,0,0],"sum_hessian":[3.36E2,3.18E2,1.8E1,2.73E2,4.5E1,2.14E2,5.9E1,2.3E1,2.2E1,1.49E2,6.5E1,3.4E1,2.5E1,1.2E2,2.9E1,4.7E1,1.8E1],"tree_param":{"num_deleted":"0","num_feature":"35","num_nodes":"17","size_leaf_vector":"1"}},{"base_weights":[8.8857E0,3.692372E1,-8.312154E0,2.7155703E1,-1.6005571E2,-3.00872E1,5.417547E1,-4.8672203E1,-6.896085E1,1.9876201E2,1.650506E1,-3.239762E1,1.5050935E1,6.665994E1,5.096552E0,-2.2175257E1,8.727578E0],"categories":[],"categories_nodes":[],"categories_segments":[],"categories_sizes":[],"default_left":[0,0,0,0,0,0,0,0,0,0,0,0,0,0,0,0,0],"id":27,"left_children":[1,-1,3,5,7,-1,9,-1,11,13,15,-1,-1,-1,-1,-1,-1],"loss_changes":[1.5002895E6,0E0,1.8005001E6,1.730435E6,9.7463825E5,0E0,1.3259552E6,0E0,1.1813506E6,2.1162538E6,1.447379E6,0E0,0E0,0E0,0E0,0E0,0E0],"parents":[2147483647,0,0,2,2,3,3,4,4,6,6,8,8,9,9,10,10],"right_children":[2,-1,4,6,8,-1,10,-1,12,14,16,-1,-1,-1,-1,-1,-1],"split_conditions":[-1.1830108E0,3.692372E1,7.553402E-1,-6.902244E-1,-4.4994125E-1,-3.00872E1,-7.087219E-1,-4.8672203E1,-4.1469786E-1,-3.5309997E-1,-6.35245E-1,-3.239762E1,1.5050935E1,6.665994E1,5.096552E0,-2.2175257E1,8.727578E0],"split_indices":[20,0,8,7,33,0,3,0,21,17,20,0,0,0,0,0,0],"split_type":[0,0,0,0,0,0,0,0,0,0,0,0,0,0,0,0,0],"sum_hessian":[3.54E2,2.2E1,3.32E2,2.7E2,6.2E1,2.7E1,2.43E2,2E1,4.2E1,4.9E1,1.94E2,2.2E1,2E1,1.8E1,3.1E1,3.9E1,1.55E2],"tree_param":{"num_deleted":"0","num_feature":"35","num_nodes":"17","size_leaf_vector":"1"}},{"base_weights":[-2.8487234E1,-8.163939E1,5.907169E1,-9.37687E0,-2.3237296E2,-1.5177203E2,1.6643402E2,-5.7880802E1,4.3525753E1,-1.2210191E1,-5.352672E1,5.2811155E0,-4.5970875E1,-2.5189913E1,2.5670172E2,4.7274003E0,-3.9478706E1,-4.4905376E0,3.7177246E2,1.5318145E1,-1.5769241E1,8.608429E1,8.750215E0],"categories":[],"categories_nodes":[],"categories_segments":[],"categories_sizes":[],"default_left":[0,0,0,0,0,0,0,0,0,0,0,0,0,0,0,0,0,0,0,0,0,0,0],"id":28,"left_children":[1,3,5,7,9,11,13,15,-1,-1,-1,-1,-1,-1,17,19,-1,-1,21,-1,-1,-1,-1],"loss_changes":[1.6279645E6,2.3640855E6,3.0310868E6,2.243606E6,1.37242E6,1.41758E6,2.7699205E6,1.7314951E6,0E0,0E0,0E0,0E0,0E0,0E0,2.345192E6,1.1687291E6,0E0,0E0,3.401669E6,0E0,0E0,0E0,0E0],"parents":[2147483647,0,0,1,1,2,2,3,3,4,4,5,5,6,6,7,7,14,14,15,15,18,18],"right_children":[2,4,6,8,10,12,14,16,-1,-1,-1,-1,-1,-1,18,20,-1,-1,22,-1,-1,-1,-1],"split_conditions":[1.027467E-1,-2.763233E-1,-3.0161887E-1,-3.8209358E-1,-6.8268664E-2,-7.9836446E-1,-1.0575213E0,5.219347E-2,4.3525753E1,-1.2210191E1,-5.352672E1,5.2811155E0,-4.5970875E1,-2.5189913E1,-5.7413065E-1,-6.403132E-1,-3.9478706E1,-4.4905376E0,6.325192E-1,1.5318145E1,-1.5769241E1,8.608429E1,8.750215E0],"split_indices":[2,3,9,3,17,23,22,9,0,0,0,0,0,0,24,3,0,0,22,0,0,0,0],"split_type":[0,0,0,0,0,0,0,0,0,0,0,0,0,0,0,0,0,0,0,0,0,0,0],"sum_hessian":[3.47E2,2.16E2,1.31E2,1.47E2,6.9E1,4.4E1,8.7E1,1.28E2,1.9E1,3.4E1,3.5E1,2.1E1,2.3E1,1.8E1,6.9E1,1E2,2.8E1,2E1,4.9E1,5.3E1,4.7E1,2.8E1,2.1E1],"tree_param":{"num_deleted":"0","num_feature":"35","num_nodes":"23","size_leaf_vector":"1"}},{"base_weights":[4.6682105E0,-3.3838436E1,2.6802002E1,1.315175E2,-1.977894E1,-1.861106E1,2.0661617E2,1.681764E1,-1.8404916E2,4.9008137E1,1.1158693E2,-9.4776665E1,7.7673096E1,-4.1922432E1,-8.32467E0,-5.4065533E0,3.879131E1,-1.9626882E0,-4.034405E1,1.4297054E0,4.6771694E1],"categories":[],"categories_nodes":[],"categories_segments":[],"categories_sizes":[],"default_left":[0,0,0,0,0,0,0,0,0,0,0,0,0,0,0,0,0,0,0,0,0],"id":29,"left_children":[1,-1,3,5,7,-1,9,11,13,-1,15,17,19,-1,-1,-1,-1,-1,-1,-1,-1],"loss_changes":[1.8689424E6,0E0,1.5909235E6,1.9919988E6,1.3655442E6,0E0,9.17293E5,1.2757114E6,5.2275312E5,0E0,1.1066372E6,9.788634E5,2.0024806E6,0E0,0E0,0E0,0E0,0E0,0E0,0E0,0E0],"parents":[2147483647,0,0,2,2,3,3,4,4,6,6,7,7,8,8,10,10,11,11,12,12],"right_children":[2,-1,4,6,8,-1,10,12,14,-1,16,18,20,-1,-1,-1,-1,-1,-1,-1,-1],"split_conditions":[-9.3542117E-1,-3.3838436E1,-6.1850554E-1,-9.530011E-1,6.726996E-1,-1.861106E1,-6.1478835E-1,-2.2183186E-1,4.7951195E-1,4.9008137E1,3.2544684E-1,3.2471773E-1,8.5270756E-1,-4.1922432E1,-8.32467E0,-5.4065533E0,3.879131E1,-1.9626882E0,-4.034405E1,1.4297054E0,4.6771694E1],"split_indices":[11,0,19,10,8,0,16,9,10,0,8,2,0,0,0,0,0,0,0,0,0],"split_type":[0,0,0,0,0,0,0,0,0,0,0,0,0,0,0,0,0,0,0,0,0],"sum_hessian":[3.53E2,2.9E1,3.24E2,9.9E1,2.25E2,2.2E1,7.7E1,1.85E2,4E1,3.1E1,4.6E1,6.5E1,1.2E2,2.1E1,1.9E1,2.4E1,2.2E1,4.6E1,1.9E1,9.5E1,2.5E1],"tree_param":{"num_deleted":"0","num_feature":"35","num_nodes":"21","size_leaf_vector":"1"}},{"base_weights":[6.605457E0,-1.0865132E2,3.603549E1,1.2805118E1,-1.7859825E2,-1.4942855E1,1.1018733E2,-3.712848E1,-4.3516407E0,-3.4005142E1,3.0373388E1,1.7139952E2,-9.12732E0,-3.1189322E1,1.0151843E2,1.127596E2,5.0199684E1,2.5563211E1,-1.1309001E1,-8.484185E0,3.1498821E1],"categories":[],"categories_nodes":[],"categories_segments":[],"categories_sizes":[],"default_left":[0,0,0,0,0,0,0,0,0,0,0,0,0,0,0,0,0,0,0,0,0],"id":30,"left_children":[1,3,5,-1,7,9,11,-1,-1,-1,13,15,-1,-1,17,19,-1,-1,-1,-1,-1],"loss_changes":[1.1732909E6,9.8980606E5,1.0434366E6,0E0,5.853029E5,1.6399306E6,1.204457E6,0E0,0E0,0E0,2.4215512E6,7.9443675E5,0E0,0E0,1.4468139E6,1.1601699E6,0E0,0E0,0E0,0E0,0E0],"parents":[2147483647,0,0,1,1,2,2,4,4,5,5,6,6,10,10,11,11,14,14,15,15],"right_children":[2,4,6,-1,8,10,12,-1,-1,-1,14,16,-1,-1,18,20,-1,-1,-1,-1,-1],"split_conditions":[-5.5324554E-1,-8.115557E-1,-3.244533E-1,1.2805118E1,1.2363183E0,-8.126703E-1,1.0936982E-1,-3.712848E1,-4.3516407E0,-3.4005142E1,-8.992228E-1,4.5902544E-1,-9.12732E0,-3.1189322E1,5.74038E-1,-2.2281829E-1,5.0199684E1,2.5563211E1,-1.1309001E1,-8.484185E0,3.1498821E1],"split_indices":[25,23,6,0,4,23,33,0,0,0,15,17,0,0,17,5,0,0,0,0,0],"split_type":[0,0,0,0,0,0,0,0,0,0,0,0,0,0,0,0,0,0,0,0,0],"sum_hessian":[3.43E2,6.9E1,2.74E2,1.8E1,5.1E1,1.63E2,1.11E2,3.3E1,1.8E1,2.7E1,1.36E2,8.2E1,2.9E1,3E1,1.06E2,6.3E1,1.9E1,7.5E1,3.1E1,2.4E1,3.9E1],"tree_param":{"num_deleted":"0","num_feature":"35","num_nodes":"21","size_leaf_vector":"1"}},{"base_weights":[-2.8044188E1,-1.2466077E1,-3.372246E1,-4.8061733E1,1.0255565E2,-1.3475046E2,4.043655E-1,-8.657258E0,2.0354347E2,-1.9550778E2,1.3876025E1,5.777885E1,-1.2171033E2,5.157045E1,1.2403724E1,-9.758288E0,-3.7226402E1,3.680134E1,-9.3540745E0,7.645861E0,-3.1707895E1],"categories":[],"categories_nodes":[],"categories_segments":[],"categories_sizes":[],"default_left":[0,0,0,0,0,0,0,0,0,0,0,0,0,0,0,0,0,0,0,0,0],"id":31,"left_children":[1,3,-1,5,7,9,11,-1,13,15,-1,17,19,-1,-1,-1,-1,-1,-1,-1,-1],"loss_changes":[1.0884392E6,1.3223964E6,0E0,1.035532E6,1.2668576E6,1.2613952E6,1.126069E6,0E0,8.031365E5,5.21244E5,0E0,2.6285648E6,8.775852E5,0E0,0E0,0E0,0E0,0E0,0E0,0E0,0E0],"parents":[2147483647,0,0,1,1,3,3,4,4,5,5,6,6,8,8,9,9,11,11,12,12],"right_children":[2,4,-1,6,8,10,12,-1,14,16,-1,18,20,-1,-1,-1,-1,-1,-1,-1,-1],"split_conditions":[1.8016933E0,2.9657957E-1,-3.372246E1,-3.571501E-1,-4.4676763E-1,3.976688E-2,-1.8250911E-1,-8.657258E0,4.2742845E-1,-7.004935E-1,1.3876025E1,1.528888E-1,-1.876773E-1,5.157045E1,1.2403724E1,-9.758288E0,-3.7226402E1,3.680134E1,-9.3540745E0,7.645861E0,-3.1707895E1],"split_indices":[15,6,0,17,20,7,29,0,5,20,0,17,9,0,0,0,0,0,0,0,0],"split_type":[0,0,0,0,0,0,0,0,0,0,0,0,0,0,0,0,0,0,0,0,0],"sum_hessian":[3.43E2,3.2E2,2.3E1,2.45E2,7.5E1,8.7E1,1.58E2,2.9E1,4.6E1,6.9E1,1.8E1,1.08E2,5E1,1.9E1,2.7E1,2.3E1,4.6E1,4.1E1,6.7E1,1.8E1,3.2E1],"tree_param":{"num_deleted":"0","num_feature":"35","num_nodes":"21","size_leaf_vector":"1"}},{"base_weights":[2.0485585E0,4.197223E1,-9.711893E1,8.420536E1,-9.7134735E1,-1.8399315E1,-4.4377518E1,4.293356E1,4.7888615E1,1.761719E1,-2.0389758E2,-3.115586E1,1.2244544E2,-1.3385709E2,9.981751E1,-1.0366945E1,-4.7840546E1,4.5471157E1,-9.681169E0,-4.142895E1,1.6569003E0,-1.5304335E1,2.171294E1],"categories":[],"categories_nodes":[],"categories_segments":[],"categories_sizes":[],"default_left":[0,0,0,0,0,0,0,0,0,0,0,0,0,0,0,0,0,0,0,0,0,0,0],"id":32,"left_children":[1,3,5,7,9,11,-1,13,-1,-1,15,-1,17,19,21,-1,-1,-1,-1,-1,-1,-1,-1],"loss_changes":[1.3292636E6,1.4174608E6,1.5687229E6,1.8436165E6,1.3473902E6,2.0038661E6,0E0,1.6209442E6,0E0,0E0,6.0271125E5,0E0,1.5513405E6,8.680557E5,1.2514326E6,0E0,0E0,0E0,0E0,0E0,0E0,0E0,0E0],"parents":[2147483647,0,0,1,1,2,2,3,3,4,4,5,5,7,7,10,10,12,12,13,13,14,14],"right_children":[2,4,6,8,10,12,-1,14,-1,-1,16,-1,18,20,22,-1,-1,-1,-1,-1,-1,-1,-1],"split_conditions":[2.6821458E-1,6.995411E-1,3.612544E-2,9.783801E-1,-4.0268683E-1,-1.287639E-1,-4.4377518E1,-8.087489E-1,4.7888615E1,1.761719E1,-8.0416644E-1,-3.115586E1,-2.8871733E-1,2.2165966E-1,-6.7774546E-1,-1.0366945E1,-4.7840546E1,4.5471157E1,-9.681169E0,-4.142895E1,1.6569003E0,-1.5304335E1,2.171294E1],"split_indices":[31,18,33,15,7,7,0,23,0,0,23,0,15,18,11,0,0,0,0,0,0,0,0],"split_type":[0,0,0,0,0,0,0,0,0,0,0,0,0,0,0,0,0,0,0,0,0,0,0],"sum_hessian":[3.33E2,2.38E2,9.5E1,1.83E2,5.5E1,7E1,2.5E1,1.58E2,2.5E1,1.8E1,3.7E1,2.9E1,4.1E1,3.8E1,1.2E2,1.9E1,1.8E1,2E1,2.1E1,1.8E1,2E1,2.3E1,9.7E1],"tree_param":{"num_deleted":"0","num_feature":"35","num_nodes":"23","size_leaf_vector":"1"}},{"base_weights":[2.2830355E1,3.7881516E1,-2.8420975E1,1.8352815E2,1.5157205E1,1.0692371E1,4.403874E1,-1.17215706E2,4.320329E1,-4.3694977E1,1.5733749E0,1.54959545E1,3.298308E1,6.1651373E0,-2.31874E1],"categories":[],"categories_nodes":[],"categories_segments":[],"categories_sizes":[],"default_left":[0,0,0,0,0,0,0,0,0,0,0,0,0,0,0],"id":33,"left_children":[1,3,-1,5,7,-1,-1,9,11,-1,-1,13,-1,-1,-1],"loss_changes":[1.137325E6,1.0626402E6,0E0,5.372645E5,1.04764056E6,0E0,0E0,1.1626642E6,1.1760359E6,0E0,0E0,9.649099E5,0E0,0E0,0E0],"parents":[2147483647,0,0,1,1,3,3,4,4,7,7,8,8,11,11],"right_children":[2,4,-1,6,8,-1,-1,10,12,-1,-1,14,-1,-1,-1],"split_conditions":[2.0743256E0,-1.0322025E0,-2.8420975E1,5.047722E-2,-6.4444566E-1,1.0692371E1,4.403874E1,-1.6462043E-1,8.83939E-1,-4.3694977E1,1.5733749E0,1.6146569E0,3.298308E1,6.1651373E0,-2.31874E1],"split_indices":[19,0,0,13,0,0,0,12,20,0,0,0,0,0,0],"split_type":[0,0,0,0,0,0,0,0,0,0,0,0,0,0,0],"sum_hessian":[3.42E2,3.21E2,2.1E1,4.2E1,2.79E2,2.3E1,1.9E1,4.8E1,2.31E2,1.9E1,2.9E1,2.02E2,2.9E1,1.76E2,2.6E1],"tree_param":{"num_deleted":"0","num_feature":"35","num_nodes":"15","size_leaf_vector":"1"}},{"base_weights":[2.7231493E0,-1.2183088E1,3.1072453E1,4.020075E0,-2.996497E1,-1.7962158E1,2.704097E1,2.746393E0,-3.3495674E1,-1.947227E1,5.23626E0],"categories":[],"categories_nodes":[],"categories_segments":[],"categories_sizes":[],"default_left":[0,0,0,0,0,0,0,0,0,0,0],"id":34,"left_children":[1,3,-1,5,-1,7,-1,9,-1,-1,-1],"loss_changes":[1.01728656E6,9.5103994E5,0E0,1.1257379E6,0E0,1.1064086E6,0E0,1.0524244E6,0E0,0E0,0E0],"parents":[2147483647,0,0,1,1,3,3,5,5,7,7],"right_children":[2,4,-1,6,-1,8,-1,10,-1,-1,-1],"split_conditions":[1.1935682E0,1.2327491E0,3.1072453E1,1.1684157E0,-2.996497E1,1.0557479E0,2.704097E1,-7.46609E-1,-3.3495674E1,-1.947227E1,5.23626E0],"split_indices":[25,2,0,16,0,17,0,17,0,0,0],"split_type":[0,0,0,0,0,0,0,0,0,0,0],"sum_hessian":[3.21E2,3.01E2,2E1,2.79E2,2.2E1,2.5E2,2.9E1,2.29E2,2.1E1,4.4E1,1.85E2],"tree_param":{"num_deleted":"0","num_feature":"35","num_nodes":"11","size_leaf_vector":"1"}},{"base_weights":[9.569452E0,3.735994E1,-1.26427414E2,-1.2209158E2,6.3827446E1,-2.658113E0,-3.8082798E1,3.3902094E0,-4.0954147E1,-7.301951E1,1.1170109E2,9.641955E0,-2.604111E1,7.555339E1,5.0695213E1,3.312898E0,3.1718702E1],"categories":[],"categories_nodes":[],"categories_segments":[],"categories_sizes":[],"default_left":[0,0,0,0,0,0,0,0,0,0,0,0,0,0,0,0,0],"id":35,"left_children":[1,3,5,7,9,-1,-1,-1,-1,11,13,-1,-1,15,-1,-1,-1],"loss_changes":[1.2775332E6,1.1937762E6,8.3247575E5,9.4528756E5,1.5925828E6,0E0,0E0,0E0,0E0,9.5196794E5,1.4978848E6,0E0,0E0,1.1759398E6,0E0,0E0,0E0],"parents":[2147483647,0,0,1,1,2,2,3,3,4,4,9,9,10,10,13,13],"right_children":[2,4,6,8,10,-1,-1,-1,-1,12,14,-1,-1,16,-1,-1,-1],"split_conditions":[4.01449E-1,-1.0577974E0,4.947659E-2,-1.7875339E-1,-6.6558635E-1,-2.658113E0,-3.8082798E1,3.3902094E0,-4.0954147E1,4.6023965E-2,5.1961553E-1,9.641955E0,-2.604111E1,4.1030106E-1,5.0695213E1,3.312898E0,3.1718702E1],"split_indices":[32,22,25,21,6,0,0,0,0,27,25,0,0,15,0,0,0],"split_type":[0,0,0,0,0,0,0,0,0,0,0,0,0,0,0,0,0],"sum_hessian":[3.35E2,2.79E2,5.6E1,3.9E1,2.4E2,3.2E1,2.4E1,2.1E1,1.8E1,6.2E1,1.78E2,2.7E1,3.5E1,1.56E2,2.2E1,1.15E2,4.1E1],"tree_param":{"num_deleted":"0","num_feature":"35","num_nodes":"17","size_leaf_vector":"1"}},{"base_weights":[1.827857E1,-8.507206E0,1.786092E2,2.0426952E1,-2.9679699E1,4.8168198E1,-1.0613836E1,-2.9675322E1,-9.540934E0,2.0240046E1,-1.5045203E2,6.7293005E0,-2.4640062E1,1.2318001E0,-4.7060738E1],"categories":[],"categories_nodes":[],"categories_segments":[],"categories_sizes":[],"default_left":[0,0,0,0,0,0,0,0,0,0,0,0,0,0,0],"id":36,"left_children":[1,3,5,-1,7,-1,-1,-1,9,11,13,-1,-1,-1,-1],"loss_changes":[1.4513785E6,9.209129E5,1.8890675E6,0E0,8.93147E5,0E0,0E0,0E0,9.712466E5,9.542981E5,1.1145644E6,0E0,0E0,0E0,0E0],"parents":[2147483647,0,0,1,1,2,2,4,4,8,8,9,9,10,10],"right_children":[2,4,6,-1,8,-1,-1,-1,10,12,14,-1,-1,-1,-1],"split_conditions":[9.831479E-1,-1.0492662E0,1.4829257E-1,2.0426952E1,-8.316826E-1,4.8168198E1,-1.0613836E1,-2.9675322E1,-1.3949355E-1,1.0693252E0,-3.2744834E-1,6.7293005E0,-2.4640062E1,1.2318001E0,-4.7060738E1],"split_indices":[10,8,0,0,8,0,0,0,12,11,33,0,0,0,0],"split_type":[0,0,0,0,0,0,0,0,0,0,0,0,0,0,0],"sum_hessian":[3.36E2,2.89E2,4.7E1,3.5E1,2.54E2,2.9E1,1.8E1,2.5E1,2.29E2,1.9E2,3.9E1,1.68E2,2.2E1,2.1E1,1.8E1],"tree_param":{"num_deleted":"0","num_feature":"35","num_nodes":"15","size_leaf_vector":"1"}},{"base_weights":[-8.221388E0,-4.6297882E1,7.835997E1,8.43085E1,-9.261717E1,1.6664816E2,-4.8107838E1,3.2062416E1,-8.038658E0,-1.6207953E2,-1.3387258E1,-2.520421E0,2.6755493E2,-2.2493292E1,1.4570465E1,-1.0450448E2,-4.8120953E1,3.4803864E1,-8.687418E1,5.8576897E1,1.768087E1,-3.3399437E1,6.233685E0,-3.9087276E1,-8.922767E-1],"categories":[],"categories_nodes":[],"categories_segments":[],"categories_sizes":[],"default_left":[0,0,0,0,0,0,0,0,0,0,0,0,0,0,0,0,0,0,0,0,0,0,0,0,0],"id":37,"left_children":[1,3,5,7,9,11,13,-1,-1,15,17,-1,19,-1,-1,21,-1,-1,23,-1,-1,-1,-1,-1,-1],"loss_changes":[1.1368856E6,1.458818E6,1.1878151E6,1.220527E6,9.7273975E5,1.1648358E6,7.219307E5,0E0,0E0,8.6800875E5,1.5943081E6,0E0,7.2786825E5,0E0,0E0,1.3476265E6,0E0,0E0,9.71226E5,0E0,0E0,0E0,0E0,0E0,0E0],"parents":[2147483647,0,0,1,1,2,2,3,3,4,4,5,5,6,6,9,9,10,10,12,12,15,15,18,18],"right_children":[2,4,6,8,10,12,14,-1,-1,16,18,-1,20,-1,-1,22,-1,-1,24,-1,-1,-1,-1,-1,-1],"split_conditions":[3.183468E-2,-6.468598E-1,1.7361176E-1,-5.63338E-1,-8.2227096E-2,-5.144174E-1,-3.7699744E-1,3.2062416E1,-8.038658E0,-1.1261828E-1,1.2724298E-1,-2.520421E0,-2.448419E-2,-2.2493292E1,1.4570465E1,-1.0282305E0,-4.8120953E1,3.4803864E1,-4.5731845E-1,5.8576897E1,1.768087E1,-3.3399437E1,6.233685E0,-3.9087276E1,-8.922767E-1],"split_indices":[9,3,15,19,20,4,26,0,0,9,20,0,34,0,0,22,0,0,0,0,0,0,0,0,0],"split_type":[0,0,0,0,0,0,0,0,0,0,0,0,0,0,0,0,0,0,0,0,0,0,0,0,0],"sum_hessian":[3.42E2,2.38E2,1.04E2,6.2E1,1.76E2,6.1E1,4.3E1,3.1E1,3.1E1,9.3E1,8.3E1,2.2E1,3.9E1,2.5E1,1.8E1,7.1E1,2.2E1,1.8E1,6.5E1,1.9E1,2E1,3.8E1,3.3E1,1.9E1,4.6E1],"tree_param":{"num_deleted":"0","num_feature":"35","num_nodes":"25","size_leaf_vector":"1"}},{"base_weights":[-7.847113E0,1.0103438E1,-3.4507496E1,-3.111867E1,6.757451E1,-3.4884117E1,-8.333736E0,3.0354733E1,2.698488E1,5.4353664E1,-8.144131E1,-7.221205E1,1.0654412E2,-1.0284679E1,1.9297213E1,-2.4706196E1,-3.2550246E-1,1.378903E1,-3.3347622E1,-1.1860138E1,2.8808298E1],"categories":[],"categories_nodes":[],"categories_segments":[],"categories_sizes":[],"default_left":[0,0,0,0,0,0,0,0,0,0,0,0,0,0,0,0,0,0,0,0,0],"id":38,"left_children":[1,3,-1,5,7,-1,9,-1,11,13,15,17,19,-1,-1,-1,-1,-1,-1,-1,-1],"loss_changes":[1.4956451E6,8.0223175E5,0E0,9.349697E5,8.011523E5,0E0,8.281771E5,0E0,8.8957175E5,9.661731E5,5.8260875E5,1.3507065E6,1.095304E6,0E0,0E0,0E0,0E0,0E0,0E0,0E0,0E0],"parents":[2147483647,0,0,1,1,3,3,4,4,6,6,8,8,9,9,10,10,11,11,12,12],"right_children":[2,4,-1,6,8,-1,10,-1,12,14,16,18,20,-1,-1,-1,-1,-1,-1,-1,-1],"split_conditions":[1.2912472E0,-2.2477356E-1,-3.4507496E1,-6.245116E-1,5.571262E-2,-3.4884117E1,-5.360064E-1,3.0354733E1,-2.7549016E-1,-9.767876E-1,-9.9278405E-2,1.5004625E-2,-1.748421E-1,-1.0284679E1,1.9297213E1,-2.4706196E1,-3.2550246E-1,1.378903E1,-3.3347622E1,-1.1860138E1,2.8808298E1],"split_indices":[10,6,0,4,6,0,5,0,20,22,17,29,3,0,0,0,0,0,0,0,0],"split_type":[0,0,0,0,0,0,0,0,0,0,0,0,0,0,0,0,0,0,0,0,0],"sum_hessian":[3.61E2,3.36E2,2.5E1,1.96E2,1.4E2,1.8E1,1.78E2,3E1,1.1E2,9.6E1,8.2E1,4.9E1,6.1E1,3.7E1,5.9E1,3.8E1,4.4E1,2.4E1,2.5E1,2E1,4.1E1],"tree_param":{"num_deleted":"0","num_feature":"35","num_nodes":"21","size_leaf_vector":"1"}},{"base_weights":[-9.741009E0,8.68316E1,-4.3969524E1,-1.6879099E1,1.4259863E2,-2.0128931E1,-4.415231E1,4.3754475E1,3.953219E1,4.3829758E1,-1.0729709E2,2.4526321E1,-1.3096555E1,-6.017127E0,3.1368778E1,3.8504698E0,-1.5282173E2,-1.6995554E1,1.9086653E1,-5.5324062E1,-6.9253125E0],"categories":[],"categories_nodes":[],"categories_segments":[],"categories_sizes":[],"default_left":[0,0,0,0,0,0,0,0,0,0,0,0,0,0,0,0,0,0,0,0,0],"id":39,"left_children":[1,3,5,-1,7,9,-1,11,-1,13,15,-1,-1,17,-1,-1,19,-1,-1,-1,-1],"loss_changes":[1.0905651E6,9.997899E5,1.4965009E6,0E0,8.555244E5,1.2575081E6,0E0,6.9511556E5,0E0,1.1186419E6,5.866239E5,0E0,0E0,1.5772798E6,0E0,0E0,1.6821439E6,0E0,0E0,0E0,0E0],"parents":[2147483647,0,0,1,1,2,2,4,4,5,5,7,7,9,9,10,10,13,13,16,16],"right_children":[2,4,6,-1,8,10,-1,12,-1,14,16,-1,-1,18,-1,-1,20,-1,-1,-1,-1],"split_conditions":[-4.3035227E-1,-7.128002E-1,1.737413E0,-1.6879099E1,-1.50901E-1,5.064753E-2,-4.415231E1,-4.5874852E-1,3.953219E1,6.2625194E-1,-6.770524E-1,2.4526321E1,-1.3096555E1,4.7246248E-2,3.1368778E1,3.8504698E0,-2.6040468E-1,-1.6995554E1,1.9086653E1,-5.5324062E1,-6.9253125E0],"split_indices":[7,10,15,0,33,13,0,33,0,19,1,0,0,13,0,0,1,0,0,0,0],"split_type":[0,0,0,0,0,0,0,0,0,0,0,0,0,0,0,0,0,0,0,0,0],"sum_hessian":[3.27E2,8.5E1,2.42E2,1.8E1,6.7E1,2.23E2,1.9E1,3.9E1,2.8E1,1.29E2,9.4E1,2E1,1.9E1,1.01E2,2.8E1,2.4E1,7E1,5.6E1,4.5E1,2.1E1,4.9E1],"tree_param":{"num_deleted":"0","num_feature":"35","num_nodes":"21","size_leaf_vector":"1"}},{"base_weights":[-1.4638321E0,-4.535544E1,7.693324E1,-1.5183133E1,-4.020436E1,-2.2923386E1,1.2717121E2,-6.1066406E1,3.327838E1,-4.2358236E0,1.8093367E2,8.2011406E1,-1.0145694E2,6.533361E1,2.9301764E2,-5.2762947E0,2.831441E1,-2.3773189E0,-3.0952635E1,2.6202473E1,-9.569487E0,5.8658653E1,2.4502789E1],"categories":[],"categories_nodes":[],"categories_segments":[],"categories_sizes":[],"default_left":[0,0,0,0,0,0,0,0,0,0,0,0,0,0,0,0,0,0,0,0,0,0,0],"id":40,"left_children":[1,3,5,7,-1,-1,9,11,-1,-1,13,15,17,19,21,-1,-1,-1,-1,-1,-1,-1,-1],"loss_changes":[1.1827904E6,1.5293604E6,1.4807622E6,2.2164672E6,0E0,0E0,8.677539E5,9.729068E5,0E0,0E0,9.62381E5,5.0780362E5,1.2296498E6,6.089346E5,4.3219575E5,0E0,0E0,0E0,0E0,0E0,0E0,0E0,0E0],"parents":[2147483647,0,0,1,1,2,2,3,3,6,6,7,7,10,10,11,11,12,12,13,13,14,14],"right_children":[2,4,6,8,-1,-1,10,12,-1,-1,14,16,18,20,22,-1,-1,-1,-1,-1,-1,-1,-1],"split_conditions":[9.284634E-2,3.6029257E-2,-4.6394148E-1,-2.3595236E-1,-4.020436E1,-2.2923386E1,-4.9522427E-1,-3.0464494E-1,3.327838E1,-4.2358236E0,-3.4527388E-1,-5.5658394E-1,-6.110824E-1,-7.97521E-1,-2.168297E-1,-5.2762947E0,2.831441E1,-2.3773189E0,-3.0952635E1,2.6202473E1,-9.569487E0,5.8658653E1,2.4502789E1],"split_indices":[2,26,9,26,0,0,28,9,0,0,16,1,1,16,33,0,0,0,0,0,0,0,0],"split_type":[0,0,0,0,0,0,0,0,0,0,0,0,0,0,0,0,0,0,0,0,0,0,0],"sum_hessian":[3.41E2,2.19E2,1.22E2,1.95E2,2.4E1,2.1E1,1.01E2,1.65E2,3E1,2.6E1,7.5E1,3.6E1,1.29E2,3.8E1,3.7E1,1.8E1,1.8E1,7.4E1,5.5E1,2E1,1.8E1,1.8E1,1.9E1],"tree_param":{"num_deleted":"0","num_feature":"35","num_nodes":"23","size_leaf_vector":"1"}},{"base_weights":[-6.0892863E0,1.7902441E1,-2.037163E1,-2.9630953E1,-5.4111786E0,-2.420831E1,8.076328E0,4.6145702E1,-6.972254E1,2.7619143E0,3.9344227E1,2.3800392E0,-2.7332308E1],"categories":[],"categories_nodes":[],"categories_segments":[],"categories_sizes":[],"default_left":[0,0,0,0,0,0,0,0,0,0,0,0,0],"id":41,"left_children":[1,-1,3,-1,5,-1,7,9,11,-1,-1,-1,-1],"loss_changes":[6.364982E5,0E0,8.490492E5,0E0,6.283701E5,0E0,7.962358E5,1.091044E6,9.0337875E5,0E0,0E0,0E0,0E0],"parents":[2147483647,0,0,2,2,4,4,6,6,7,7,8,8],"right_children":[2,-1,4,-1,6,-1,8,10,12,-1,-1,-1,-1],"split_conditions":[-1.0592829E0,1.7902441E1,-1.0577974E0,-2.9630953E1,-1.2137578E0,-2.420831E1,4.0616038E-1,8.382973E-1,1.4634374E-1,2.7619143E0,3.9344227E1,2.3800392E0,-2.7332308E1],"split_indices":[22,0,22,0,15,0,17,16,20,0,0,0,0],"split_type":[0,0,0,0,0,0,0,0,0,0,0,0,0],"sum_hessian":[3.42E2,3.3E1,3.09E2,2.2E1,2.87E2,2.1E1,2.66E2,1.79E2,8.7E1,1.61E2,1.8E1,5.1E1,3.6E1],"tree_param":{"num_deleted":"0","num_feature":"35","num_nodes":"13","size_leaf_vector":"1"}},{"base_weights":[-1.3077718E-1,-2.5506306E1,1.3564019E1,-2.0055397E1,2.7955582E1,1.0084666E2,-1.9411795E1,3.8249447E1,3.5850876E1,-8.721916E1,7.5346954E1,-8.947787E0,1.6311188E1,-3.2507534E1,-1.9123969E0,-1.8281555E1,2.0415615E1],"categories":[],"categories_nodes":[],"categories_segments":[],"categories_sizes":[],"default_left":[0,0,0,0,0,0,0,0,0,0,0,0,0,0,0,0,0],"id":42,"left_children":[1,-1,3,-1,5,7,9,-1,11,13,15,-1,-1,-1,-1,-1,-1],"loss_changes":[8.394531E5,0E0,7.118313E5,0E0,1.02960856E6,1.2226016E6,1.1744046E6,0E0,6.434054E5,1.0686921E6,1.0216736E6,0E0,0E0,0E0,0E0,0E0,0E0],"parents":[2147483647,0,0,2,2,4,4,5,5,6,6,8,8,9,9,10,10],"right_children":[2,-1,4,-1,6,8,10,-1,12,14,16,-1,-1,-1,-1,-1,-1],"split_conditions":[-1.6817385E-1,-2.5506306E1,-9.295979E-1,-2.0055397E1,-3.866869E-1,-2.8910136E-1,-3.2303248E-2,3.8249447E1,-6.79504E-1,-5.2402504E-2,-7.037728E-1,-8.947787E0,1.6311188E1,-3.2507534E1,-1.9123969E0,-1.8281555E1,2.0415615E1],"split_indices":[12,0,29,0,30,24,16,0,5,30,0,0,0,0,0,0,0],"split_type":[0,0,0,0,0,0,0,0,0,0,0,0,0,0,0,0,0],"sum_hessian":[3.47E2,2.4E1,3.23E2,2.7E1,2.96E2,1.16E2,1.8E2,3.2E1,8.4E1,1.05E2,7.5E1,3.7E1,4.7E1,3.6E1,6.9E1,1.8E1,5.7E1],"tree_param":{"num_deleted":"0","num_feature":"35","num_nodes":"17","size_leaf_vector":"1"}},{"base_weights":[5.6063086E-1,5.4810184E1,-4.2507153E1,1.6760149E1,3.948319E1,-1.6794398E2,1.1868464E1,-3.106781E1,2.5336994E1,-2.6907892E0,-4.984002E1,9.4954056E1,-1.00421036E2,3.2417522E1,-2.5053247E1,-1.1697165E1,3.2315674E1,-2.9006733E1,4.5589635E-1,-1.1060745E1,1.7533493E1,-2.370968E1,1.517875E1],"categories":[],"categories_nodes":[],"categories_segments":[],"categories_sizes":[],"default_left":[0,0,0,0,0,0,0,0,0,0,0,0,0,0,0,0,0,0,0,0,0,0,0],"id":43,"left_children":[1,3,5,7,-1,9,11,13,-1,-1,-1,15,17,19,-1,21,-1,-1,-1,-1,-1,-1,-1],"loss_changes":[7.93796E5,1.2321916E6,1.294768E6,9.816455E5,0E0,1.4876576E6,1.2573541E6,9.0731906E5,0E0,0E0,0E0,1.0534214E6,5.892423E5,6.8495994E5,0E0,7.846658E5,0E0,0E0,0E0,0E0,0E0,0E0,0E0],"parents":[2147483647,0,0,1,1,2,2,3,3,5,5,6,6,7,7,11,11,12,12,13,13,15,15],"right_children":[2,4,6,8,-1,10,12,14,-1,-1,-1,16,18,20,-1,22,-1,-1,-1,-1,-1,-1,-1],"split_conditions":[-2.5600106E-1,-4.3351108E-1,-5.6505376E-1,5.196291E-1,3.948319E1,-6.468598E-1,2.4143754E-1,-3.4722555E-2,2.5336994E1,-2.6907892E0,-4.984002E1,7.853619E-1,-2.2183186E-1,-3.1938052E-1,-2.5053247E1,-4.8741767E-1,3.2315674E1,-2.9006733E1,4.5589635E-1,-1.1060745E1,1.7533493E1,-2.370968E1,1.517875E1],"split_indices":[15,15,31,28,0,3,21,26,0,0,0,15,9,11,0,5,0,0,0,0,0,0,0],"split_type":[0,0,0,0,0,0,0,0,0,0,0,0,0,0,0,0,0,0,0,0,0,0,0],"sum_hessian":[3.37E2,1.49E2,1.88E2,1.28E2,2.1E1,5.6E1,1.32E2,9.9E1,2.9E1,3.1E1,2.5E1,7.6E1,5.6E1,6.9E1,3E1,4.2E1,3.4E1,2.8E1,2.8E1,3.1E1,3.8E1,1.8E1,2.4E1],"tree_param":{"num_deleted":"0","num_feature":"35","num_nodes":"23","size_leaf_vector":"1"}},{"base_weights":[-1.7476645E1,4.2313446E1,-6.822874E1,-2.1881113E1,9.291739E1,-1.5189836E2,-8.721818E0,-1.3742872E1,1.7397717E2,-7.795616E1,-5.071206E1,2.5307682E1,-7.322215E1,1.5135096E1,-1.6136229E1,6.775313E1,4.8813038E1,-2.335068E1,1.0255259E1,3.6074462E0,-2.7078041E1,2.4995564E1,-9.867041E0,-1.6487068E1,2.4200508E1],"categories":[],"categories_nodes":[],"categories_segments":[],"categories_sizes":[],"default_left":[0,0,0,0,0,0,0,0,0,0,0,0,0,0,0,0,0,0,0,0,0,0,0,0,0],"id":44,"left_children":[1,3,5,-1,7,9,11,13,15,17,-1,-1,19,-1,-1,21,-1,-1,-1,23,-1,-1,-1,-1,-1],"loss_changes":[9.7921244E5,1.4659138E6,8.659546E5,0E0,1.0270979E6,1.0140921E6,1.2351586E6,6.1514956E5,1.1238336E6,6.819425E5,0E0,0E0,6.724814E5,0E0,0E0,6.139429E5,0E0,0E0,0E0,9.273562E5,0E0,0E0,0E0,0E0,0E0],"parents":[2147483647,0,0,1,1,2,2,4,4,5,5,6,6,7,7,8,8,9,9,12,12,15,15,19,19],"right_children":[2,4,6,-1,8,10,12,14,16,18,-1,-1,20,-1,-1,22,-1,-1,-1,24,-1,-1,-1,-1,-1],"split_conditions":[-3.2389054E-1,-9.534505E-1,-2.6020363E-1,-2.1881113E1,-8.021035E-1,6.606753E-1,-1.2312264E-1,-3.0545527E-1,-5.549187E-1,4.7977614E-1,-5.071206E1,2.5307682E1,-3.5717198E-1,1.5135096E1,-1.6136229E1,2.3204567E-1,4.8813038E1,-2.335068E1,1.0255259E1,-5.628431E-1,-2.7078041E1,2.4995564E1,-9.867041E0,-1.6487068E1,2.4200508E1],"split_indices":[29,29,6,0,23,1,5,7,3,10,0,0,25,0,0,16,0,0,0,28,0,0,0,0,0],"split_type":[0,0,0,0,0,0,0,0,0,0,0,0,0,0,0,0,0,0,0,0,0,0,0,0,0],"sum_hessian":[3.2E2,1.47E2,1.73E2,3E1,1.17E2,7.1E1,1.02E2,5.1E1,6.6E1,5.3E1,1.8E1,2.6E1,7.6E1,2.3E1,2.8E1,4.1E1,2.5E1,3.4E1,1.9E1,4.6E1,3E1,2.3E1,1.8E1,2.7E1,1.9E1],"tree_param":{"num_deleted":"0","num_feature":"35","num_nodes":"25","size_leaf_vector":"1"}},{"base_weights":[-6.772988E0,2.9225393E1,-8.365726E1,7.490379E1,-7.846705E1,-4.4222984E1,-3.746464E1,1.3962294E2,-4.458083E1,-2.944668E1,3.169403E1,4.812819E1,-1.3325862E2,7.274083E1,4.714435E1,1.1080207E1,-1.0249801E2,1.6771059E1,-7.8561015E0,-1.1611863E1,2.4424656E1,-3.4265804E1,-6.872787E0,3.309793E1,-1.4541113E0,-4.352151E0,-2.5488438E1],"categories":[],"categories_nodes":[],"categories_segments":[],"categories_sizes":[],"default_left":[0,0,0,0,0,0,0,0,0,0,0,0,0,0,0,0,0,0,0,0,0,0,0,0,0,0,0],"id":45,"left_children":[1,3,5,7,9,11,-1,13,15,-1,17,19,21,23,-1,-1,25,-1,-1,-1,-1,-1,-1,-1,-1,-1,-1],"loss_changes":[9.233939E5,1.1265318E6,7.1288125E5,1.2489081E6,9.426576E5,7.3563675E5,0E0,1.254041E6,4.1195288E5,0E0,2.763431E5,6.9840594E5,3.8314744E5,1.00710725E6,0E0,0E0,2.0003553E5,0E0,0E0,0E0,0E0,0E0,0E0,0E0,0E0,0E0,0E0],"parents":[2147483647,0,0,1,1,2,2,3,3,4,4,5,5,7,7,8,8,10,10,11,11,12,12,13,13,16,16],"right_children":[2,4,6,8,10,12,-1,14,16,-1,18,20,22,24,-1,-1,26,-1,-1,-1,-1,-1,-1,-1,-1,-1,-1],"split_conditions":[6.3753575E-2,1.777118E-1,7.553402E-1,4.622615E-1,-4.4789088E-1,-2.168297E-1,-3.746464E1,-4.6545103E-1,-6.1135006E-1,-2.944668E1,-8.4194005E-1,-4.5874852E-1,-3.7244254E-1,-5.3279144E-1,4.714435E1,1.1080207E1,-3.8013506E-1,1.6771059E1,-7.8561015E0,-1.1611863E1,2.4424656E1,-3.4265804E1,-6.872787E0,3.309793E1,-1.4541113E0,-4.352151E0,-2.5488438E1],"split_indices":[7,19,8,34,30,33,0,19,17,0,18,33,8,11,0,0,7,0,0,0,0,0,0,0,0,0,0],"split_type":[0,0,0,0,0,0,0,0,0,0,0,0,0,0,0,0,0,0,0,0,0,0,0,0,0,0,0],"sum_hessian":[3.31E2,2.26E2,1.05E2,1.59E2,6.7E1,8.7E1,1.8E1,1.03E2,5.6E1,3.1E1,3.6E1,4.3E1,4.4E1,7.7E1,2.6E1,1.8E1,3.8E1,1.8E1,1.8E1,2.1E1,2.2E1,1.9E1,2.5E1,2.6E1,5.1E1,2E1,1.8E1],"tree_param":{"num_deleted":"0","num_feature":"35","num_nodes":"27","size_leaf_vector":"1"}},{"base_weights":[2.2009532E0,-2.8850079E1,5.8646248E1,-7.8514414E0,-2.4553883E1,-6.757919E1,1.3272403E2,-5.3995438E1,5.8626133E1,8.0375805E0,-2.7896902E1,3.585366E1,4.392296E1,-1.513495E2,6.1896862E1,1.2646347E2,-1.9934689E1,2.573543E1,-1.1760601E1,-5.2168258E-2,-3.4452084E1,-1.541818E1,2.1022823E1,-5.699328E-1,3.1626915E1],"categories":[],"categories_nodes":[],"categories_segments":[],"categories_sizes":[],"default_left":[0,0,0,0,0,0,0,0,0,0,0,0,0,0,0,0,0,0,0,0,0,0,0,0,0],"id":46,"left_children":[1,3,5,7,-1,9,11,13,15,-1,-1,-1,17,19,21,23,-1,-1,-1,-1,-1,-1,-1,-1,-1],"loss_changes":[6.340103E5,6.834061E5,1.2127871E6,6.312419E5,0E0,7.525621E5,8.061005E5,1.3824399E6,1.1434962E6,0E0,0E0,0E0,8.056656E5,8.55653E5,8.027552E5,7.5293344E5,0E0,0E0,0E0,0E0,0E0,0E0,0E0,0E0,0E0],"parents":[2147483647,0,0,1,1,2,2,3,3,5,5,6,6,7,7,8,8,12,12,13,13,14,14,15,15],"right_children":[2,4,6,8,-1,10,12,14,16,-1,-1,-1,18,20,22,24,-1,-1,-1,-1,-1,-1,-1,-1,-1],"split_conditions":[1.685549E-1,2.1612194E-1,-2.2183186E-1,-5.5190705E-2,-2.4553883E1,-2.8905947E-2,5.110151E-2,-7.7686265E-2,7.270633E-2,8.0375805E0,-2.7896902E1,3.585366E1,7.0076126E-1,-5.56549E-1,-6.782024E-1,-5.460681E-1,-1.9934689E1,2.573543E1,-1.1760601E1,-5.2168258E-2,-3.4452084E1,-1.541818E1,2.1022823E1,-5.699328E-1,3.1626915E1],"split_indices":[2,4,9,20,0,26,13,17,9,0,0,0,3,0,5,14,0,0,0,0,0,0,0,0,0],"split_type":[0,0,0,0,0,0,0,0,0,0,0,0,0,0,0,0,0,0,0,0,0,0,0,0,0],"sum_hessian":[3.59E2,2.32E2,1.27E2,2.03E2,2.9E1,4.7E1,8E1,1.2E2,8.3E1,2.4E1,2.3E1,3.4E1,4.6E1,6.5E1,5.5E1,6.2E1,2.1E1,2.2E1,2.4E1,2.4E1,4.1E1,1.8E1,3.7E1,2.6E1,3.6E1],"tree_param":{"num_deleted":"0","num_feature":"35","num_nodes":"25","size_leaf_vector":"1"}},{"base_weights":[2.0572136E1,1.079103E2,-3.3095677E0,3.2373215E1,8.688896E0,-8.325197E1,4.374241E1,1.583213E1,-1.4049384E1,-1.2607498E2,1.4794803E1,9.126743E1,-5.2778603E1,-2.6783066E1,-2.4667471E2,-5.7185493E0,1.8622339E2,1.2928701E1,-3.2432354E1,-2.2168192E1,7.9208484E0,-1.7384691E1,-5.105055E1,-1.4854701E1,1.4649341E1,4.073626E1,-3.9981905E-1],"categories":[],"categories_nodes":[],"categories_segments":[],"categories_sizes":[],"default_left":[0,0,0,0,0,0,0,0,0,0,0,0,0,0,0,0,0,0,0,0,0,0,0,0,0,0,0],"id":47,"left_children":[1,3,5,-1,7,9,11,-1,-1,13,-1,15,17,19,21,23,25,-1,-1,-1,-1,-1,-1,-1,-1,-1,-1],"loss_changes":[7.4198075E5,8.6519294E5,1.0596904E6,0E0,4.6100034E5,8.442291E5,8.2032725E5,0E0,0E0,1.0125286E6,0E0,1.1012475E6,1.458296E6,5.0505122E5,4.4993025E5,6.332681E5,1.0715665E6,0E0,0E0,0E0,0E0,0E0,0E0,0E0,0E0,0E0,0E0],"parents":[2147483647,0,0,1,1,2,2,4,4,5,5,6,6,9,9,11,11,12,12,13,13,14,14,15,15,16,16],"right_children":[2,4,6,-1,8,10,12,-1,-1,14,-1,16,18,20,22,24,26,-1,-1,-1,-1,-1,-1,-1,-1,-1,-1],"split_conditions":[-7.325425E-1,-2.2546309E-1,-3.5298958E-1,3.2373215E1,-3.1386304E-1,2.0480322E-2,-3.8197162E-3,1.583213E1,-1.4049384E1,-4.9930784E-1,1.4794803E1,-3.102835E-1,-2.448419E-2,-5.992792E-1,-6.2220275E-1,4.872706E-2,8.053212E-1,1.2928701E1,-3.2432354E1,-2.2168192E1,7.9208484E0,-1.7384691E1,-5.105055E1,-1.4854701E1,1.4649341E1,4.073626E1,-3.9981905E-1],"split_indices":[3,17,31,0,32,21,9,0,0,6,0,9,34,3,31,13,22,0,0,0,0,0,0,0,0,0,0],"split_type":[0,0,0,0,0,0,0,0,0,0,0,0,0,0,0,0,0,0,0,0,0,0,0,0,0,0,0],"sum_hessian":[3.54E2,7.5E1,2.79E2,3.4E1,4.1E1,1.03E2,1.76E2,2.1E1,2E1,8.4E1,1.9E1,1.18E2,5.8E1,4.7E1,3.7E1,5.9E1,5.9E1,3.2E1,2.6E1,1.8E1,2.9E1,1.8E1,1.9E1,3.1E1,2.8E1,3.9E1,2E1],"tree_param":{"num_deleted":"0","num_feature":"35","num_nodes":"27","size_leaf_vector":"1"}},{"base_weights":[1.7099073E1,-1.3067203E2,3.757188E1,-1.1101731E-1,-3.9474327E1,1.3900351E2,1.0872233E1,4.801555E1,3.9369846E1,-1.1976376E2,5.453172E1,-7.86983E0,2.1365936E1,-1.9209249E0,-3.3712017E1,2.3429773E2,-4.9132047E0,1.5321382E1,5.0748623E1,7.288778E0,-1.5294824E1],"categories":[],"categories_nodes":[],"categories_segments":[],"categories_sizes":[],"default_left":[0,0,0,0,0,0,0,0,0,0,0,0,0,0,0,0,0,0,0,0,0],"id":48,"left_children":[1,3,5,-1,-1,7,9,11,-1,13,15,-1,-1,-1,-1,17,19,-1,-1,-1,-1],"loss_changes":[1.0029343E6,7.3667606E5,7.8392725E5,0E0,0E0,7.04276E5,1.3284079E6,3.8828734E5,0E0,6.9153594E5,1.8655132E6,0E0,0E0,0E0,0E0,5.8915375E5,7.3712E5,0E0,0E0,0E0,0E0],"parents":[2147483647,0,0,1,1,2,2,5,5,6,6,7,7,9,9,10,10,15,15,16,16],"right_children":[2,4,6,-1,-1,8,10,12,-1,14,16,-1,-1,-1,-1,18,20,-1,-1,-1,-1],"split_conditions":[-1.0865222E0,-1.5083351E0,-4.0210435E-1,-1.1101731E-1,-3.9474327E1,-1.8350066E-1,4.665944E-2,-1.9594811E-1,3.9369846E1,-4.7848567E-1,-3.1224898E-1,-7.86983E0,2.1365936E1,-1.9209249E0,-3.3712017E1,-4.0042663E-1,2.2737055E-1,1.5321382E1,5.0748623E1,7.288778E0,-1.5294824E1],"split_indices":[10,10,18,0,0,6,13,0,0,2,14,0,0,0,0,0,8,0,0,0,0],"split_type":[0,0,0,0,0,0,0,0,0,0,0,0,0,0,0,0,0,0,0,0,0],"sum_hessian":[3.28E2,3.9E1,2.89E2,2.1E1,1.8E1,5.9E1,2.3E2,3.6E1,2.3E1,5.7E1,1.73E2,1.8E1,1.8E1,3E1,2.7E1,4.2E1,1.31E2,2.1E1,2.1E1,8.5E1,4.6E1],"tree_param":{"num_deleted":"0","num_feature":"35","num_nodes":"21","size_leaf_vector":"1"}},{"base_weights":[2.8570461E0,-1.009343E2,2.6658043E1,3.3510463E0,-1.8681636E2,7.538835E1,-3.880191E1,-1.2403373E1,-4.153912E1,5.058767E1,3.2598545E1,9.650957E1,-1.1721665E2,1.1247189E2,-5.162029E1,3.0294424E1,1.2550512E-1,-1.5389248E0,-1.6884778E2,7.2382307E0,3.093138E1,-3.1871897E1,7.4896235E0,-3.9570805E1,-1.1403524E1],"categories":[],"categories_nodes":[],"categories_segments":[],"categories_sizes":[],"default_left":[0,0,0,0,0,0,0,0,0,0,0,0,0,0,0,0,0,0,0,0,0,0,0,0,0],"id":49,"left_children":[1,3,5,-1,7,9,11,-1,-1,13,-1,15,17,19,21,-1,-1,-1,23,-1,-1,-1,-1,-1,-1],"loss_changes":[8.789145E5,7.1293206E5,9.271602E5,0E0,3.6035875E5,5.9721956E5,1.3351801E6,0E0,0E0,9.212638E5,0E0,4.947118E5,4.34103E5,5.523991E5,9.717955E5,0E0,0E0,0E0,4.6787625E5,0E0,0E0,0E0,0E0,0E0,0E0],"parents":[2147483647,0,0,1,1,2,2,4,4,5,5,6,6,9,9,11,11,12,12,13,13,14,14,18,18],"right_children":[2,4,6,-1,8,10,12,-1,-1,14,-1,16,18,20,22,-1,-1,-1,24,-1,-1,-1,-1,-1,-1],"split_conditions":[-1.6671894E-1,-2.6404345E-1,6.1844444E-1,3.3510463E0,-2.8758493E-1,2.7601144E-1,-4.7003287E-1,-1.2403373E1,-4.153912E1,1.2333046E-3,3.2598545E1,-5.7994276E-1,-5.5355287E-1,-5.418771E-1,-4.0922606E-1,3.0294424E1,1.2550512E-1,-1.5389248E0,6.2672E-1,7.2382307E0,3.093138E1,-3.1871897E1,7.4896235E0,-3.9570805E1,-1.1403524E1],"split_indices":[12,14,22,0,28,27,4,0,0,29,0,6,21,31,14,0,0,0,23,0,0,0,0,0,0],"split_type":[0,0,0,0,0,0,0,0,0,0,0,0,0,0,0,0,0,0,0,0,0,0,0,0,0],"sum_hessian":[3.53E2,6.5E1,2.88E2,2.7E1,3.8E1,1.65E2,1.23E2,2E1,1.8E1,1.43E2,2.2E1,4.5E1,7.8E1,8.9E1,5.4E1,2E1,2.5E1,2.6E1,5.2E1,5.6E1,3.3E1,2E1,3.4E1,2.3E1,2.9E1],"tree_param":{"num_deleted":"0","num_feature":"35","num_nodes":"25","size_leaf_vector":"1"}},{"base_weights":[1.3391903E1,-2.0130049E1,3.057984E1,-1.7474895E1,8.220761E1,3.8242626E1,-9.685841E1,5.314058E1,3.1429573E1,-6.2421947E1,9.972974E1,-1.2575562E1,-2.8935764E1,8.77774E1,-1.9084528E1,7.046783E0,-2.4586498E1,3.1499344E1,2.1011274E0,-1.6215992E1,1.3409928E1,-6.352721E0,2.1880123E1],"categories":[],"categories_nodes":[],"categories_segments":[],"categories_sizes":[],"default_left":[0,0,0,0,0,0,0,0,0,0,0,0,0,0,0,0,0,0,0,0,0,0,0],"id":50,"left_children":[1,-1,3,5,7,9,11,13,-1,15,17,19,-1,21,-1,-1,-1,-1,-1,-1,-1,-1,-1],"loss_changes":[9.063717E5,0E0,7.746305E5,7.233987E5,5.684942E5,6.051194E5,5.753791E5,8.1605525E5,0E0,4.5302988E5,5.964086E5,4.1156678E5,0E0,8.8471656E5,0E0,0E0,0E0,0E0,0E0,0E0,0E0,0E0,0E0],"parents":[2147483647,0,0,2,2,3,3,4,4,5,5,6,6,7,7,9,9,10,10,11,11,13,13],"right_children":[2,-1,4,6,8,10,12,14,-1,16,18,20,-1,22,-1,-1,-1,-1,-1,-1,-1,-1,-1],"split_conditions":[-7.590086E-1,-2.0130049E1,-1.2438085E-1,-4.631751E-1,9.464598E-1,-4.2236173E-1,3.517119E-1,1.0233607E0,3.1429573E1,-6.468598E-1,1.1794258E-1,-1.3283786E-1,-2.8935764E1,-6.221748E-1,-1.9084528E1,7.046783E0,-2.4586498E1,3.1499344E1,2.1011274E0,-1.6215992E1,1.3409928E1,-6.352721E0,2.1880123E1],"split_indices":[5,0,24,24,10,31,18,15,0,3,30,9,0,20,0,0,0,0,0,0,0,0,0],"split_type":[0,0,0,0,0,0,0,0,0,0,0,0,0,0,0,0,0,0,0,0,0,0,0],"sum_hessian":[3.44E2,3.4E1,3.1E2,1.61E2,1.49E2,9.5E1,6.6E1,1.24E2,2.5E1,3.6E1,5.9E1,3.7E1,2.9E1,1.05E2,1.9E1,1.8E1,1.8E1,2.4E1,3.5E1,1.9E1,1.8E1,3.4E1,7.1E1],"tree_param":{"num_deleted":"0","num_feature":"35","num_nodes":"23","size_leaf_vector":"1"}},{"base_weights":[-1.2274648E1,-6.856917E1,2.3698233E1,-1.054452E2,6.0794163E0,4.6593723E1,-2.1849812E1,4.2354493E0,-1.5357211E2,2.528271E1,2.6852144E1,-7.2166667E0,-2.0900275E2,1.1081737E2,-2.0244139E1,-1.743357E1,-4.380263E1,3.7442675E0,3.4425087E1,8.811686E0,-1.2535158E1],"categories":[],"categories_nodes":[],"categories_segments":[],"categories_sizes":[],"default_left":[0,0,0,0,0,0,0,0,0,0,0,0,0,0,0,0,0,0,0,0,0],"id":51,"left_children":[1,3,5,7,-1,9,-1,-1,11,13,-1,-1,15,17,19,-1,-1,-1,-1,-1,-1],"loss_changes":[7.1389294E5,5.6522644E5,8.6674006E5,6.758526E5,0E0,5.5576675E5,0E0,0E0,4.2526388E5,6.5506575E5,0E0,0E0,3.548405E5,6.157489E5,5.951244E5,0E0,0E0,0E0,0E0,0E0,0E0],"parents":[2147483647,0,0,1,1,2,2,3,3,5,5,8,8,9,9,12,12,13,13,14,14],"right_children":[2,4,6,8,-1,10,-1,-1,12,14,-1,-1,16,18,20,-1,-1,-1,-1,-1,-1],"split_conditions":[-1.6386749E-1,4.1049114E-1,1.0791311E0,-4.4707206E-1,6.0794163E0,9.584487E-1,-2.1849812E1,4.2354493E0,-4.2653024E-1,-4.3531117E-1,2.6852144E1,-7.2166667E0,3.612544E-2,-3.0414596E-1,-3.2744834E-1,-1.743357E1,-4.380263E1,3.7442675E0,3.4425087E1,8.811686E0,-1.2535158E1],"split_indices":[12,11,10,7,0,8,0,0,30,21,0,0,33,33,33,0,0,0,0,0,0],"split_type":[0,0,0,0,0,0,0,0,0,0,0,0,0,0,0,0,0,0,0,0,0],"sum_hessian":[3.5E2,1.36E2,2.14E2,1.02E2,3.4E1,1.9E2,2.4E1,2.7E1,7.5E1,1.66E2,2.4E1,2.7E1,4.8E1,5.7E1,1.09E2,2.6E1,2.2E1,3.5E1,2.2E1,4.9E1,6E1],"tree_param":{"num_deleted":"0","num_feature":"35","num_nodes":"21","size_leaf_vector":"1"}},{"base_weights":[-2.5121817E1,3.4159893E1,-5.599053E1,-2.0650875E1,7.684942E1,-7.5659004E1,1.5941412E1,-5.095828E0,1.2896457E2,8.385314E0,-1.0419078E2,2.2306459E2,4.5524585E-1,-6.1889454E1,-1.8303764E2,4.708986E1,1.5501221E1,1.7006126E1,-1.4671975E1,-1.4404395E1,-3.9294773E1],"categories":[],"categories_nodes":[],"categories_segments":[],"categories_sizes":[],"default_left":[0,0,0,0,0,0,0,0,0,0,0,0,0,0,0,0,0,0,0,0,0],"id":52,"left_children":[1,3,5,-1,7,9,-1,-1,11,-1,13,15,-1,17,19,-1,-1,-1,-1,-1,-1],"loss_changes":[6.2553775E5,8.9714475E5,7.4190906E5,0E0,5.624768E5,7.741886E5,0E0,0E0,7.72531E5,0E0,5.38754E5,3.89711E5,0E0,7.8482394E5,3.8208062E5,0E0,0E0,0E0,0E0,0E0,0E0],"parents":[2147483647,0,0,1,1,2,2,4,4,5,5,8,8,10,10,11,11,13,13,14,14],"right_children":[2,4,6,-1,8,10,-1,-1,12,-1,14,16,-1,18,20,-1,-1,-1,-1,-1,-1],"split_conditions":[-5.2697E-1,-1.043067E0,1.4204715E0,-2.0650875E1,-1.803752E-2,-6.825683E-1,1.5941412E1,-5.095828E0,-4.5181602E-1,8.385314E0,7.758453E-2,5.0989736E-2,4.5524585E-1,-5.731799E-1,5.123856E-2,4.708986E1,1.5501221E1,1.7006126E1,-1.4671975E1,-1.4404395E1,-3.9294773E1],"split_indices":[1,21,7,0,27,19,0,0,6,0,7,13,0,32,13,0,0,0,0,0,0],"split_type":[0,0,0,0,0,0,0,0,0,0,0,0,0,0,0,0,0,0,0,0,0],"sum_hessian":[3.39E2,1.16E2,2.23E2,2.2E1,9.4E1,2E2,2.3E1,3E1,6.4E1,3.5E1,1.65E2,3.6E1,2.8E1,1.09E2,5.6E1,1.8E1,1.8E1,1.9E1,9E1,3E1,2.6E1],"tree_param":{"num_deleted":"0","num_feature":"35","num_nodes":"21","size_leaf_vector":"1"}},{"base_weights":[7.2581873E0,-2.5751524E1,6.2655502E1,2.43682E1,-1.3229419E2,-9.053232E0,8.972048E1,-1.17368145E1,2.2358158E1,-2.107783E2,-5.7216167E0,1.2342431E2,-4.137388E0,1.8398388E1,-2.220694E1,-1.5068584E1,-4.3415737E1,4.4808964E1,2.016983E2,-8.676402E0,1.3316515E1,2.0438057E1,-1.1236697E1,4.3183323E1,9.838537E0],"categories":[],"categories_nodes":[],"categories_segments":[],"categories_sizes":[],"default_left":[0,0,0,0,0,0,0,0,0,0,0,0,0,0,0,0,0,0,0,0,0,0,0,0,0],"id":53,"left_children":[1,3,5,7,9,-1,11,13,-1,15,-1,17,-1,19,-1,-1,-1,21,23,-1,-1,-1,-1,-1,-1],"loss_changes":[6.4849575E5,1.1921259E6,4.5512553E5,7.14205E5,5.0875612E5,0E0,4.4060788E5,5.1529238E5,0E0,3.171175E5,0E0,5.1231938E5,0E0,5.803609E5,0E0,0E0,0E0,5.331009E5,5.1191862E5,0E0,0E0,0E0,0E0,0E0,0E0],"parents":[2147483647,0,0,1,1,2,2,3,3,4,4,6,6,7,7,9,9,11,11,13,13,17,17,18,18],"right_children":[2,4,6,8,10,-1,12,14,-1,16,-1,18,-1,20,-1,-1,-1,22,24,-1,-1,-1,-1,-1,-1],"split_conditions":[1.027467E-1,-4.7427982E-1,-1.6671894E-1,9.709374E-1,-3.2830577E-2,-9.053232E0,1.5466924E0,7.979604E-1,2.2358158E1,-3.4148386E-1,-5.7216167E0,4.178484E-1,-4.137388E0,-5.3042E-1,-2.220694E1,-1.5068584E1,-4.3415737E1,-1.8426134E-1,9.473026E-3,-8.676402E0,1.3316515E1,2.0438057E1,-1.1236697E1,4.3183323E1,9.838537E0],"split_indices":[2,2,12,15,3,0,3,8,0,33,0,3,0,16,0,0,0,20,15,0,0,0,0,0,0],"split_type":[0,0,0,0,0,0,0,0,0,0,0,0,0,0,0,0,0,0,0,0,0,0,0,0,0],"sum_hessian":[3.52E2,2.21E2,1.31E2,1.51E2,7E1,2.3E1,1.08E2,1.19E2,3.2E1,3.7E1,3.3E1,8.4E1,2.4E1,9.9E1,2E1,1.8E1,1.9E1,4.3E1,4.1E1,4.8E1,5.1E1,2.4E1,1.9E1,2.3E1,1.8E1],"tree_param":{"num_deleted":"0","num_feature":"35","num_nodes":"25","size_leaf_vector":"1"}},{"base_weights":[1.066166E1,3.7779137E1,-4.154576E1,-1.6761364E1,5.5606968E1,-3.0121828E1,-5.3561077E0,8.784702E1,-4.658199E1,8.8792404E1,-7.644599E1,3.9136837E1,1.6518132E2,-2.0410234E1,1.1520707E1,-9.841181E0,3.1230661E1,4.5837526E0,-2.5303614E1,2.0513E1,-9.0106934E-1,3.2450344E1,5.299765E0],"categories":[],"categories_nodes":[],"categories_segments":[],"categories_sizes":[],"default_left":[0,0,0,0,0,0,0,0,0,0,0,0,0,0,0,0,0,0,0,0,0,0,0],"id":54,"left_children":[1,3,5,-1,7,-1,9,11,13,15,17,19,21,-1,-1,-1,-1,-1,-1,-1,-1,-1,-1],"loss_changes":[4.9392578E5,6.3422156E5,7.128751E5,0E0,6.856168E5,0E0,6.743596E5,5.83432E5,6.0901425E5,8.742569E5,6.115706E5,4.5573944E5,4.3797912E5,0E0,0E0,0E0,0E0,0E0,0E0,0E0,0E0,0E0,0E0],"parents":[2147483647,0,0,1,1,2,2,4,4,6,6,7,7,8,8,9,9,10,10,11,11,12,12],"right_children":[2,4,6,-1,8,-1,10,12,14,16,18,20,22,-1,-1,-1,-1,-1,-1,-1,-1,-1,-1],"split_conditions":[3.5684252E-1,-7.6970696E-1,-7.7280855E-1,-1.6761364E1,5.438446E-1,-3.0121828E1,-2.763233E-1,-1.0517502E0,1.3967656E0,-4.5396614E-1,1.2090998E-1,-6.1135006E-1,-3.1703517E-1,-2.0410234E1,1.1520707E1,-9.841181E0,3.1230661E1,4.5837526E0,-2.5303614E1,2.0513E1,-9.0106934E-1,3.2450344E1,5.299765E0],"split_indices":[23,5,15,0,30,0,3,22,30,28,8,17,6,0,0,0,0,0,0,0,0,0,0],"split_type":[0,0,0,0,0,0,0,0,0,0,0,0,0,0,0,0,0,0,0,0,0,0,0],"sum_hessian":[3.46E2,2.28E2,1.18E2,2.3E1,2.05E2,2E1,9.8E1,1.56E2,4.9E1,4.2E1,5.6E1,9.7E1,5.9E1,2.8E1,2.1E1,1.9E1,2.3E1,2.7E1,2.9E1,2.9E1,6.8E1,4E1,1.9E1],"tree_param":{"num_deleted":"0","num_feature":"35","num_nodes":"23","size_leaf_vector":"1"}},{"base_weights":[-7.137931E-1,-1.7712505E1,7.730981E1,6.6992373E0,-1.5475867E2,2.3087984E1,-5.035829E0,-1.026307E1,2.6839031E1,-7.231011E0,-3.7769154E1,-2.1312384E1,1.0170597E1,8.663459E0,-7.2498865E0],"categories":[],"categories_nodes":[],"categories_segments":[],"categories_sizes":[],"default_left":[0,0,0,0,0,0,0,0,0,0,0,0,0,0,0],"id":55,"left_children":[1,3,5,7,9,-1,-1,11,-1,-1,-1,-1,13,-1,-1],"loss_changes":[4.6244356E5,9.598589E5,5.759604E5,7.399377E5,4.5924538E5,0E0,0E0,6.269452E5,0E0,0E0,0E0,0E0,5.8588544E5,0E0,0E0],"parents":[2147483647,0,0,1,1,2,2,3,3,4,4,7,7,12,12],"right_children":[2,4,6,8,10,-1,-1,12,-1,-1,-1,-1,14,-1,-1],"split_conditions":[4.4110486E-1,1.4423756E-2,-2.448419E-2,-7.7594355E-2,-4.0763372E-1,2.3087984E1,-5.035829E0,-8.671933E-1,2.6839031E1,-7.231011E0,-3.7769154E1,-2.1312384E1,-4.4600692E-1,8.663459E0,-7.2498865E0],"split_indices":[25,28,34,28,4,0,0,11,0,0,0,0,2,0,0],"split_type":[0,0,0,0,0,0,0,0,0,0,0,0,0,0,0],"sum_hessian":[3.46E2,2.85E2,6.1E1,2.43E2,4.2E1,3.5E1,2.6E1,2.23E2,2E1,2.2E1,2E1,2.8E1,1.95E2,1.07E2,8.8E1],"tree_param":{"num_deleted":"0","num_feature":"35","num_nodes":"15","size_leaf_vector":"1"}},{"base_weights":[3.4038422E0,-1.25071625E2,1.9331486E1,4.479661E0,-3.855307E1,-3.056006E1,6.477368E1,-5.7503098E1,1.9368067E1,2.646068E1,3.9557278E1,-1.026121E2,3.1007364E1,2.2359432E1,2.16472E0,-4.479159E0,-3.0244938E1,-1.4681935E1,2.4302374E1,2.5618803E1,-5.427238E0],"categories":[],"categories_nodes":[],"categories_segments":[],"categories_sizes":[],"default_left":[0,0,0,0,0,0,0,0,0,0,0,0,0,0,0,0,0,0,0,0,0],"id":56,"left_children":[1,3,5,-1,-1,7,9,11,-1,-1,13,15,17,-1,19,-1,-1,-1,-1,-1,-1],"loss_changes":[7.118278E5,8.4857256E5,7.041989E5,0E0,0E0,6.646403E5,4.690412E5,5.170768E5,0E0,0E0,5.7685194E5,6.3613794E5,8.195396E5,0E0,7.189448E5,0E0,0E0,0E0,0E0,0E0,0E0],"parents":[2147483647,0,0,1,1,2,2,5,5,6,6,7,7,10,10,11,11,12,12,14,14],"right_children":[2,4,6,-1,-1,8,10,12,-1,-1,14,16,18,-1,20,-1,-1,-1,-1,-1,-1],"split_conditions":[-1.0347469E0,-3.2909372E-1,-3.3984157E-1,4.479661E0,-3.855307E1,5.3657226E-2,-6.1135006E-1,4.1030106E-1,1.9368067E1,2.646068E1,-1.6609076E-1,4.9906157E-2,-1.6664033E-1,2.2359432E1,-4.0791136E-1,-4.479159E0,-3.0244938E1,-1.4681935E1,2.4302374E1,2.5618803E1,-5.427238E0],"split_indices":[17,26,26,0,0,13,17,15,0,0,12,13,12,0,28,0,0,0,0,0,0],"split_type":[0,0,0,0,0,0,0,0,0,0,0,0,0,0,0,0,0,0,0,0,0],"sum_hessian":[3.45E2,3.7E1,3.08E2,1.8E1,1.9E1,1.47E2,1.61E2,1.27E2,2E1,2.7E1,1.34E2,8.4E1,4.3E1,3.2E1,1.02E2,5.1E1,3.3E1,2.2E1,2.1E1,1.8E1,8.4E1],"tree_param":{"num_deleted":"0","num_feature":"35","num_nodes":"21","size_leaf_vector":"1"}},{"base_weights":[-1.1408805E1,-9.209502E1,1.50119295E1,-3.4094135E1,-3.4029892E1,7.220922E1,-3.2669384E1,3.1218485E1,-2.1886765E1,1.2900455E2,-2.9273117E1,-1.285773E2,1.7844566E1,2.0668486E1,-8.516357E0,4.165632E1,7.295101E1,-1.471925E1,1.0803909E1,-3.030741E1,-4.599932E-1,-7.9772484E1,8.665578E1,-3.1882932E0,2.6347921E1,3.336287E0,-2.4517668E1,1.2872754E0,3.072893E1],"categories":[],"categories_nodes":[],"categories_segments":[],"categories_sizes":[],"default_left":[0,0,0,0,0,0,0,0,0,0,0,0,0,0,0,0,0,0,0,0,0,0,0,0,0,0,0,0,0],"id":57,"left_children":[1,3,5,-1,7,9,11,13,-1,15,17,19,21,-1,-1,-1,23,-1,-1,-1,-1,25,27,-1,-1,-1,-1,-1,-1],"loss_changes":[7.639288E5,7.183036E5,7.4069925E5,0E0,4.9565806E5,7.165021E5,7.2223425E5,4.3314938E5,0E0,6.70367E5,3.4809844E5,5.122908E5,6.7026125E5,0E0,0E0,0E0,6.2522475E5,0E0,0E0,0E0,0E0,3.8274966E5,5.625815E5,0E0,0E0,0E0,0E0,0E0,0E0],"parents":[2147483647,0,0,1,1,2,2,4,4,5,5,6,6,7,7,9,9,10,10,11,11,12,12,16,16,21,21,22,22],"right_children":[2,4,6,-1,8,10,12,14,-1,16,18,20,22,-1,-1,-1,24,-1,-1,-1,-1,26,28,-1,-1,-1,-1,-1,-1],"split_conditions":[-6.601887E-1,-3.93997E-1,-3.5085186E-1,-3.4094135E1,4.89011E-1,4.089993E-1,-4.7338498E-1,-5.050142E-1,-2.1886765E1,-8.414422E-2,2.3332182E-1,9.4052926E-2,-2.4438626E-1,2.0668486E1,-8.516357E0,4.165632E1,-7.496903E-2,-1.471925E1,1.0803909E1,-3.030741E1,-4.599932E-1,-3.75471E-1,-3.4682396E-1,-3.1882932E0,2.6347921E1,3.336287E0,-2.4517668E1,1.2872754E0,3.072893E1],"split_indices":[6,17,25,0,8,23,0,19,0,5,6,23,9,0,0,0,0,0,0,0,0,9,4,0,0,0,0,0,0],"split_type":[0,0,0,0,0,0,0,0,0,0,0,0,0,0,0,0,0,0,0,0,0,0,0,0,0,0,0,0,0],"sum_hessian":[3.56E2,8.7E1,2.69E2,2.4E1,6.3E1,1.22E2,1.47E2,4.1E1,2.2E1,7.8E1,4.4E1,5E1,9.7E1,1.8E1,2.3E1,1.9E1,5.9E1,2.6E1,1.8E1,3E1,2E1,4E1,5.7E1,3.2E1,2.7E1,1.9E1,2.1E1,3.6E1,2.1E1],"tree_param":{"num_deleted":"0","num_feature":"35","num_nodes":"29","size_leaf_vector":"1"}},{"base_weights":[6.186145E0,2.6385695E1,-4.7658143E0,2.4142853E1,-1.07610085E2,9.505527E0,2.5528591E1,1.2254481E0,-1.8843645E2,1.9070835E1,-6.018129E0,-3.9840775E1,-1.3795569E1,-2.052551E1,1.593519E0],"categories":[],"categories_nodes":[],"categories_segments":[],"categories_sizes":[],"default_left":[0,0,0,0,0,0,0,0,0,0,0,0,0,0,0],"id":58,"left_children":[1,-1,3,5,7,9,-1,-1,11,-1,13,-1,-1,-1,-1],"loss_changes":[6.316109E5,0E0,9.26532E5,5.363137E5,6.438471E5,4.2296812E5,0E0,0E0,2.8624775E5,0E0,4.594361E5,0E0,0E0,0E0,0E0],"parents":[2147483647,0,0,2,2,3,3,4,4,5,5,8,8,10,10],"right_children":[2,-1,4,6,8,10,-1,-1,12,-1,14,-1,-1,-1,-1],"split_conditions":[-1.1830108E0,2.6385695E1,2.1567628E-1,1.4367284E0,-8.026652E-1,-1.0591238E0,2.5528591E1,1.2254481E0,-2.4209185E-1,1.9070835E1,-1.0057578E0,-3.9840775E1,-1.3795569E1,-2.052551E1,1.593519E0],"split_indices":[20,0,28,14,23,22,0,0,17,0,21,0,0,0,0],"split_type":[0,0,0,0,0,0,0,0,0,0,0,0,0,0,0],"sum_hessian":[3.27E2,1.8E1,3.09E2,2.42E2,6.7E1,2.22E2,2E1,2.8E1,3.9E1,2.4E1,1.98E2,1.9E1,2E1,2.1E1,1.77E2],"tree_param":{"num_deleted":"0","num_feature":"35","num_nodes":"15","size_leaf_vector":"1"}},{"base_weights":[1.757925E1,-1.7766406E-1,1.1118451E2,-1.4729725E1,2.4996393E1,1.8009172E2,-4.8080406E0,1.0381834E1,-3.2950527E1,3.4658314E1,1.543447E1,-2.3262674E1,2.5453197E1,1.5807878E0,2.5353683E1],"categories":[],"categories_nodes":[],"categories_segments":[],"categories_sizes":[],"default_left":[0,0,0,0,0,0,0,0,0,0,0,0,0,0,0],"id":59,"left_children":[1,3,5,7,-1,9,-1,11,-1,-1,-1,-1,13,-1,-1],"loss_changes":[5.876599E5,7.498292E5,5.687763E5,1.4733595E6,0E0,1.2955425E5,0E0,6.426295E5,0E0,0E0,0E0,0E0,4.9486653E5,0E0,0E0],"parents":[2147483647,0,0,1,1,2,2,3,3,5,5,7,7,12,12],"right_children":[2,4,6,8,-1,10,-1,12,-1,-1,-1,-1,14,-1,-1],"split_conditions":[7.7231294E-1,1.7228839E0,4.635401E-1,9.354505E-1,2.4996393E1,1.9543155E-1,-4.8080406E0,-1.1708026E0,-3.2950527E1,3.4658314E1,1.543447E1,-2.3262674E1,7.321515E-1,1.5807878E0,2.5353683E1],"split_indices":[20,1,8,3,0,17,0,8,0,0,0,0,6,0,0],"split_type":[0,0,0,0,0,0,0,0,0,0,0,0,0,0,0],"sum_hessian":[3.52E2,2.97E2,5.5E1,2.75E2,2.2E1,3.7E1,1.8E1,2.47E2,2.8E1,1.9E1,1.8E1,1.9E1,2.28E2,2.09E2,1.9E1],"tree_param":{"num_deleted":"0","num_feature":"35","num_nodes":"15","size_leaf_vector":"1"}},{"base_weights":[-1.7290636E1,-6.2483473E0,-2.6429249E1,-2.4254568E1,8.536082E1,-1.0110601E1,-2.8452585E1,2.4697834E1,-3.4201825E0,4.9097237E1,-6.6590385E1,1.8944233E1,-9.667084E-1,-1.8094875E1,2.3778121E0],"categories":[],"categories_nodes":[],"categories_segments":[],"categories_sizes":[],"default_left":[0,0,0,0,0,0,0,0,0,0,0,0,0,0,0],"id":60,"left_children":[1,3,-1,5,7,9,-1,-1,-1,11,13,-1,-1,-1,-1],"loss_changes":[6.4478444E5,5.5588825E5,0E0,6.785399E5,5.1460412E5,8.785602E5,0E0,0E0,0E0,5.81924E5,6.469935E5,0E0,0E0,0E0,0E0],"parents":[2147483647,0,0,1,1,3,3,4,4,5,5,9,9,10,10],"right_children":[2,4,-1,6,8,10,-1,-1,-1,12,14,-1,-1,-1,-1],"split_conditions":[6.263801E-2,6.3848513E-1,-2.6429249E1,1.3019145E0,2.927709E-1,4.9681246E-2,-2.8452585E1,2.4697834E1,-3.4201825E0,5.086919E-2,5.1594578E-2,1.8944233E1,-9.667084E-1,-1.8094875E1,2.3778121E0],"split_indices":[13,2,0,10,7,13,0,0,0,27,13,0,0,0,0],"split_type":[0,0,0,0,0,0,0,0,0,0,0,0,0,0,0],"sum_hessian":[3.55E2,3.34E2,2.1E1,2.8E2,5.4E1,2.6E2,2E1,3E1,2.4E1,1.27E2,1.33E2,5.1E1,7.6E1,7.8E1,5.5E1],"tree_param":{"num_deleted":"0","num_feature":"35","num_nodes":"15","size_leaf_vector":"1"}},{"base_weights":[-8.464567E0,3.3578316E1,-5.0698753E1,1.0612962E1,2.9858297E1,5.178516E1,-8.8585495E1,-2.4405016E1,3.585965E1,2.0075377E1,-1.042123E1,-5.33409E1,-3.7566868E1,-1.4247573E1,6.712003E1,1.936269E1,-1.0136623E2,1.69453E1,-3.9463053E0,-3.227323E1,3.235688E0],"categories":[],"categories_nodes":[],"categories_segments":[],"categories_sizes":[],"default_left":[0,0,0,0,0,0,0,0,0,0,0,0,0,0,0,0,0,0,0,0,0],"id":61,"left_children":[1,3,5,7,-1,9,11,-1,13,-1,-1,15,-1,-1,17,-1,19,-1,-1,-1,-1],"loss_changes":[6.138571E5,6.798977E5,6.7565775E5,7.030375E5,0E0,5.1766862E5,7.3583525E5,0E0,5.7927425E5,0E0,0E0,9.707784E5,0E0,0E0,5.225625E5,0E0,1.2784215E6,0E0,0E0,0E0,0E0],"parents":[2147483647,0,0,1,1,2,2,3,3,5,5,6,6,8,8,11,11,14,14,16,16],"right_children":[2,4,6,8,-1,10,12,-1,14,-1,-1,16,-1,-1,18,-1,20,-1,-1,-1,-1],"split_conditions":[-2.4754155E-1,1.6781616E-1,-6.542345E-1,-5.039341E-1,2.9858297E1,-1.6075012E-1,5.4893965E-1,-2.4405016E1,-7.7484E-1,2.0075377E1,-1.042123E1,-8.355548E-1,-3.7566868E1,-1.4247573E1,1.6950256E-1,1.936269E1,-1.6232978E-1,1.69453E1,-3.9463053E0,-3.227323E1,3.235688E0],"split_indices":[3,27,10,32,0,12,11,0,10,0,0,0,0,0,17,0,12,0,0,0,0],"split_type":[0,0,0,0,0,0,0,0,0,0,0,0,0,0,0,0,0,0,0,0,0],"sum_hessian":[3.43E2,1.72E2,1.71E2,1.53E2,1.9E1,4.6E1,1.25E2,1.8E1,1.35E2,2.7E1,1.9E1,1.05E2,2E1,2.5E1,1.1E2,2.1E1,8.4E1,7.2E1,3.8E1,4.2E1,4.2E1],"tree_param":{"num_deleted":"0","num_feature":"35","num_nodes":"21","size_leaf_vector":"1"}},{"base_weights":[2.6635246E0,5.177886E1,-2.2902275E1,3.2958813E1,-2.6379173E0,-3.4209686E1,3.4568732E0,-5.8401928E1,1.9295036E1,-2.26402E1,2.0831917E1,7.36859E0,-1.0698744E2,-7.6926346E0,9.810753E1,-2.3685013E1,-2.5527792E0,-1.9392885E1,2.403685E0,3.1688448E1,3.236573E0],"categories":[],"categories_nodes":[],"categories_segments":[],"categories_sizes":[],"default_left":[0,0,0,0,0,0,0,0,0,0,0,0,0,0,0,0,0,0,0,0,0],"id":62,"left_children":[1,3,5,-1,7,-1,9,11,-1,-1,13,-1,15,17,19,-1,-1,-1,-1,-1,-1],"loss_changes":[4.3788222E5,1.1365939E6,1.2848805E6,0E0,7.0715075E5,0E0,5.7172444E5,3.5921538E5,0E0,0E0,4.120712E5,0E0,2.2709588E5,4.2110984E5,4.50148E5,0E0,0E0,0E0,0E0,0E0,0E0],"parents":[2147483647,0,0,1,1,2,2,4,4,6,6,7,7,10,10,12,12,13,13,14,14],"right_children":[2,4,6,-1,8,-1,10,12,-1,-1,14,-1,16,18,20,-1,-1,-1,-1,-1,-1],"split_conditions":[-6.2198293E-1,-5.337989E-1,-5.8830583E-1,3.2958813E1,-6.7293274E-1,-3.4209686E1,-8.9740294E-1,-4.4707206E-1,1.9295036E1,-2.26402E1,6.1005074E-1,7.36859E0,-1.2558394E-2,-7.777079E-1,-4.4785494E-1,-2.3685013E1,-2.5527792E0,-1.9392885E1,2.403685E0,3.1688448E1,3.236573E0],"split_indices":[19,4,4,0,19,0,7,7,0,0,1,0,6,17,8,0,0,0,0,0,0],"split_type":[0,0,0,0,0,0,0,0,0,0,0,0,0,0,0,0,0,0,0,0,0],"sum_hessian":[3.46E2,1.18E2,2.28E2,2.7E1,9.1E1,2.4E1,2.04E2,6.5E1,2.6E1,1.9E1,1.85E2,2E1,4.5E1,1.36E2,4.9E1,2.7E1,1.8E1,2.1E1,1.15E2,1.8E1,3.1E1],"tree_param":{"num_deleted":"0","num_feature":"35","num_nodes":"21","size_leaf_vector":"1"}},{"base_weights":[-7.7674937E0,1.00074326E2,-2.7497747E1,-2.803689E-1,2.2586782E1,-6.2577442E1,1.4687516E1,-1.7085767E2,-2.2285564E1,2.2923986E1,-3.698908E1,-8.04345E0,-4.0060486E1,-1.4010449E2,4.7080544E1,1.8259136E1,-7.704823E1,-4.481457E0,-3.3033066E1,-1.939842E1,1.8104425E1,-2.0982998E1,7.681568E0],"categories":[],"categories_nodes":[],"categories_segments":[],"categories_sizes":[],"default_left":[0,0,0,0,0,0,0,0,0,0,0,0,0,0,0,0,0,0,0,0,0,0,0],"id":63,"left_children":[1,3,5,-1,-1,7,9,11,13,-1,15,-1,-1,17,19,-1,21,-1,-1,-1,-1,-1,-1],"loss_changes":[7.065325E5,2.8990516E5,4.162863E5,0E0,0E0,6.634192E5,9.561171E5,4.7791738E5,9.3581294E5,0E0,6.3392506E5,0E0,0E0,3.924228E5,1.03276956E6,0E0,6.855505E5,0E0,0E0,0E0,0E0,0E0,0E0],"parents":[2147483647,0,0,1,1,2,2,5,5,6,6,7,7,8,8,10,10,13,13,14,14,16,16],"right_children":[2,4,6,-1,-1,8,10,12,14,-1,16,-1,-1,18,20,-1,22,-1,-1,-1,-1,-1,-1],"split_conditions":[-8.652224E-1,-9.981935E-1,-8.325256E-2,-2.803689E-1,2.2586782E1,-8.094846E-1,1.0870655E-1,-4.7891665E-1,-5.8430153E-1,2.2923986E1,-5.0298035E-1,-8.04345E0,-4.0060486E1,-6.0045105E-1,-3.428204E-1,1.8259136E1,5.888885E-1,-4.481457E0,-3.3033066E1,-1.939842E1,1.8104425E1,-2.0982998E1,7.681568E0],"split_indices":[1,21,32,0,0,23,32,19,16,0,26,0,0,31,10,0,1,0,0,0,0,0,0],"split_type":[0,0,0,0,0,0,0,0,0,0,0,0,0,0,0,0,0,0,0,0,0,0,0],"sum_hessian":[3.29E2,5E1,2.79E2,1.8E1,3.2E1,1.52E2,1.27E2,4E1,1.12E2,3.3E1,9.4E1,2E1,2E1,4.1E1,7.1E1,1.8E1,7.6E1,1.9E1,2.2E1,2.1E1,5E1,5E1,2.6E1],"tree_param":{"num_deleted":"0","num_feature":"35","num_nodes":"23","size_leaf_vector":"1"}},{"base_weights":[-3.8636277E0,-2.7329216E1,6.945374E1,-4.1874023E1,1.4329376E1,2.736393E1,-5.641653E0,-2.3755468E1,-2.6947493E1,8.470534E0,-1.6004488E1,-8.6154594E1,6.7088594E0,-2.2312784E1,9.7092015E-1,-1.963225E1,4.785017E0],"categories":[],"categories_nodes":[],"categories_segments":[],"categories_sizes":[],"default_left":[0,0,0,0,0,0,0,0,0,0,0,0,0,0,0,0,0],"id":64,"left_children":[1,3,5,7,-1,-1,9,-1,11,-1,-1,13,15,-1,-1,-1,-1],"loss_changes":[5.915212E5,4.8199897E5,7.44631E5,4.182125E5,0E0,0E0,3.5796088E5,0E0,4.201978E5,0E0,0E0,4.782545E5,5.0784328E5,0E0,0E0,0E0,0E0],"parents":[2147483647,0,0,1,1,2,2,3,3,6,6,8,8,11,11,12,12],"right_children":[2,4,6,8,-1,-1,10,-1,12,-1,-1,14,16,-1,-1,-1,-1],"split_conditions":[7.491219E-1,6.043071E-1,-7.67269E-2,-7.5075835E-1,1.4329376E1,2.736393E1,-2.5694788E-1,-2.3755468E1,-8.042578E-1,8.470534E0,-1.6004488E1,2.9392713E-1,-5.2399594E-1,-2.2312784E1,9.7092015E-1,-1.963225E1,4.785017E0],"split_indices":[10,9,8,5,0,0,5,0,23,0,0,14,7,0,0,0,0],"split_type":[0,0,0,0,0,0,0,0,0,0,0,0,0,0,0,0,0],"sum_hessian":[3.41E2,2.59E2,8.2E1,2.33E2,2.6E1,3.1E1,5.1E1,2.4E1,2.09E2,3.2E1,1.9E1,7.5E1,1.34E2,4.3E1,3.2E1,2E1,1.14E2],"tree_param":{"num_deleted":"0","num_feature":"35","num_nodes":"17","size_leaf_vector":"1"}},{"base_weights":[1.1168755E-1,-4.1429295E1,2.4259695E1,-6.519327E1,1.0342247E1,2.5748875E1,8.93693E0,-3.4871124E1,-2.5216389E1,7.153699E1,-3.517523E1,6.2750497E0,-7.965516E1,1.4873395E2,-7.862191E0,-1.6062962E2,3.6435307E1,-2.3769321E0,-2.8521898E1,3.3943314E1,3.9732707E0,8.693065E0,-1.3965835E1,-3.326124E1,-8.230935E0,1.73377E1,-6.0297694E0],"categories":[],"categories_nodes":[],"categories_segments":[],"categories_sizes":[],"default_left":[0,0,0,0,0,0,0,0,0,0,0,0,0,0,0,0,0,0,0,0,0,0,0,0,0,0,0],"id":65,"left_children":[1,3,5,7,-1,-1,9,11,-1,13,15,-1,17,19,21,23,25,-1,-1,-1,-1,-1,-1,-1,-1,-1,-1],"loss_changes":[3.5581128E5,3.549252E5,5.224208E5,3.4650656E5,0E0,0E0,5.7065606E5,3.065157E5,0E0,5.2522775E5,1.0987115E6,0E0,4.031203E5,4.35988E5,2.66391E5,2.95455E5,5.1193756E5,0E0,0E0,0E0,0E0,0E0,0E0,0E0,0E0,0E0,0E0],"parents":[2147483647,0,0,1,1,2,2,3,3,6,6,7,7,9,9,10,10,12,12,13,13,14,14,15,15,16,16],"right_children":[2,4,6,8,-1,-1,10,12,-1,14,16,-1,18,20,22,24,26,-1,-1,-1,-1,-1,-1,-1,-1,-1,-1],"split_conditions":[-4.3456438E-1,8.974342E-1,-1.5083351E0,-4.809229E-1,1.0342247E1,2.5748875E1,-3.2744834E-1,-4.1368467E-1,-2.5216389E1,4.622615E-1,-1.02884226E-1,6.2750497E0,2.3799745E-2,3.5684252E-1,2.3122367E-1,-9.622708E-2,-1.828993E-1,-2.3769321E0,-2.8521898E1,3.3943314E1,3.9732707E0,8.693065E0,-1.3965835E1,-3.326124E1,-8.230935E0,1.73377E1,-6.0297694E0],"split_indices":[28,10,10,28,0,0,33,17,0,34,33,0,1,23,10,20,14,0,0,0,0,0,0,0,0,0,0],"split_type":[0,0,0,0,0,0,0,0,0,0,0,0,0,0,0,0,0,0,0,0,0,0,0,0,0,0,0],"sum_hessian":[3.52E2,1.29E2,2.23E2,1.07E2,2.2E1,1.9E1,2.04E2,8.5E1,2.2E1,8.4E1,1.2E2,3.1E1,5.4E1,4.2E1,4.2E1,4.3E1,7.7E1,3.6E1,1.8E1,2.4E1,1.8E1,2.4E1,1.8E1,2.5E1,1.8E1,3.7E1,4E1],"tree_param":{"num_deleted":"0","num_feature":"35","num_nodes":"27","size_leaf_vector":"1"}},{"base_weights":[8.186304E0,8.931447E1,-1.099695E1,2.8588402E1,2.7626575E1,-4.162064E-1,-2.160335E1,-9.461733E0,1.5629963E1,1.0165393E1,-1.9814775E1,-2.9357483E0,2.176987E1,-1.53252535E1,