{"learner":{"attributes":{"scikit_learn":"{\"_estimator_type\": \"classifier\"}"},"feature_names":[],"feature_types":[],"gradient_booster":{"model":{"gbtree_model_param":{"num_parallel_tree":"1","num_trees":"37"},"iteration_indptr":[0,1,2,3,4,5,6,7,8,9,10,11,12,13,14,15,16,17,18,19,20,21,22,23,24,25,26,27,28,29,30,31,32,33,34,35,36,37],"tree_info":[0,0,0,0,0,0,0,0,0,0,0,0,0,0,0,0,0,0,0,0,0,0,0,0,0,0,0,0,0,0,0,0,0,0,0,0,0],"trees":[{"base_weights":[-9.4238436E-4,-5.948794E-1,5.0115085E-1,-1.1155659E0,6.768241E-1,2.3030962E-1,1.3776227E0,7.25156E-2,-1.563786E0,2.2742763E-1,-2.96476E-2,1.0021273E0,-2.2609456E-1,3.257975E-1,1.5660074E-1,-9.1066904E-2,-3.3368522E-1,8.340607E-4,1.5192215E0,6.0350615E-1,-1.1279467E0,3.257975E-1,1.6725188E-1,-7.352718E-2,1.9159332E-1,-3.2864887E-1,8.340607E-4],"categories":[],"categories_nodes":[],"categories_segments":[],"categories_sizes":[],"default_left":[0,0,0,0,0,0,0,0,0,0,0,0,0,0,0,0,0,0,0,0,0,0,0,0,0,0,0],"id":0,"left_children":[1,3,5,7,9,11,13,-1,15,-1,-1,17,19,-1,-1,-1,-1,-1,21,23,25,-1,-1,-1,-1,-1,-1],"loss_changes":[3.948267E1,4.0362663E1,1.6906675E1,3.0082577E1,1.0263094E1,1.9480137E1,3.7015781E0,0E0,1.39346695E1,0E0,0E0,1.054595E1,2.6199299E1,0E0,0E0,0E0,0E0,0E0,2.4157429E0,1.0248386E1,1.5655945E1,0E0,0E0,0E0,0E0,0E0,0E0],"parents":[2147483647,0,0,1,1,2,2,3,3,4,4,5,5,6,6,8,8,11,11,12,12,18,18,19,19,20,20],"right_children":[2,4,6,8,10,12,14,-1,16,-1,-1,18,20,-1,-1,-1,-1,-1,22,24,26,-1,-1,-1,-1,-1,-1],"split_conditions":[1.13033205E-1,5.2807516E-1,8.89137E-1,-8.9474046E-1,8.311575E-1,-1.0593631E0,-7.600178E-1,7.25156E-2,-9.5262325E-1,2.2742763E-1,-2.96476E-2,-1.0675142E-1,-1.826336E-1,3.257975E-1,1.5660074E-1,-9.1066904E-2,-3.3368522E-1,8.340607E-4,1.2419356E-1,4.1511495E-2,-8.5723594E-2,3.257975E-1,1.6725188E-1,-7.352718E-2,1.9159332E-1,-3.2864887E-1,8.340607E-4],"split_indices":[27,1,0,11,1,14,11,0,38,0,0,26,12,0,0,0,0,0,2,14,6,0,0,0,0,0,0],"split_type":[0,0,0,0,0,0,0,0,0,0,0,0,0,0,0,0,0,0,0,0,0,0,0,0,0,0,0],"sum_hessian":[1.3192406E2,6.0439873E1,7.148418E1,4.291772E1,1.7522152E1,5.4857597E1,1.6626583E1,9.636076E0,3.3281647E1,9.740506E0,7.781646E0,2.0303799E1,3.45538E1,7.0632915E0,9.563292E0,9.781646E0,2.35E1,7.031646E0,1.3272152E1,1.8022152E1,1.6531645E1,7.0632915E0,6.208861E0,6.10443E0,1.1917722E1,9.5E0,7.031646E0],"tree_param":{"num_deleted":"0","num_feature":"45","num_nodes":"27","size_leaf_vector":"1"}},{"base_weights":[-2.6430711E-2,7.183094E-1,-5.2655125E-1,-3.5867646E-1,1.0688034E0,-4.1186772E-2,-1.1887562E0,1.3290875E-1,-1.9830185E-1,1.4035182E-1,1.412499E0,-7.2695875E-1,7.905147E-1,-2.8385527E-2,-3.1990674E-1,2.0199166E-1,-1.6248924E-1,9.140756E-2,1.6053888E0,2.2215481E-1,-3.088584E-1,1.460249E0,-1.6823138E-1,1.1418235E-1,-1.5744087E-1,3.043661E-1,1.9235879E-1,1.6344485E-1,-1.4537111E-1,1.6028309E-1,2.983768E-1],"categories":[],"categories_nodes":[],"categories_segments":[],"categories_sizes":[],"default_left":[0,0,0,0,0,0,0,0,0,0,0,0,0,0,0,0,0,0,0,0,0,0,0,0,0,0,0,0,0,0,0],"id":1,"left_children":[1,3,5,7,9,11,13,-1,-1,15,17,19,21,23,-1,-1,-1,-1,25,27,-1,29,-1,-1,-1,-1,-1,-1,-1,-1,-1],"loss_changes":[4.7457478E1,1.9426601E1,2.4462646E1,1.2154963E1,1.22570915E1,2.5379025E1,2.643121E1,0E0,0E0,1.2809676E1,4.4709053E0,2.5729422E1,2.4423433E1,8.120305E0,0E0,0E0,0E0,0E0,1.56921E0,1.0992211E1,0E0,1.856924E0,0E0,0E0,0E0,0E0,0E0,0E0,0E0,0E0,0E0],"parents":[2147483647,0,0,1,1,2,2,3,3,4,4,5,5,6,6,9,9,10,10,11,11,12,12,13,13,18,18,19,19,21,21],"right_children":[2,4,6,8,10,12,14,-1,-1,16,18,20,22,24,-1,-1,-1,-1,26,28,-1,30,-1,-1,-1,-1,-1,-1,-1,-1,-1],"split_conditions":[-6.401564E-1,-3.286112E-2,4.9654216E-1,-1.072672E0,-1.9184983E-1,5.1671844E-2,-6.635728E-1,1.3290875E-1,-1.9830185E-1,-1.8903608E0,-1.072977E0,-3.4509933E-1,-5.1434744E-2,-6.3020873E-1,-3.1990674E-1,2.0199166E-1,-1.6248924E-1,9.140756E-2,-5.075081E-1,-2.8694034E-1,-3.088584E-1,-2.1789818E-1,-1.6823138E-1,1.1418235E-1,-1.5744087E-1,3.043661E-1,1.9235879E-1,1.6344485E-1,-1.4537111E-1,1.6028309E-1,2.983768E-1],"split_indices":[41,27,37,22,32,30,6,0,0,37,22,28,33,39,0,0,0,0,18,39,0,33,0,0,0,0,0,0,0,0,0],"split_type":[0,0,0,0,0,0,0,0,0,0,0,0,0,0,0,0,0,0,0,0,0,0,0,0,0,0,0,0,0,0,0],"sum_hessian":[1.2696132E2,5.0943714E1,7.601761E1,1.2487887E1,3.8455826E1,4.4032463E1,3.1985144E1,5.1863003E0,7.301587E0,1.0499663E1,2.7956163E1,2.4167538E1,1.9864925E1,1.2234844E1,1.97503E1,5.365038E0,5.1346254E0,5.2585096E0,2.2697653E1,1.308761E1,1.1079928E1,1.4494729E1,5.3701973E0,6.8921084E0,5.342736E0,1.535588E1,7.341774E0,7.7776537E0,5.3099566E0,5.8693995E0,8.625329E0],"tree_param":{"num_deleted":"0","num_feature":"45","num_nodes":"31","size_leaf_vector":"1"}},{"base_weights":[6.910203E-2,-2.4352887E-1,1.1969041E0,5.4432184E-1,-5.999501E-1,4.5668396E-1,1.6667476E0,1.0981432E0,-5.58986E-1,1.0391745E-1,-7.9594284E-1,-6.821458E-2,2.3531617E-1,1.9369091E0,1.8062098E-1,1.4430206E0,3.6943406E-2,-2.8265262E-1,9.648505E-2,-1.0498416E0,1.0311875E-1,2.5628936E-1,3.7614956E-1,1.5452881E-1,2.8982487E-1,-2.1015653E-1,8.749389E-2],"categories":[],"categories_nodes":[],"categories_segments":[],"categories_sizes":[],"default_left":[0,0,0,0,0,0,0,0,0,0,0,0,0,0,0,0,0,0,0,0,0,0,0,0,0,0,0],"id":2,"left_children":[1,3,5,7,9,11,13,15,17,-1,19,-1,-1,21,-1,23,-1,-1,-1,25,-1,-1,-1,-1,-1,-1,-1],"loss_changes":[4.445226E1,2.7786863E1,9.281532E0,1.8998613E1,1.634783E1,9.029749E0,2.1095161E0,6.133301E0,1.3455972E1,0E0,2.1157654E1,0E0,0E0,4.7117615E-1,0E0,1.7045689E0,0E0,0E0,0E0,1.5559891E1,0E0,0E0,0E0,0E0,0E0,0E0,0E0],"parents":[2147483647,0,0,1,1,2,2,3,3,4,4,5,5,6,6,7,7,8,8,10,10,13,13,15,15,19,19],"right_children":[2,4,6,8,10,12,14,16,18,-1,20,-1,-1,22,-1,24,-1,-1,-1,26,-1,-1,-1,-1,-1,-1,-1],"split_conditions":[9.58465E-1,-7.3475134E-1,3.009991E-1,6.1327755E-2,-8.2766795E-1,4.0671897E-1,2.8565532E-1,2.5798798E-1,5.1180115E-3,1.0391745E-1,1.010233E0,-6.821458E-2,2.3531617E-1,1.5689185E-1,1.8062098E-1,-6.557497E-1,3.6943406E-2,-2.8265262E-1,9.648505E-2,7.2956246E-1,1.0311875E-1,2.5628936E-1,3.7614956E-1,1.5452881E-1,2.8982487E-1,-2.1015653E-1,8.749389E-2],"split_indices":[8,24,0,18,23,25,10,6,32,0,21,0,0,18,0,10,0,0,0,8,0,0,0,0,0,0,0],"split_type":[0,0,0,0,0,0,0,0,0,0,0,0,0,0,0,0,0,0,0,0,0,0,0,0,0,0,0],"sum_hessian":[1.2557588E2,9.844485E1,2.7131033E1,3.0601765E1,6.784309E1,1.0735263E1,1.639577E1,2.0391724E1,1.0210041E1,9.326165E0,5.851692E1,5.653443E0,5.0818195E0,1.0885966E1,5.5098023E0,1.4515988E1,5.8757367E0,5.0919194E0,5.1181216E0,4.9641266E1,8.875653E0,5.1372466E0,5.74872E0,5.373445E0,9.142543E0,4.4168865E1,5.4723997E0],"tree_param":{"num_deleted":"0","num_feature":"45","num_nodes":"27","size_leaf_vector":"1"}},{"base_weights":[-4.786793E-3,4.9337804E-1,-5.000464E-1,6.888528E-2,1.2483925E0,-1.1108757E0,4.172952E-1,4.4705787E-1,-9.096964E-1,1.0755477E-1,1.5271348E0,-3.7315E-2,-1.3740587E0,2.7824208E-1,-2.1020903E-1,-1.9776541E-1,8.718869E-1,-2.833307E-1,1.0003358E-2,3.0259687E-1,1.990878E-1,-2.717354E-1,-5.8601677E-2,9.5375456E-2,-1.9541454E-1,2.3822862E-1,6.732918E-2],"categories":[],"categories_nodes":[],"categories_segments":[],"categories_sizes":[],"default_left":[0,0,0,0,0,0,0,0,0,0,0,0,0,0,0,0,0,0,0,0,0,0,0,0,0,0,0],"id":3,"left_children":[1,3,5,7,9,11,13,15,17,-1,19,-1,21,-1,23,-1,25,-1,-1,-1,-1,-1,-1,-1,-1,-1,-1],"loss_changes":[3.1266603E1,2.0184128E1,3.575081E1,1.514172E1,3.5750122E0,8.839256E0,1.9900078E1,2.0552387E1,8.58269E0,0E0,8.5090256E-1,0E0,7.0009575E0,0E0,1.2783539E1,0E0,5.8384743E0,0E0,0E0,0E0,0E0,0E0,0E0,0E0,0E0,0E0,0E0],"parents":[2147483647,0,0,1,1,2,2,3,3,4,4,5,5,6,6,7,7,8,8,10,10,12,12,14,14,16,16],"right_children":[2,4,6,8,10,12,14,16,18,-1,20,-1,22,-1,24,-1,26,-1,-1,-1,-1,-1,-1,-1,-1,-1,-1],"split_conditions":[-3.2437012E-1,8.607353E-1,2.9918724E-1,-6.6756177E-1,-2.6835367E-1,-8.6098146E-1,-4.848357E-1,-4.0081853E-1,4.943748E-1,1.0755477E-1,-9.2420214E-1,-3.7315E-2,7.447579E-2,2.7824208E-1,-8.4009874E-1,-1.9776541E-1,-2.1560977E-1,-2.833307E-1,1.0003358E-2,3.0259687E-1,1.990878E-1,-2.717354E-1,-5.8601677E-2,9.5375456E-2,-1.9541454E-1,2.3822862E-1,6.732918E-2],"split_indices":[24,0,3,24,42,11,5,31,38,0,3,0,13,0,17,0,36,0,0,0,0,0,0,0,0,0,0],"split_type":[0,0,0,0,0,0,0,0,0,0,0,0,0,0,0,0,0,0,0,0,0,0,0,0,0,0,0],"sum_hessian":[1.2626239E2,6.2919476E1,6.3342915E1,4.0461166E1,2.245831E1,3.8012367E1,2.5330547E1,2.9294638E1,1.1166528E1,7.3110037E0,1.5147306E1,8.800293E0,2.9212074E1,8.42977E0,1.6900778E1,5.987378E0,2.330726E1,6.1397176E0,5.02681E0,7.9490185E0,7.1982875E0,2.3589535E1,5.622539E0,9.333614E0,7.567163E0,1.0621776E1,1.2685484E1],"tree_param":{"num_deleted":"0","num_feature":"45","num_nodes":"27","size_leaf_vector":"1"}},{"base_weights":[1.2103201E-1,2.194151E-1,-2.639285E-1,2.533413E-1,1.0135727E-1,-5.12453E-2,1.1309263E0,7.8178155E-1,-3.4258655E-1,3.0818126E-1,1.1139834E-1,1.860341E-1,-6.2658414E-2,-1.4652178E-1,5.7962976E-2],"categories":[],"categories_nodes":[],"categories_segments":[],"categories_sizes":[],"default_left":[0,0,0,0,0,0,0,0,0,0,0,0,0,0,0],"id":4,"left_children":[1,3,-1,-1,5,7,9,11,13,-1,-1,-1,-1,-1,-1],"loss_changes":[2.177228E1,1.8700462E1,0E0,0E0,1.792041E1,2.4149172E1,4.475382E0,9.678944E0,2.673723E1,0E0,0E0,0E0,0E0,0E0,0E0],"parents":[2147483647,0,0,1,1,4,4,5,5,6,6,7,7,8,8],"right_children":[2,4,-1,-1,6,8,10,12,14,-1,-1,-1,-1,-1,-1],"split_conditions":[8.6840814E-1,-1.466636E0,-2.639285E-1,2.533413E-1,1.5404927E0,-5.335382E-1,-8.240111E-1,-1.9106703E-1,2.7407518E-1,3.0818126E-1,1.1139834E-1,1.860341E-1,-6.2658414E-2,-1.4652178E-1,5.7962976E-2],"split_indices":[18,40,0,0,42,7,23,28,29,0,0,0,0,0,0],"split_type":[0,0,0,0,0,0,0,0,0,0,0,0,0,0,0],"sum_hessian":[1.3072586E2,1.2372689E2,6.9989653E0,1.0174187E1,1.13552704E2,9.906405E1,1.4488653E1,2.554318E1,7.352087E1,5.542128E0,8.946526E0,1.999955E1,5.543631E0,4.159397E1,3.19269E1],"tree_param":{"num_deleted":"0","num_feature":"45","num_nodes":"15","size_leaf_vector":"1"}},{"base_weights":[1.3728526E-1,-3.8517974E-2,1.1922028E0,-2.9060197E-1,1.0063491E0,1.2533422E-1,2.6845494E-1,-1.0297941E0,-2.6109083E-2,1.3608664E0,2.751735E-2,-2.4999157E-1,5.3160906E-2,2.502633E-1,-2.4385568E-1,2.8933161E-1,1.11006044E-1,5.392522E-2,-1.3211486E-1],"categories":[],"categories_nodes":[],"categories_segments":[],"categories_sizes":[],"default_left":[0,0,0,0,0,0,0,0,0,0,0,0,0,0,0,0,0,0,0],"id":5,"left_children":[1,3,5,7,9,-1,-1,11,13,15,-1,-1,-1,-1,17,-1,-1,-1,-1],"loss_changes":[2.2954042E1,2.7993988E1,2.834835E0,1.671575E1,6.079859E0,0E0,0E0,1.387845E1,2.0892088E1,3.2869835E0,0E0,0E0,0E0,0E0,1.698816E1,0E0,0E0,0E0,0E0],"parents":[2147483647,0,0,1,1,2,2,3,3,4,4,7,7,8,8,9,9,14,14],"right_children":[2,4,6,8,10,-1,-1,12,14,16,-1,-1,-1,-1,18,-1,-1,-1,-1],"split_conditions":[1.7331792E0,1.5240837E0,2.29116E-1,-5.4842925E-1,4.6620253E-2,1.2533422E-1,2.6845494E-1,-1.516492E-1,-8.29347E-1,-1.5154055E-1,2.751735E-2,-2.4999157E-1,5.3160906E-2,2.502633E-1,-3.960542E-1,2.8933161E-1,1.11006044E-1,5.392522E-2,-1.3211486E-1],"split_indices":[15,0,32,1,41,0,0,12,23,39,0,0,0,0,0,0,0,0,0],"split_type":[0,0,0,0,0,0,0,0,0,0,0,0,0,0,0,0,0,0,0],"sum_hessian":[1.2330899E2,1.0586482E2,1.7444164E1,8.544469E1,2.0420134E1,8.5677805E0,8.876385E0,2.231181E1,6.313288E1,1.42520895E1,6.168043E0,1.6688034E1,5.6237764E0,7.7677317E0,5.5365147E1,9.215947E0,5.036143E0,2.7103739E1,2.826141E1],"tree_param":{"num_deleted":"0","num_feature":"45","num_nodes":"19","size_leaf_vector":"1"}},{"base_weights":[1.0764249E-1,4.4822612E-1,-3.125631E-1,8.989573E-2,9.774427E-1,-2.4001075E-1,-8.203581E-2,8.618529E-1,-6.1046535E-1,6.102969E-1,1.3279196E0,6.414635E-1,-4.66972E-1,2.9874888E-1,4.107722E-3,-1.3501041E0,1.9331948E-1,1.8245545E-1,-1.9679409E-2,2.6423678E-1,1.5499702E-1,9.480405E-3,2.2907051E-1,-1.1943355E0,2.983455E-1,-2.673975E-1,-1.4588676E-1,-2.698647E-1,-7.326212E-2,2.0646243E-1,-4.2684793E-2],"categories":[],"categories_nodes":[],"categories_segments":[],"categories_sizes":[],"default_left":[0,0,0,0,0,0,0,0,0,0,0,0,0,0,0,0,0,0,0,0,0,0,0,0,0,0,0,0,0,0,0],"id":6,"left_children":[1,3,5,7,9,-1,11,13,15,17,19,21,23,-1,-1,25,-1,-1,-1,-1,-1,-1,-1,27,29,-1,-1,-1,-1,-1,-1],"loss_changes":[1.6560854E1,1.2068975E1,1.31966095E1,2.0885834E1,3.0712624E0,0E0,1.2084708E1,1.3949015E1,2.6679771E1,4.5308414E0,8.617897E-1,6.265715E0,1.5877743E1,0E0,0E0,1.2568474E0,0E0,0E0,0E0,0E0,0E0,0E0,0E0,4.286934E0,7.2369285E0,0E0,0E0,0E0,0E0,0E0,0E0],"parents":[2147483647,0,0,1,1,2,2,3,3,4,4,6,6,7,7,8,8,9,9,10,10,11,11,12,12,15,15,23,23,24,24],"right_children":[2,4,6,8,10,-1,12,14,16,18,20,22,24,-1,-1,26,-1,-1,-1,-1,-1,-1,-1,28,30,-1,-1,-1,-1,-1,-1],"split_conditions":[7.1352415E-2,6.263812E-1,-7.478861E-1,-8.9692175E-1,2.2546E-1,-2.4001075E-1,-1.072977E0,-4.843788E-1,1.0366712E0,-6.022218E-1,9.902818E-1,2.7610525E-1,5.5389756E-1,2.9874888E-1,4.107722E-3,1.2998271E-1,1.9331948E-1,1.8245545E-1,-1.9679409E-2,2.6423678E-1,1.5499702E-1,9.480405E-3,2.2907051E-1,7.04858E-1,-2.1653217E-1,-2.673975E-1,-1.4588676E-1,-2.698647E-1,-7.326212E-2,2.0646243E-1,-4.2684793E-2],"split_indices":[13,42,1,15,21,0,22,33,11,24,16,33,41,0,0,42,0,0,0,0,0,0,0,11,34,0,0,0,0,0,0],"split_type":[0,0,0,0,0,0,0,0,0,0,0,0,0,0,0,0,0,0,0,0,0,0,0,0,0,0,0,0,0,0,0],"sum_hessian":[1.1523045E2,6.3672447E1,5.1558006E1,3.8159073E1,2.5513372E1,8.632014E0,4.2925995E1,1.8144783E1,2.001429E1,1.2810116E1,1.2703258E1,1.4828744E1,2.809725E1,8.555038E0,9.589745E0,1.4134183E1,5.8801074E0,7.721706E0,5.0884094E0,7.5515924E0,5.151665E0,8.325133E0,6.503611E0,1.4357262E1,1.3739987E1,9.1134615E0,5.020721E0,9.163056E0,5.1942053E0,5.0403733E0,8.699614E0],"tree_param":{"num_deleted":"0","num_feature":"45","num_nodes":"31","size_leaf_vector":"1"}},{"base_weights":[1.2054572E-1,-9.098912E-3,1.0051417E0,2.3540337E-1,-7.443558E-1,5.5146348E-2,2.330192E-1,2.4498583E-1,1.2424917E-1,-1.2409962E0,1.13783546E-1,-1.3229929E-1,7.712769E-1,-1.16969526E-1,-2.4771917E-1,6.700173E-2,-1.3424055E-1,-3.9712984E-2,2.2571516E-1],"categories":[],"categories_nodes":[],"categories_segments":[],"categories_sizes":[],"default_left":[0,0,0,0,0,0,0,0,0,0,0,0,0,0,0,0,0,0,0],"id":7,"left_children":[1,3,5,7,9,-1,-1,-1,11,13,-1,15,17,-1,-1,-1,-1,-1,-1],"loss_changes":[1.2883963E1,1.7665897E1,3.5178652E0,9.88578E0,1.7501417E1,0E0,0E0,0E0,1.1292129E1,1.9860878E0,0E0,1.7213446E1,1.1136777E1,0E0,0E0,0E0,0E0,0E0,0E0],"parents":[2147483647,0,0,1,1,2,2,3,3,4,4,8,8,9,9,11,11,12,12],"right_children":[2,4,6,8,10,-1,-1,-1,12,14,-1,16,18,-1,-1,-1,-1,-1,-1],"split_conditions":[1.7006692E0,5.713628E-1,-1.9336738E-1,-1.1258775E0,1.1582326E0,5.5146348E-2,2.330192E-1,2.4498583E-1,9.7041404E-1,-6.3338053E-1,1.13783546E-1,-3.511515E-1,1.2506466E-1,-1.16969526E-1,-2.4771917E-1,6.700173E-2,-1.3424055E-1,-3.9712984E-2,2.2571516E-1],"split_indices":[15,18,34,11,11,0,0,0,3,30,0,25,28,0,0,0,0,0,0],"split_type":[0,0,0,0,0,0,0,0,0,0,0,0,0,0,0,0,0,0,0],"sum_hessian":[1.1185513E2,9.773128E1,1.4123858E1,7.343293E1,2.4298347E1,5.228122E0,8.895737E0,5.886717E0,6.754621E1,1.8035639E1,6.2627077E0,4.847043E1,1.907578E1,5.622118E0,1.2413521E1,2.6989471E1,2.1480959E1,6.9082556E0,1.2167526E1],"tree_param":{"num_deleted":"0","num_feature":"45","num_nodes":"19","size_leaf_vector":"1"}},{"base_weights":[2.1207435E-1,-2.376515E-1,6.944784E-1,-8.976748E-1,2.78994E-1,8.53098E-1,-7.610661E-2,-2.6980953E-2,-1.2302895E0,1.086129E0,-1.9819444E-1,3.6405134E-1,1.1318724E0,-1.2089631E-1,-2.3919965E-1,6.91966E-2,2.6843056E-1,-7.350205E-1,1.4698909E-1,-1.2428698E-1,1.0672048E0,3.5382215E-2,1.3136275E0,8.231421E-2,-2.3789419E-1,1.2159953E-1,2.2686297E-1,1.0883353E-1,2.5148445E-1],"categories":[],"categories_nodes":[],"categories_segments":[],"categories_sizes":[],"default_left":[0,0,0,0,0,0,0,0,0,0,0,0,0,0,0,0,0,0,0,0,0,0,0,0,0,0,0,0,0],"id":8,"left_children":[1,3,5,7,9,11,-1,-1,13,15,17,19,21,-1,-1,-1,-1,23,-1,-1,25,-1,27,-1,-1,-1,-1,-1,-1],"loss_changes":[2.4963936E1,2.0389698E1,1.0187048E1,6.353054E0,1.3004316E1,6.5225983E0,0E0,0E0,1.4482365E0,4.077676E0,1.2365332E1,1.421835E1,5.0833626E0,0E0,0E0,0E0,0E0,1.2019045E1,0E0,0E0,7.92963E-1,0E0,2.785881E0,0E0,0E0,0E0,0E0,0E0,0E0],"parents":[2147483647,0,0,1,1,2,2,3,3,4,4,5,5,8,8,9,9,10,10,11,11,12,12,17,17,20,20,22,22],"right_children":[2,4,6,8,10,12,-1,-1,14,16,18,20,22,-1,-1,-1,-1,24,-1,-1,26,-1,28,-1,-1,-1,-1,-1,-1],"split_conditions":[-1.3860685E-1,-3.136543E-2,7.4232645E-2,-1.0739663E0,6.838568E-2,6.543433E-2,-7.610661E-2,-2.6980953E-2,-7.424651E-1,6.6768035E-2,1.0061455E0,1.2998271E-1,-4.9579418E-1,-1.2089631E-1,-2.3919965E-1,6.91966E-2,2.6843056E-1,-1.0732958E0,1.4698909E-1,-1.2428698E-1,-4.094705E-1,3.5382215E-2,-8.234351E-1,8.231421E-2,-2.3789419E-1,1.2159953E-1,2.2686297E-1,1.0883353E-1,2.5148445E-1],"split_indices":[4,34,13,22,13,13,0,0,5,38,15,42,33,0,0,0,0,22,0,0,26,0,25,0,0,0,0,0,0],"split_type":[0,0,0,0,0,0,0,0,0,0,0,0,0,0,0,0,0,0,0,0,0,0,0,0,0,0,0,0,0],"sum_hessian":[1.1460051E2,5.9340836E1,5.5259674E1,2.6002932E1,3.3337902E1,4.861373E1,6.6459417E0,8.21392E0,1.7789013E1,1.2297586E1,2.1040316E1,1.7880783E1,3.073295E1,5.118233E0,1.267078E1,5.469769E0,6.8278174E0,1.4076711E1,6.963605E0,6.948361E0,1.0932423E1,5.1681304E0,2.556482E1,5.0190644E0,9.057646E0,5.291507E0,5.6409154E0,5.6380777E0,1.9926743E1],"tree_param":{"num_deleted":"0","num_feature":"45","num_nodes":"29","size_leaf_vector":"1"}},{"base_weights":[1.7340678E-1,-1.4994042E-1,5.447369E-1,-5.7761234E-1,4.938627E-1,1.1554375E0,1.17995456E-1,-1.3709767E-1,-2.2819056E-1,-5.7101723E-2,7.883938E-1,2.67061E-1,7.8265095E-1,-1.9451442E-1,5.087801E-1,-5.832448E-1,1.6955678E-1,4.082245E-1,2.1262334E-1,2.1147216E-2,2.109731E-1,-5.8687177E-2,9.9091744E-1,3.511038E-2,-2.2094804E-1,-2.370778E-2,1.6014065E-1,1.7497237E-1,-2.0057648E-1,9.3368955E-2,2.6732767E-1],"categories":[],"categories_nodes":[],"categories_segments":[],"categories_sizes":[],"default_left":[0,0,0,0,0,0,0,0,0,0,0,0,0,0,0,0,0,0,0,0,0,0,0,0,0,0,0,0,0,0,0],"id":9,"left_children":[1,3,5,7,9,11,13,15,-1,-1,17,-1,19,-1,21,23,-1,25,-1,-1,-1,27,29,-1,-1,-1,-1,-1,-1,-1,-1],"loss_changes":[1.3566E1,1.6700459E1,1.3632387E1,1.2366622E1,6.0111585E0,3.0930748E0,1.56388035E1,1.2115433E1,0E0,0E0,3.0656986E0,0E0,3.6317067E0,0E0,6.623415E0,9.924957E0,0E0,3.1273718E0,0E0,0E0,0E0,1.4241724E1,3.1295776E0,0E0,0E0,0E0,0E0,0E0,0E0,0E0,0E0],"parents":[2147483647,0,0,1,1,2,2,3,3,4,4,5,5,6,6,7,7,10,10,12,12,14,14,15,15,17,17,21,21,22,22],"right_children":[2,4,6,8,10,12,14,16,-1,-1,18,-1,20,-1,22,24,-1,26,-1,-1,-1,28,30,-1,-1,-1,-1,-1,-1,-1,-1],"split_conditions":[-1.0045072E-1,2.2546E-1,-4.3433523E-1,-5.0504684E-1,-7.7753484E-2,-4.7775647E-1,-4.1198322E-1,-5.0557864E-1,-2.2819056E-1,-5.7101723E-2,1.1582326E0,2.67061E-1,-5.677508E-1,-1.9451442E-1,6.298875E-1,-7.4996814E-2,1.6955678E-1,5.6266375E-2,2.1262334E-1,2.1147216E-2,2.109731E-1,7.415239E-2,1.1869951E0,3.511038E-2,-2.2094804E-1,-2.370778E-2,1.6014065E-1,1.7497237E-1,-2.0057648E-1,9.3368955E-2,2.6732767E-1],"split_indices":[4,21,6,21,1,31,31,2,0,0,11,0,6,0,6,10,0,35,0,0,0,31,31,0,0,0,0,0,0,0,0],"split_type":[0,0,0,0,0,0,0,0,0,0,0,0,0,0,0,0,0,0,0,0,0,0,0,0,0,0,0,0,0,0,0],"sum_hessian":[1.1250443E2,6.0172485E1,5.2331944E1,3.6194958E1,2.3977528E1,2.133637E1,3.0995575E1,2.3284275E1,1.2910682E1,6.2324224E0,1.7745106E1,9.539038E0,1.1797333E1,7.1623707E0,2.3833204E1,1.6845715E1,6.438561E0,1.0108279E1,7.636826E0,5.058283E0,6.7390504E0,1.1015657E1,1.2817547E1,8.1283245E0,8.71739E0,5.0812526E0,5.0270267E0,5.590578E0,5.42508E0,7.673325E0,5.1442213E0],"tree_param":{"num_deleted":"0","num_feature":"45","num_nodes":"31","size_leaf_vector":"1"}},{"base_weights":[1.12055026E-1,-1.2285334E-1,6.765201E-1,2.2004157E-1,-2.3465423E-1,-4.380558E-2,9.050057E-1,-5.831361E-1,2.9710382E-1,1.0699733E-2,1.165566E0,1.1330859E-1,-8.1269425E-1,6.345171E-1,-6.883957E-2,1.3910416E-1,2.2469409E-1,-2.1309128E-1,-5.5855755E-2,1.9229266E-1,1.7875237E-2],"categories":[],"categories_nodes":[],"categories_segments":[],"categories_sizes":[],"default_left":[0,0,0,0,0,0,0,0,0,0,0,0,0,0,0,0,0,0,0,0,0],"id":10,"left_children":[1,3,5,-1,7,-1,9,11,13,-1,15,-1,17,19,-1,-1,-1,-1,-1,-1,-1],"loss_changes":[1.4554385E1,1.2413059E1,6.9718733E0,0E0,1.3404396E1,0E0,5.6499996E0,1.2708859E1,6.887521E0,0E0,8.129463E-1,0E0,7.901842E0,5.1536503E0,0E0,0E0,0E0,0E0,0E0,0E0,0E0],"parents":[2147483647,0,0,1,1,2,2,4,4,6,6,7,7,8,8,10,10,12,12,13,13],"right_children":[2,4,6,-1,8,-1,10,12,14,-1,16,-1,18,20,-1,-1,-1,-1,-1,-1,-1],"split_conditions":[7.605054E-1,-1.1258775E0,-4.0050095E-1,2.2004157E-1,5.495359E-1,-4.380558E-2,-4.0899634E-1,-1.1691958E0,1.6233025E-1,1.0699733E-2,-1.8989776E-1,1.1330859E-1,3.0660033E-1,-4.624554E-1,-6.883957E-2,1.3910416E-1,2.2469409E-1,-2.1309128E-1,-5.5855755E-2,1.9229266E-1,1.7875237E-2],"split_indices":[8,11,9,0,40,0,0,34,37,0,32,0,41,9,0,0,0,0,0,0,0],"split_type":[0,0,0,0,0,0,0,0,0,0,0,0,0,0,0,0,0,0,0,0,0],"sum_hessian":[1.09270706E2,7.725417E1,3.2016533E1,5.411013E0,7.184316E1,6.2503815E0,2.5766151E1,4.341836E1,2.8424799E1,6.18492E0,1.9581232E1,6.6250253E0,3.6793335E1,1.9269897E1,9.154902E0,6.957557E0,1.2623675E1,1.8766691E1,1.8026644E1,9.679758E0,9.590139E0],"tree_param":{"num_deleted":"0","num_feature":"45","num_nodes":"21","size_leaf_vector":"1"}},{"base_weights":[9.808075E-2,5.055188E-1,-2.2029033E-1,-6.458442E-2,7.066746E-1,-4.622081E-1,1.653425E-1,1.0567075E0,2.5233597E-1,-7.6287186E-1,1.8376209E-1,2.4706687E-1,7.787321E-1,-7.113465E-2,1.4330085E-1,-2.8017327E-1,-2.4057122E-1,-1.1239185E-1,1.2852482E-1,3.1773224E-2,2.0275533E-1,9.429658E-2,-1.8031071E-1],"categories":[],"categories_nodes":[],"categories_segments":[],"categories_sizes":[],"default_left":[0,0,0,0,0,0,0,0,0,0,0,0,0,0,0,0,0,0,0,0,0,0,0],"id":11,"left_children":[1,3,5,-1,7,9,-1,11,13,15,17,-1,19,-1,-1,21,-1,-1,-1,-1,-1,-1,-1],"loss_changes":[1.2600868E1,7.687316E0,1.5928844E1,0E0,5.444029E0,8.894758E0,0E0,1.8972874E0,6.342876E0,9.8468075E0,7.3168993E0,0E0,2.9589524E0,0E0,0E0,1.2315621E1,0E0,0E0,0E0,0E0,0E0,0E0,0E0],"parents":[2147483647,0,0,1,1,2,2,4,4,5,5,7,7,8,8,9,9,10,10,12,12,15,15],"right_children":[2,4,6,-1,8,10,-1,12,14,16,18,-1,20,-1,-1,22,-1,-1,-1,-1,-1,-1,-1],"split_conditions":[-2.6057932E-1,-6.243127E-1,1.3959998E0,-6.458442E-2,-4.004571E-1,6.4753145E-2,1.653425E-1,-2.8965017E-1,9.196689E-1,-1.6048998E-1,-2.8011253E-1,2.4706687E-1,-2.6270783E-1,-7.113465E-2,1.4330085E-1,2.923057E-1,-2.4057122E-1,-1.1239185E-1,1.2852482E-1,3.1773224E-2,2.0275533E-1,9.429658E-2,-1.8031071E-1],"split_indices":[33,5,28,0,6,4,0,43,40,20,34,0,26,0,0,37,0,0,0,0,0,0,0],"split_type":[0,0,0,0,0,0,0,0,0,0,0,0,0,0,0,0,0,0,0,0,0,0,0],"sum_hessian":[9.6648895E1,4.237203E1,5.4276863E1,7.757431E0,3.4614597E1,4.531506E1,8.961802E0,1.9343288E1,1.527131E1,3.0922533E1,1.4392527E1,7.387493E0,1.1955795E1,7.1863155E0,8.084994E0,1.8122E1,1.2800533E1,5.793845E0,8.598681E0,5.1647434E0,6.791052E0,8.798043E0,9.323957E0],"tree_param":{"num_deleted":"0","num_feature":"45","num_nodes":"23","size_leaf_vector":"1"}},{"base_weights":[3.234597E-2,2.8162572E-1,-4.9056295E-1,-1.5868485E-1,4.151835E-1,-8.889527E-1,2.0964795E-1,2.5210032E-1,1.8994202E-1,-3.4294365E-4,-1.2300532E0,-1.4193057E-1,2.1289952E-1,-3.949282E-2,7.905356E-1,-1.5617998E-1,-2.4125983E-1,-1.334927E-1,7.366826E-2,2.2967565E-1,-7.875196E-3],"categories":[],"categories_nodes":[],"categories_segments":[],"categories_sizes":[],"default_left":[0,0,0,0,0,0,0,0,0,0,0,0,0,0,0,0,0,0,0,0,0],"id":12,"left_children":[1,3,5,-1,7,9,11,13,-1,-1,15,-1,-1,17,19,-1,-1,-1,-1,-1,-1],"loss_changes":[1.1637323E1,9.957926E0,8.097206E0,0E0,6.245839E0,5.5408316E0,1.2007219E1,7.0698147E0,0E0,0E0,4.3785667E-1,0E0,0E0,1.0586863E1,7.614895E0,0E0,0E0,0E0,0E0,0E0,0E0],"parents":[2147483647,0,0,1,1,2,2,4,4,5,5,6,6,7,7,10,10,13,13,14,14],"right_children":[2,4,6,-1,8,10,12,14,-1,-1,16,-1,-1,18,20,-1,-1,-1,-1,-1,-1],"split_conditions":[-1.3498586E-1,-6.4061373E-1,1.7988695E-1,-1.5868485E-1,1.485291E0,-5.097844E-1,6.0795724E-1,-1.516492E-1,1.8994202E-1,-3.4294365E-4,-8.725722E-2,-1.4193057E-1,2.1289952E-1,-1.72202E-2,-1.000582E0,-1.5617998E-1,-2.4125983E-1,-1.334927E-1,7.366826E-2,2.2967565E-1,-7.875196E-3],"split_indices":[33,27,26,0,42,3,34,12,0,0,3,0,0,14,15,0,0,0,0,0,0],"split_type":[0,0,0,0,0,0,0,0,0,0,0,0,0,0,0,0,0,0,0,0,0],"sum_hessian":[8.884149E1,6.0269627E1,2.8571865E1,5.775627E0,5.4494E1,1.8195652E1,1.0376215E1,4.4619617E1,9.874382E0,5.1414237E0,1.3054228E1,5.2025514E0,5.1736636E0,2.9051483E1,1.5568134E1,5.772723E0,7.281504E0,1.1227212E1,1.7824272E1,9.183357E0,6.384777E0],"tree_param":{"num_deleted":"0","num_feature":"45","num_nodes":"21","size_leaf_vector":"1"}},{"base_weights":[6.4581506E-2,-7.3288333E-1,1.8136695E-1,4.241039E-3,-2.2930598E-1,-3.9734308E-2,6.732685E-1,-3.9128193E-1,7.2613996E-1,2.1953851E-1,4.08249E-1,3.6687674E-3,-9.802378E-1,1.9794351E-1,3.5419263E-2,-1.3456257E-2,1.7548664E-1,6.966527E-2,-1.2507087E-1,-6.2042966E-2,-2.1768211E-1],"categories":[],"categories_nodes":[],"categories_segments":[],"categories_sizes":[],"default_left":[0,0,0,0,0,0,0,0,0,0,0,0,0,0,0,0,0,0,0,0,0],"id":13,"left_children":[1,3,5,-1,-1,7,9,11,13,-1,15,17,19,-1,-1,-1,-1,-1,-1,-1,-1],"loss_changes":[8.169716E0,5.36968E0,8.352856E0,0E0,0E0,1.4331323E1,3.796301E0,8.520838E0,3.7736216E0,0E0,5.329812E0,6.7979755E0,2.6395721E0,0E0,0E0,0E0,0E0,0E0,0E0,0E0,0E0],"parents":[2147483647,0,0,1,1,2,2,5,5,6,6,7,7,8,8,10,10,11,11,12,12],"right_children":[2,4,6,-1,-1,8,10,12,14,-1,16,18,20,-1,-1,-1,-1,-1,-1,-1,-1],"split_conditions":[-7.244709E-1,-1.8210123E-1,5.6386113E-1,4.241039E-3,-2.2930598E-1,9.110698E-1,-5.675845E-1,-3.2437012E-1,-5.0504684E-1,2.1953851E-1,1.2667315E0,2.7197403E-1,-2.6057932E-1,1.9794351E-1,3.5419263E-2,-1.3456257E-2,1.7548664E-1,6.966527E-2,-1.2507087E-1,-6.2042966E-2,-2.1768211E-1],"split_indices":[35,12,2,0,0,10,4,24,21,0,39,27,33,0,0,0,0,0,0,0,0],"split_type":[0,0,0,0,0,0,0,0,0,0,0,0,0,0,0,0,0,0,0,0,0],"sum_hessian":[8.731865E1,1.096723E1,7.635142E1,5.047225E0,5.920005E0,5.2784187E1,2.3567232E1,3.628047E1,1.6503716E1,6.686226E0,1.6881006E1,2.1827759E1,1.4452713E1,8.647567E0,7.8561482E0,9.619768E0,7.261238E0,1.4179029E1,7.648729E0,5.068612E0,9.384101E0],"tree_param":{"num_deleted":"0","num_feature":"45","num_nodes":"21","size_leaf_vector":"1"}},{"base_weights":[1.1062441E-1,-4.218452E-2,6.837666E-1,8.736307E-2,-1.6993536E-1,-1.953354E-2,1.0058383E0,-5.7059586E-1,2.706284E-1,1.15591034E-1,2.155157E-1,3.6480468E-2,-2.090634E-1,1.7321873E-1,1.088732E-1,-9.45528E-2,8.463429E-2],"categories":[],"categories_nodes":[],"categories_segments":[],"categories_sizes":[],"default_left":[0,0,0,0,0,0,0,0,0,0,0,0,0,0,0,0,0],"id":14,"left_children":[1,3,5,7,-1,-1,9,11,13,-1,-1,-1,-1,-1,15,-1,-1],"loss_changes":[7.5281463E0,8.531618E0,4.7093515E0,7.261747E0,0E0,0E0,8.714676E-1,6.99849E0,5.7104044E0,0E0,0E0,0E0,0E0,0E0,1.0360118E1,0E0,0E0],"parents":[2147483647,0,0,1,1,2,2,3,3,6,6,7,7,8,8,14,14],"right_children":[2,4,6,8,-1,-1,10,12,14,-1,-1,-1,-1,-1,16,-1,-1],"split_conditions":[9.58465E-1,4.0439296E-1,-1.6726796E-1,-6.220614E-1,-1.6993536E-1,-1.953354E-2,5.07415E-1,7.114383E-2,-8.63818E-1,1.15591034E-1,2.155157E-1,3.6480468E-2,-2.090634E-1,1.7321873E-1,-8.474879E-2,-9.45528E-2,8.463429E-2],"split_indices":[8,8,32,19,0,0,0,13,44,0,0,0,0,0,35,0,0],"split_type":[0,0,0,0,0,0,0,0,0,0,0,0,0,0,0,0,0],"sum_hessian":[8.544636E1,6.75929E1,1.7853453E1,5.976016E1,7.832746E0,5.144633E0,1.270882E1,1.2879393E1,4.6880768E1,6.2650065E0,6.443814E0,5.973668E0,6.9057245E0,8.006378E0,3.887439E1,1.4316674E1,2.4557714E1],"tree_param":{"num_deleted":"0","num_feature":"45","num_nodes":"17","size_leaf_vector":"1"}},{"base_weights":[7.792341E-2,3.9267948E-1,-4.3863946E-1,2.3477459E-1,9.122207E-1,1.160919E-1,-6.613923E-1,-2.3559037E-1,5.913076E-1,2.0552409E-1,8.110216E-2,-1.1033444E0,4.137859E-2,5.92101E-2,-1.5195104E-1,2.859224E-1,2.1788223E-1,-2.2201076E-1,-8.884778E-2,1.5594833E-1,-5.9357595E-2],"categories":[],"categories_nodes":[],"categories_segments":[],"categories_sizes":[],"default_left":[0,0,0,0,0,0,0,0,0,0,0,0,0,0,0,0,0,0,0,0,0],"id":15,"left_children":[1,3,5,7,9,-1,11,13,15,-1,-1,17,-1,-1,-1,19,-1,-1,-1,-1,-1],"loss_changes":[1.3612164E1,4.187145E0,8.061155E0,6.793029E0,1.4053955E0,0E0,1.0745391E1,6.920881E0,4.794441E0,0E0,0E0,1.9960175E0,0E0,0E0,0E0,6.756076E0,0E0,0E0,0E0,0E0,0E0],"parents":[2147483647,0,0,1,1,2,2,3,3,4,4,6,6,7,7,8,8,11,11,15,15],"right_children":[2,4,6,8,10,-1,12,14,16,-1,-1,18,-1,-1,-1,20,-1,-1,-1,-1,-1],"split_conditions":[2.923057E-1,7.418312E-1,-9.8126805E-1,-5.452131E-1,-5.341654E-1,1.160919E-1,6.179931E-1,-1.7272511E-1,7.868656E-1,2.0552409E-1,8.110216E-2,2.2064541E-1,4.137859E-2,5.92101E-2,-1.5195104E-1,-6.731872E-1,2.1788223E-1,-2.2201076E-1,-8.884778E-2,1.5594833E-1,-5.9357595E-2],"split_indices":[37,31,11,37,15,0,11,8,43,0,0,25,0,0,0,43,0,0,0,0,0],"split_type":[0,0,0,0,0,0,0,0,0,0,0,0,0,0,0,0,0,0,0,0,0],"sum_hessian":[8.324851E1,5.1796337E1,3.1452173E1,4.0022755E1,1.1773584E1,5.0891566E0,2.6363016E1,1.7257545E1,2.276521E1,6.5930276E0,5.180557E0,1.7711058E1,8.651958E0,9.208987E0,8.048558E0,1.6112919E1,6.652291E0,1.2670861E1,5.0401964E0,8.018775E0,8.094143E0],"tree_param":{"num_deleted":"0","num_feature":"45","num_nodes":"21","size_leaf_vector":"1"}},{"base_weights":[-6.6772616E-3,3.2264036E-1,-3.10126E-1,8.8453037E-1,-1.7571309E-1,-9.582826E-1,1.946989E-2,6.3119227E-1,2.3109908E-1,-8.05318E-1,1.1127541E-1,-5.778133E-2,-2.2461157E-1,5.675793E-1,-7.4834543E-1,3.2812517E-2,1.7483042E-1,-3.669449E-2,-2.1631466E-1,1.6544093E-1,-1.9738689E-2,-1.1278618E-2,-2.4638471E-1],"categories":[],"categories_nodes":[],"categories_segments":[],"categories_sizes":[],"default_left":[0,0,0,0,0,0,0,0,0,0,0,0,0,0,0,0,0,0,0,0,0,0,0],"id":16,"left_children":[1,3,5,7,9,11,13,15,-1,17,-1,-1,-1,19,21,-1,-1,-1,-1,-1,-1,-1,-1],"loss_changes":[7.4471316E0,1.0051926E1,8.324643E0,1.818675E0,1.0171175E1,2.868497E0,1.101018E1,1.9642053E0,0E0,2.9849486E0,0E0,0E0,0E0,4.3808165E0,5.2240114E0,0E0,0E0,0E0,0E0,0E0,0E0,0E0,0E0],"parents":[2147483647,0,0,1,1,2,2,3,3,4,4,5,5,6,6,7,7,9,9,13,13,14,14],"right_children":[2,4,6,8,10,12,14,16,-1,18,-1,-1,-1,20,22,-1,-1,-1,-1,-1,-1,-1,-1],"split_conditions":[-4.3433523E-1,-3.6406687E-1,1.912748E-2,-4.453187E-1,-1.6152065E-1,-8.930526E-1,-1.7725398E-1,1.077984E0,2.3109908E-1,-5.865625E-1,1.1127541E-1,-5.778133E-2,-2.2461157E-1,-8.197997E-1,-4.5036027E-1,3.2812517E-2,1.7483042E-1,-3.669449E-2,-2.1631466E-1,1.6544093E-1,-1.9738689E-2,-1.1278618E-2,-2.4638471E-1],"split_indices":[6,25,40,25,3,40,12,0,0,16,0,0,0,23,9,0,0,0,0,0,0,0,0],"split_type":[0,0,0,0,0,0,0,0,0,0,0,0,0,0,0,0,0,0,0,0,0,0,0],"sum_hessian":[7.406033E1,3.5466007E1,3.8594326E1,1.661135E1,1.8854658E1,1.2888285E1,2.5706041E1,1.1309732E1,5.301615E0,1.077698E1,8.077678E0,5.0672064E0,7.8210783E0,1.5055156E1,1.0650887E1,5.646726E0,5.6630063E0,5.0101013E0,5.7668786E0,9.34643E0,5.708726E0,5.596004E0,5.054882E0],"tree_param":{"num_deleted":"0","num_feature":"45","num_nodes":"23","size_leaf_vector":"1"}},{"base_weights":[1.608735E-1,8.9235836E-1,1.442522E-2,2.225012E-2,2.5702542E-1,-2.282233E-1,4.3324733E-1,1.4358868E-1,-1.0083828E0,1.6598569E-1,2.0809892E-1,7.0585084E-1,-2.61509E-1,-9.598105E-2,-2.1911931E-1,6.5575415E-1,-1.5235727E-1,1.7413613E-1,5.3423543E-2,7.706337E-2,-1.7313863E-1,1.9886037E-2,1.7721759E-1],"categories":[],"categories_nodes":[],"categories_segments":[],"categories_sizes":[],"default_left":[0,0,0,0,0,0,0,0,0,0,0,0,0,0,0,0,0,0,0,0,0,0,0],"id":17,"left_children":[1,3,5,-1,-1,7,9,11,13,15,-1,17,19,-1,-1,21,-1,-1,-1,-1,-1,-1,-1],"loss_changes":[8.167678E0,6.025483E0,6.5337543E0,0E0,0E0,1.1845991E1,4.967271E0,6.3651004E0,1.4611778E0,9.557415E0,0E0,1.3742166E0,9.059755E0,0E0,0E0,2.5960112E0,0E0,0E0,0E0,0E0,0E0,0E0,0E0],"parents":[2147483647,0,0,1,1,2,2,5,5,6,6,7,7,8,8,9,9,11,11,12,12,15,15],"right_children":[2,4,6,-1,-1,8,10,12,14,16,-1,18,20,-1,-1,22,-1,-1,-1,-1,-1,-1,-1],"split_conditions":[-8.2766795E-1,-8.25256E-2,1.6903508E-1,2.225012E-2,2.5702542E-1,-3.7229562E-1,9.6138316E-1,-2.3090988E-1,-5.5017245E-1,-3.1690338E-1,2.0809892E-1,-2.8495595E-1,-5.499972E-1,-9.598105E-2,-2.1911931E-1,2.0248525E-1,-1.5235727E-1,1.7413613E-1,5.3423543E-2,7.706337E-2,-1.7313863E-1,1.9886037E-2,1.7721759E-1],"split_indices":[23,40,28,0,0,25,37,30,19,37,0,32,15,0,0,30,0,0,0,0,0,0,0],"split_type":[0,0,0,0,0,0,0,0,0,0,0,0,0,0,0,0,0,0,0,0,0,0,0],"sum_hessian":[7.6271324E1,1.2493929E1,6.3777393E1,5.8191757E0,6.6747537E0,4.0407528E1,2.3369864E1,2.7470413E1,1.2937115E1,1.7759829E1,5.6100345E0,1.1459594E1,1.601082E1,5.471581E0,7.465534E0,1.2261417E1,5.4984117E0,5.977997E0,5.481597E0,8.288042E0,7.722777E0,5.3525515E0,6.908866E0],"tree_param":{"num_deleted":"0","num_feature":"45","num_nodes":"23","size_leaf_vector":"1"}},{"base_weights":[2.246226E-1,-9.916407E-2,3.07229E-1,2.2213951E-1,1.8949535E-1,3.7870085E-1,-3.65929E-1,3.1356703E-2,6.9064265E-1,6.2254436E-2,-2.0334688E-1,-1.20382555E-1,6.688947E-2,2.0983669E-1,7.210378E-2],"categories":[],"categories_nodes":[],"categories_segments":[],"categories_sizes":[],"default_left":[0,0,0,0,0,0,0,0,0,0,0,0,0,0,0],"id":18,"left_children":[1,-1,3,5,-1,7,9,11,13,-1,-1,-1,-1,-1,-1],"loss_changes":[5.5070724E0,0E0,5.0597777E0,6.246702E0,0E0,5.767045E0,8.942865E0,7.023587E0,3.925373E0,0E0,0E0,0E0,0E0,0E0,0E0],"parents":[2147483647,0,0,2,2,3,3,5,5,6,6,7,7,8,8],"right_children":[2,-1,4,6,-1,8,10,12,14,-1,-1,-1,-1,-1,-1],"split_conditions":[-6.4061373E-1,-9.916407E-2,2.091035E0,3.4223762E-1,1.8949535E-1,-1.2839001E-1,5.2436512E-2,-3.916666E-1,-7.218637E-1,6.2254436E-2,-2.0334688E-1,-1.20382555E-1,6.688947E-2,2.0983669E-1,7.210378E-2],"split_indices":[27,0,15,15,0,35,16,30,7,0,0,0,0,0,0],"split_type":[0,0,0,0,0,0,0,0,0,0,0,0,0,0,0],"sum_hessian":[8.127514E1,7.3360643E0,7.393908E1,6.726131E1,6.6777654E0,5.3221535E1,1.4039775E1,2.5344513E1,2.7877022E1,7.540082E0,6.499693E0,8.239371E0,1.7105143E1,8.659975E0,1.9217047E1],"tree_param":{"num_deleted":"0","num_feature":"45","num_nodes":"15","size_leaf_vector":"1"}},{"base_weights":[9.6488446E-2,-1.2934718E-1,2.1973664E-1,1.3761281E-2,6.7383313E-1,1.4128715E-1,-1.6957036E-1,9.836676E-1,3.410723E-2,-4.7700465E-1,1.063081E-1,2.067557E-1,1.1476298E-1,1.3445657E-2,-1.8154283E-1],"categories":[],"categories_nodes":[],"categories_segments":[],"categories_sizes":[],"default_left":[0,0,0,0,0,0,0,0,0,0,0,0,0,0,0],"id":19,"left_children":[1,-1,3,5,7,-1,9,11,-1,13,-1,-1,-1,-1,-1],"loss_changes":[7.761134E0,0E0,5.947666E0,6.727561E0,2.8236732E0,0E0,8.9970045E0,6.2801266E-1,0E0,8.85895E0,0E0,0E0,0E0,0E0,0E0],"parents":[2147483647,0,0,2,2,3,3,4,4,6,6,7,7,9,9],"right_children":[2,-1,4,6,8,-1,10,12,-1,14,-1,-1,-1,-1,-1],"split_conditions":[-7.7773833E-1,-1.2934718E-1,6.819524E-1,-8.29347E-1,-2.6057932E-1,1.4128715E-1,1.3959998E0,2.9860958E-1,3.410723E-2,-1.882936E-1,1.063081E-1,2.067557E-1,1.1476298E-1,1.3445657E-2,-1.8154283E-1],"split_indices":[2,0,43,23,33,0,28,23,0,21,0,0,0,0,0],"split_type":[0,0,0,0,0,0,0,0,0,0,0,0,0,0,0],"sum_hessian":[7.244814E1,8.867574E0,6.3580574E1,4.394668E1,1.9633894E1,7.871908E0,3.607477E1,1.1660881E1,7.9730134E0,2.615385E1,9.920921E0,6.030397E0,5.6304836E0,1.36446705E1,1.2509179E1],"tree_param":{"num_deleted":"0","num_feature":"45","num_nodes":"15","size_leaf_vector":"1"}},{"base_weights":[2.1540587E-1,1.4684774E-2,5.9960526E-1,-2.5063437E-1,3.2798016E-1,1.3055077E-1,9.671665E-1,8.1667304E-2,-5.5237013E-1,5.841842E-2,1.7858696E-1,-8.3914995E-2,1.2621456E-1,1.04218684E-1,1.9251929E-1,-1.968121E-1,-1.2334165E-1,4.9275425E-1,-1.2097468E-1,-1.3831209E-1,6.536258E-2,1.8021183E-1,-1.0118052E-2],"categories":[],"categories_nodes":[],"categories_segments":[],"categories_sizes":[],"default_left":[0,0,0,0,0,0,0,0,0,0,0,0,0,0,0,0,0,0,0,0,0,0,0],"id":20,"left_children":[1,3,5,7,9,11,13,-1,15,17,-1,-1,-1,-1,-1,-1,19,21,-1,-1,-1,-1,-1],"loss_changes":[6.1128488E0,4.3862085E0,4.6356573E0,6.3889937E0,4.7308865E0,4.856982E0,7.145119E-1,0E0,5.3014936E0,6.1345134E0,0E0,0E0,0E0,0E0,0E0,0E0,4.4587274E0,3.7641387E0,0E0,0E0,0E0,0E0,0E0],"parents":[2147483647,0,0,1,1,2,2,3,3,4,4,5,5,6,6,8,8,9,9,16,16,17,17],"right_children":[2,4,6,8,10,12,14,-1,16,18,-1,-1,-1,-1,-1,-1,20,22,-1,-1,-1,-1,-1],"split_conditions":[6.263812E-1,-1.2890263E-1,-1.3860685E-1,-9.764447E-1,9.7867376E-1,1.7006692E0,-2.0299278E-1,8.1667304E-2,-4.8366782E-1,-2.1592471E-1,1.7858696E-1,-8.3914995E-2,1.2621456E-1,1.04218684E-1,1.9251929E-1,-1.968121E-1,3.314062E-1,-9.1250724E-1,-1.2097468E-1,-1.3831209E-1,6.536258E-2,1.8021183E-1,-1.0118052E-2],"split_indices":[42,43,4,10,21,15,39,0,44,7,0,0,0,0,0,0,38,15,0,0,0,0,0],"split_type":[0,0,0,0,0,0,0,0,0,0,0,0,0,0,0,0,0,0,0,0,0,0,0],"sum_hessian":[7.9278984E1,5.227913E1,2.6999855E1,2.828488E1,2.3994251E1,1.2033474E1,1.4966381E1,8.164446E0,2.0120434E1,1.7742853E1,6.251398E0,5.968004E0,6.0654693E0,5.3981466E0,9.568234E0,8.077331E0,1.2043103E1,1.1452649E1,6.290203E0,5.0574355E0,6.9856677E0,5.5254855E0,5.927164E0],"tree_param":{"num_deleted":"0","num_feature":"45","num_nodes":"23","size_leaf_vector":"1"}},{"base_weights":[3.681069E-2,1.9147736E-1,-7.6901287E-1,-1.6664149E-1,4.3945345E-1,-3.6727615E-2,-2.234545E-1,-1.6278063E-1,3.1663597E-1,7.721551E-2,8.148053E-1,1.4509244E-1,-4.0458202E-2,-8.905246E-2,9.9015996E-2,4.6359837E-2,1.9081189E-1],"categories":[],"categories_nodes":[],"categories_segments":[],"categories_sizes":[],"default_left":[0,0,0,0,0,0,0,0,0,0,0,0,0,0,0,0,0],"id":21,"left_children":[1,3,5,7,9,-1,-1,-1,11,13,15,-1,-1,-1,-1,-1,-1],"loss_changes":[8.26821E0,4.975179E0,3.1647453E0,8.942569E0,4.4544344E0,0E0,0E0,0E0,4.437909E0,5.358441E0,2.655837E0,0E0,0E0,0E0,0E0,0E0,0E0],"parents":[2147483647,0,0,1,1,2,2,3,3,4,4,8,8,9,9,10,10],"right_children":[2,4,6,8,10,-1,-1,-1,12,14,16,-1,-1,-1,-1,-1,-1],"split_conditions":[7.4015215E-2,-2.1336702E-1,-5.007062E-1,-1.8510455E-1,-6.818974E-1,-3.6727615E-2,-2.234545E-1,-1.6278063E-1,1.0859948E-3,1.9844875E-2,-1.1216599E-1,1.4509244E-1,-4.0458202E-2,-8.905246E-2,9.9015996E-2,4.6359837E-2,1.9081189E-1],"split_indices":[13,4,20,40,24,0,0,0,39,22,43,0,0,0,0,0,0],"split_type":[0,0,0,0,0,0,0,0,0,0,0,0,0,0,0,0,0],"sum_hessian":[6.595889E1,5.551496E1,1.0443933E1,2.269935E1,3.2815613E1,5.434021E0,5.0099115E0,8.489736E0,1.4209614E1,1.6879427E1,1.5936185E1,7.1469707E0,7.0626435E0,7.690148E0,9.18928E0,6.0884576E0,9.847728E0],"tree_param":{"num_deleted":"0","num_feature":"45","num_nodes":"17","size_leaf_vector":"1"}},{"base_weights":[5.766672E-2,-2.966186E-1,4.365229E-1,-7.0426124E-1,3.8480622E-1,6.779592E-1,-2.6765212E-2,-2.1018356E-1,-5.8691604E-3,1.7440133E-1,-5.577511E-2,1.9974092E-2,9.11752E-1,1.00714624E-1,2.0278898E-1],"categories":[],"categories_nodes":[],"categories_segments":[],"categories_sizes":[],"default_left":[0,0,0,0,0,0,0,0,0,0,0,0,0,0,0],"id":22,"left_children":[1,3,5,7,9,11,-1,-1,-1,-1,-1,-1,13,-1,-1],"loss_changes":[8.875662E0,9.555616E0,4.6332083E0,7.751088E0,6.098418E0,2.9313078E0,0E0,0E0,0E0,0E0,0E0,0E0,1.2497721E0,0E0,0E0],"parents":[2147483647,0,0,1,1,2,2,3,3,4,4,5,5,12,12],"right_children":[2,4,6,8,10,12,-1,-1,-1,-1,-1,-1,14,-1,-1],"split_conditions":[2.2378926E-1,6.4292794E-1,4.7196206E-2,4.688513E-1,-5.439975E-1,-8.179627E-1,-2.6765212E-2,-2.1018356E-1,-5.8691604E-3,1.7440133E-1,-5.577511E-2,1.9974092E-2,1.5221289E0,1.00714624E-1,2.0278898E-1],"split_indices":[29,0,33,42,20,23,0,0,0,0,0,0,29,0,0],"split_type":[0,0,0,0,0,0,0,0,0,0,0,0,0,0,0],"sum_hessian":[6.5640335E1,3.390892E1,3.1731419E1,2.12369E1,1.2672019E1,2.258493E1,9.146488E0,1.1597956E1,9.638946E0,6.607932E0,6.064087E0,6.7940216E0,1.5790908E1,7.9784503E0,7.8124576E0],"tree_param":{"num_deleted":"0","num_feature":"45","num_nodes":"15","size_leaf_vector":"1"}},{"base_weights":[1.7161156E-1,-1.3677263E-1,3.4098902E-1,1.383919E-1,-4.6062914E-1,1.8408678E-1,2.4213906E-1,-1.2510314E-2,-1.4408787E-1,7.669437E-1,4.4652924E-2,1.6785246E-1,8.9894615E-2,4.5474407E-1,-5.2203685E-1,-2.7943745E-3,1.4093575E-1,-2.1011002E-1,8.5694835E-2],"categories":[],"categories_nodes":[],"categories_segments":[],"categories_sizes":[],"default_left":[0,0,0,0,0,0,0,0,0,0,0,0,0,0,0,0,0,0,0],"id":23,"left_children":[1,3,5,-1,7,-1,9,-1,-1,11,13,-1,-1,15,17,-1,-1,-1,-1],"loss_changes":[3.7169845E0,7.9015155E0,3.3055649E0,0E0,2.8559484E0,0E0,4.203681E0,0E0,0E0,4.2879677E-1,7.017484E0,0E0,0E0,3.1766632E0,9.615436E0,0E0,0E0,0E0,0E0],"parents":[2147483647,0,0,1,1,2,2,4,4,6,6,9,9,10,10,13,13,14,14],"right_children":[2,4,6,-1,8,-1,10,-1,-1,12,14,-1,-1,16,18,-1,-1,-1,-1],"split_conditions":[-2.3987626E-1,-1.0366738E0,-1.3079413E0,1.383919E-1,-4.643541E-1,1.8408678E-1,-4.0823132E-1,-1.2510314E-2,-1.4408787E-1,7.022739E-2,-1.5119442E-1,1.6785246E-1,8.9894615E-2,-9.64917E-1,5.9555703E-1,-2.7943745E-3,1.4093575E-1,-2.1011002E-1,8.5694835E-2],"split_indices":[29,1,40,0,26,0,5,0,0,13,37,0,0,37,44,0,0,0,0],"split_type":[0,0,0,0,0,0,0,0,0,0,0,0,0,0,0,0,0,0,0],"sum_hessian":[7.061363E1,2.4992783E1,4.5620853E1,6.204519E0,1.8788265E1,5.002737E0,4.0618114E1,9.660228E0,9.1280365E0,1.0884281E1,2.9733833E1,5.059241E0,5.82504E0,1.7305077E1,1.2428758E1,7.805439E0,9.499638E0,7.2855363E0,5.143221E0],"tree_param":{"num_deleted":"0","num_feature":"45","num_nodes":"19","size_leaf_vector":"1"}},{"base_weights":[1.7029093E-1,3.9814582E-1,-2.8191614E-1,6.444742E-1,-8.63677E-3,-1.5356539E-1,5.3109653E-2,2.2487357E-1,3.7898657E-1,-3.7213606E-1,1.1474721E-1,9.617217E-2,-7.5318724E-2,6.356771E-1,-3.4940742E-2,5.221968E-2,-1.5613897E-1,3.205822E-2,1.4909992E-1],"categories":[],"categories_nodes":[],"categories_segments":[],"categories_sizes":[],"default_left":[0,0,0,0,0,0,0,0,0,0,0,0,0,0,0,0,0,0,0],"id":24,"left_children":[1,3,5,7,9,-1,11,-1,13,15,-1,-1,-1,17,-1,-1,-1,-1,-1],"loss_changes":[7.0632224E0,4.5808764E0,4.874481E0,5.033574E0,4.3999176E0,0E0,3.9874372E0,0E0,3.1813073E0,4.4437504E0,0E0,0E0,0E0,1.5488238E0,0E0,0E0,0E0,0E0,0E0],"parents":[2147483647,0,0,1,1,2,2,3,3,4,4,6,6,8,8,9,9,13,13],"right_children":[2,4,6,8,10,-1,12,-1,14,16,-1,-1,-1,18,-1,-1,-1,-1,-1],"split_conditions":[-1.3498586E-1,-3.098514E-1,1.1934695E-1,-3.8598794E-1,1.4056095E0,-1.5356539E-1,-1.4787187E-1,2.2487357E-1,-4.3347776E-1,-1.8323824E-1,1.1474721E-1,9.617217E-2,-7.5318724E-2,-4.6452525E-1,-3.4940742E-2,5.221968E-2,-1.5613897E-1,3.205822E-2,1.4909992E-1],"split_indices":[33,28,1,32,21,0,0,0,21,12,0,0,0,5,0,0,0,0,0],"split_type":[0,0,0,0,0,0,0,0,0,0,0,0,0,0,0,0,0,0,0],"sum_hessian":[6.803278E1,4.529711E1,2.2735674E1,2.816995E1,1.712716E1,7.7910476E0,1.4944626E1,7.543444E0,2.0626507E1,1.1309505E1,5.817654E0,7.354706E0,7.58992E0,1.4364054E1,6.262453E0,5.0934954E0,6.2160106E0,5.332321E0,9.031733E0],"tree_param":{"num_deleted":"0","num_feature":"45","num_nodes":"19","size_leaf_vector":"1"}},{"base_weights":[1.6803747E-1,7.9342455E-1,1.0700829E-2,2.3440626E-1,5.611932E-2,-4.1817397E-1,2.8091764E-1,-1.8881035E-1,1.235932E-1,7.4633825E-1,-8.022746E-3,-6.0406286E-2,1.0685935E-1,1.9514522E-1,7.152535E-2,1.1931622E-1,-3.913193E-1,-1.3793828E-1,4.849176E-2],"categories":[],"categories_nodes":[],"categories_segments":[],"categories_sizes":[],"default_left":[0,0,0,0,0,0,0,0,0,0,0,0,0,0,0,0,0,0,0],"id":25,"left_children":[1,3,5,-1,-1,7,9,-1,11,13,15,-1,-1,-1,-1,-1,17,-1,-1],"loss_changes":[6.4405417E0,3.4653797E0,6.1382966E0,0E0,0E0,7.83372E0,4.398519E0,0E0,2.9438937E0,1.4984841E0,5.6180234E0,0E0,0E0,0E0,0E0,0E0,3.946544E0,0E0,0E0],"parents":[2147483647,0,0,1,1,2,2,5,5,6,6,8,8,9,9,10,10,16,16],"right_children":[2,4,6,-1,-1,8,10,-1,12,14,16,-1,-1,-1,-1,-1,18,-1,-1],"split_conditions":[-8.2766795E-1,-6.967308E-1,-6.954212E-2,2.3440626E-1,5.611932E-2,-1.3860685E-1,3.574279E-1,-1.8881035E-1,7.1118265E-1,-6.295778E-1,-7.4151087E-1,-6.0406286E-2,1.0685935E-1,1.9514522E-1,7.152535E-2,1.1931622E-1,9.201655E-1,-1.3793828E-1,4.849176E-2],"split_indices":[23,39,29,0,0,4,29,0,22,17,20,0,0,0,0,0,31,0,0],"split_type":[0,0,0,0,0,0,0,0,0,0,0,0,0,0,0,0,0,0,0],"sum_hessian":[6.546598E1,1.2935331E1,5.253065E1,5.403015E0,7.5323157E0,2.0216055E1,3.2314598E1,8.721427E0,1.1494628E1,1.2272482E1,2.0042114E1,5.9196014E0,5.5750265E0,5.088416E0,7.184066E0,6.8962345E0,1.314588E1,8.066825E0,5.0790553E0],"tree_param":{"num_deleted":"0","num_feature":"45","num_nodes":"19","size_leaf_vector":"1"}},{"base_weights":[1.2921004E-1,3.1877974E-1,-3.1287602E-1,1.4318086E-1,1.6537248E-1,-1.824739E-1,1.2635776E-1,1.6706811E-1,-3.8351682E-3,-6.5861054E-2,9.221851E-2,-1.2919989E-1,2.3569767E-1,-6.774639E-2,9.007258E-2],"categories":[],"categories_nodes":[],"categories_segments":[],"categories_sizes":[],"default_left":[0,0,0,0,0,0,0,0,0,0,0,0,0,0,0],"id":26,"left_children":[1,3,5,-1,7,-1,9,-1,11,-1,-1,-1,13,-1,-1],"loss_changes":[5.0048933E0,3.33805E0,6.1121674E0,0E0,4.598975E0,0E0,2.57437E0,0E0,5.0538306E0,0E0,0E0,0E0,4.045238E0,0E0,0E0],"parents":[2147483647,0,0,1,1,2,2,4,4,6,6,8,8,12,12],"right_children":[2,4,6,-1,8,-1,10,-1,12,-1,-1,-1,14,-1,-1],"split_conditions":[1.9013222E-1,-1.1860387E0,-2.5001204E-1,1.4318086E-1,-9.820937E-1,-1.824739E-1,4.4238898E-1,1.6706811E-1,-1.2380124E-1,-6.5861054E-2,9.221851E-2,-1.2919989E-1,-4.270877E-1,-6.774639E-2,9.007258E-2],"split_indices":[31,10,32,0,29,0,20,0,10,0,0,0,5,0,0],"split_type":[0,0,0,0,0,0,0,0,0,0,0,0,0,0,0],"sum_hessian":[5.9208214E1,4.1527653E1,1.7680563E1,9.0384E0,3.248925E1,6.3238435E0,1.135672E1,5.361453E0,2.7127798E1,5.072963E0,6.2837567E0,6.3897066E0,2.0738092E1,6.5594087E0,1.4178683E1],"tree_param":{"num_deleted":"0","num_feature":"45","num_nodes":"15","size_leaf_vector":"1"}},{"base_weights":[1.05881535E-1,4.3440187E-1,-1.2210463E-1,1.9945118E-1,1.7473038E-1,2.4514143E-1,-6.937798E-1,5.9587675E-1,-1.27144E-1,7.28635E-1,-2.0477606E-1,-3.1961843E-2,-2.0926267E-1,2.3609981E-2,1.9165793E-1,1.7129052E-1,6.966191E-2,-1.5729016E-1,1.0643575E-1],"categories":[],"categories_nodes":[],"categories_segments":[],"categories_sizes":[],"default_left":[0,0,0,0,0,0,0,0,0,0,0,0,0,0,0,0,0,0,0],"id":27,"left_children":[1,3,5,7,-1,9,11,13,-1,15,17,-1,-1,-1,-1,-1,-1,-1,-1],"loss_changes":[4.467302E0,3.3721952E0,7.4373074E0,6.8618665E0,0E0,4.7393646E0,3.728817E0,3.0803466E0,0E0,8.125558E-1,7.03781E0,0E0,0E0,0E0,0E0,0E0,0E0,0E0,0E0],"parents":[2147483647,0,0,1,1,2,2,3,3,5,5,6,6,7,7,9,9,10,10],"right_children":[2,4,6,8,-1,10,12,14,-1,16,18,-1,-1,-1,-1,-1,-1,-1,-1],"split_conditions":[-3.8706896E-1,1.4068693E0,6.864126E-2,-1.4074783E-1,1.7473038E-1,1.0906138E-1,-3.735492E-1,5.7245606E-1,-1.27144E-1,1.2148626E-1,1.435365E0,-3.1961843E-2,-2.0926267E-1,2.3609981E-2,1.9165793E-1,1.7129052E-1,6.966191E-2,-1.5729016E-1,1.0643575E-1],"split_indices":[44,41,13,24,0,39,0,0,0,42,39,0,0,0,0,0,0,0,0],"split_type":[0,0,0,0,0,0,0,0,0,0,0,0,0,0,0,0,0,0,0],"sum_hessian":[5.913342E1,2.4188234E1,3.4945183E1,1.7653625E1,6.5346074E0,2.1328674E1,1.361651E1,1.2551689E1,5.1019373E0,1.0240529E1,1.1088146E1,7.277373E0,6.3391376E0,6.998074E0,5.553615E0,5.0428643E0,5.1976643E0,5.9296074E0,5.1585383E0],"tree_param":{"num_deleted":"0","num_feature":"45","num_nodes":"19","size_leaf_vector":"1"}},{"base_weights":[1.8352225E-1,-9.5804095E-2,2.6924014E-1,3.9719927E-1,-7.958924E-2,7.456167E-1,1.6064179E-1,5.9764586E-2,1.6917282E-1,-1.4077494E-1,1.2532929E-1,1.0934865E-1,-7.696992E-2],"categories":[],"categories_nodes":[],"categories_segments":[],"categories_sizes":[],"default_left":[0,0,0,0,0,0,0,0,0,0,0,0,0],"id":28,"left_children":[1,-1,3,5,-1,7,9,-1,-1,11,-1,-1,-1],"loss_changes":[3.8706024E0,0E0,5.137895E0,3.7366014E0,0E0,1.743701E0,4.910936E0,0E0,0E0,4.659731E0,0E0,0E0,0E0],"parents":[2147483647,0,0,2,2,3,3,5,5,6,6,9,9],"right_children":[2,-1,4,6,-1,8,10,-1,-1,12,-1,-1,-1],"split_conditions":[-7.236342E-1,-9.5804095E-2,1.0364342E0,-1.8249723E-1,-7.958924E-2,7.3852785E-2,6.233793E-1,5.9764586E-2,1.6917282E-1,-5.3115076E-1,1.2532929E-1,1.0934865E-1,-7.696992E-2],"split_indices":[19,0,23,12,0,21,43,0,0,4,0,0,0],"split_type":[0,0,0,0,0,0,0,0,0,0,0,0,0],"sum_hessian":[5.9405983E1,5.9134464E0,5.3492535E1,4.574195E1,7.750582E0,1.8248238E1,2.7493715E1,7.5116262E0,1.0736611E1,1.820629E1,9.287426E0,5.1071763E0,1.3099113E1],"tree_param":{"num_deleted":"0","num_feature":"45","num_nodes":"13","size_leaf_vector":"1"}},{"base_weights":[1.7867361E-1,8.666667E-2,1.226893E-1,2.5277725E-1,-4.754543E-1,4.3318877E-1,-4.8087295E-2,-1.513344E-1,1.7083641E-2,6.3472086E-1,-3.9563034E-2,-1.1616704E-1,1.2323114E-1,1.4313985E-1,2.4679054E-2],"categories":[],"categories_nodes":[],"categories_segments":[],"categories_sizes":[],"default_left":[0,0,0,0,0,0,0,0,0,0,0,0,0,0,0],"id":29,"left_children":[1,3,-1,5,7,9,11,-1,-1,13,-1,-1,-1,-1,-1],"loss_changes":[3.0554113E0,4.946084E0,0E0,2.235222E0,2.9826438E0,3.497425E0,7.847074E0,0E0,0E0,2.0154896E0,0E0,0E0,0E0,0E0,0E0],"parents":[2147483647,0,0,1,1,3,3,4,4,5,5,6,6,9,9],"right_children":[2,4,-1,6,8,10,12,-1,-1,14,-1,-1,-1,-1,-1],"split_conditions":[1.6853534E0,1.5102105E-1,1.226893E-1,-3.3961296E-1,7.281313E-2,-1.6371948E-1,-9.479599E-2,-1.513344E-1,1.7083641E-2,4.247537E-1,-3.9563034E-2,-1.1616704E-1,1.2323114E-1,1.4313985E-1,2.4679054E-2],"split_indices":[28,31,0,25,13,33,6,0,0,4,0,0,0,0,0],"split_type":[0,0,0,0,0,0,0,0,0,0,0,0,0,0,0],"sum_hessian":[6.098235E1,5.250342E1,8.4789295E0,4.0663757E1,1.1839665E1,2.5413347E1,1.5250409E1,6.788668E0,5.0509977E0,1.9562624E1,5.850723E0,8.400674E0,6.849735E0,1.3437668E1,6.1249566E0],"tree_param":{"num_deleted":"0","num_feature":"45","num_nodes":"15","size_leaf_vector":"1"}},{"base_weights":[1.0949735E-1,2.2308633E-1,-1.1336934E-1,5.826384E-1,1.604495E-2,1.7223123E-1,2.5704375E-1,-2.5142014E-1,1.0228082E-1,-3.3709303E-2,1.19189404E-1,8.209393E-2,-5.928402E-1,8.538003E-3,-2.0390143E-1],"categories":[],"categories_nodes":[],"categories_segments":[],"categories_sizes":[],"default_left":[0,0,0,0,0,0,0,0,0,0,0,0,0,0,0],"id":30,"left_children":[1,3,-1,5,7,-1,9,11,-1,-1,-1,-1,13,-1,-1],"loss_changes":[4.9539566E0,3.6055684E0,0E0,2.4385114E0,4.971046E0,0E0,2.2115917E0,5.5139723E0,0E0,0E0,0E0,0E0,5.9565835E0,0E0,0E0],"parents":[2147483647,0,0,1,1,3,3,4,4,6,6,7,7,12,12],"right_children":[2,4,-1,6,8,-1,10,12,-1,-1,-1,-1,14,-1,-1],"split_conditions":[7.837248E-1,-8.2296E-1,-1.1336934E-1,-3.4454513E-1,3.4550285E-1,1.7223123E-1,-2.7928504E-1,-6.635728E-1,1.0228082E-1,-3.3709303E-2,1.19189404E-1,8.209393E-2,-6.2439173E-1,8.538003E-3,-2.0390143E-1],"split_indices":[16,23,0,38,16,0,31,6,0,0,0,0,44,0,0],"split_type":[0,0,0,0,0,0,0,0,0,0,0,0,0,0,0],"sum_hessian":[5.5287876E1,4.8450954E1,6.83692E0,1.7502102E1,3.0948853E1,7.206005E0,1.0296098E1,2.136231E1,9.586542E0,5.1419244E0,5.154173E0,6.697967E0,1.4664344E1,7.258508E0,7.405835E0],"tree_param":{"num_deleted":"0","num_feature":"45","num_nodes":"15","size_leaf_vector":"1"}},{"base_weights":[6.751547E-2,3.6296752E-1,-1.4264254E-1,-2.8471593E-2,6.9559526E-1,-4.1678464E-1,9.753106E-2,1.776014E-1,3.9575983E-2,-7.1007776E-1,3.0537074E-2,-4.4549536E-2,-2.2445224E-1],"categories":[],"categories_nodes":[],"categories_segments":[],"categories_sizes":[],"default_left":[0,0,0,0,0,0,0,0,0,0,0,0,0],"id":31,"left_children":[1,3,5,-1,7,9,-1,-1,-1,11,-1,-1,-1],"loss_changes":[3.2738962E0,3.918617E0,6.1315565E0,0E0,2.1433234E0,3.980556E0,0E0,0E0,0E0,4.0669775E0,0E0,0E0,0E0],"parents":[2147483647,0,0,1,1,2,2,4,4,5,5,9,9],"right_children":[2,4,6,-1,8,10,-1,-1,-1,12,-1,-1,-1],"split_conditions":[-4.5688516E-1,-1.4564803E-1,1.7331792E0,-2.8471593E-2,-3.1690338E-1,8.388065E-1,9.753106E-2,1.776014E-1,3.9575983E-2,-8.452481E-2,3.0537074E-2,-4.4549536E-2,-2.2445224E-1],"split_indices":[15,29,15,0,37,43,0,0,0,16,0,0,0],"split_type":[0,0,0,0,0,0,0,0,0,0,0,0,0],"sum_hessian":[5.220296E1,2.1682037E1,3.0520926E1,8.355161E0,1.3326876E1,2.2212868E1,8.308059E0,7.300023E0,6.0268526E0,1.4904084E1,7.3087835E0,8.895821E0,6.0082626E0],"tree_param":{"num_deleted":"0","num_feature":"45","num_nodes":"13","size_leaf_vector":"1"}},{"base_weights":[6.035878E-2,2.5398397E-1,-3.4512734E-1,8.872225E-2,1.1403208E-1,-1.3554895E-1,1.6645238E-2,3.011463E-1,-1.0200296E-1,-2.586983E-2,1.2368692E-1,-7.9500414E-2,6.615525E-2],"categories":[],"categories_nodes":[],"categories_segments":[],"categories_sizes":[],"default_left":[0,0,0,0,0,0,0,0,0,0,0,0,0],"id":32,"left_children":[1,3,5,7,-1,-1,-1,9,-1,11,-1,-1,-1],"loss_changes":[3.864875E0,2.292565E0,3.2738683E0,3.612223E0,0E0,0E0,0E0,2.6790347E0,0E0,2.073308E0,0E0,0E0,0E0],"parents":[2147483647,0,0,1,1,2,2,3,3,7,7,9,9],"right_children":[2,4,6,8,-1,-1,-1,10,-1,12,-1,-1,-1],"split_conditions":[-1.3498586E-1,9.07492E-1,4.283154E-1,1.3403413E-1,1.1403208E-1,-1.3554895E-1,1.6645238E-2,6.417236E-1,-1.0200296E-1,-2.9026616E-1,1.2368692E-1,-7.9500414E-2,6.615525E-2],"split_indices":[33,40,33,11,0,0,0,0,0,3,0,0,0],"split_type":[0,0,0,0,0,0,0,0,0,0,0,0,0],"sum_hessian":[4.8765476E1,3.3109608E1,1.5655869E1,2.4047384E1,9.062224E0,7.6351743E0,8.020695E0,1.8541235E1,5.5061493E0,1.0646693E1,7.8945427E0,5.171721E0,5.4749722E0],"tree_param":{"num_deleted":"0","num_feature":"45","num_nodes":"13","size_leaf_vector":"1"}},{"base_weights":[2.2606498E-1,9.3212284E-2,5.722013E-1,2.9872608E-1,-3.977996E-1,4.1728774E-3,1.5499143E-1,8.0387875E-2,1.3175063E-1,2.441462E-2,-1.4084183E-1,4.54421E-1,-2.9258436E-1,-5.311047E-4,1.5294217E-1,-0E0,-9.6265584E-2],"categories":[],"categories_nodes":[],"categories_segments":[],"categories_sizes":[],"default_left":[0,0,0,0,0,0,0,0,0,0,0,0,0,0,0,0,0],"id":33,"left_children":[1,3,5,7,9,-1,-1,11,-1,-1,-1,13,15,-1,-1,-1,-1],"loss_changes":[2.5815372E0,4.2010126E0,2.9434118E0,3.0548882E0,2.960774E0,0E0,0E0,2.8959095E0,0E0,0E0,0E0,2.1727955E0,8.358562E-1,0E0,0E0,0E0,0E0],"parents":[2147483647,0,0,1,1,2,2,3,3,4,4,7,7,11,11,12,12],"right_children":[2,4,6,8,10,-1,-1,12,-1,-1,-1,14,16,-1,-1,-1,-1],"split_conditions":[5.7644695E-1,-1.6371948E-1,2.3809525E-1,7.605054E-1,-2.388167E-1,4.1728774E-3,1.5499143E-1,-3.301053E-1,1.3175063E-1,2.441462E-2,-1.4084183E-1,-5.316931E-1,-4.0663248E-1,-5.311047E-4,1.5294217E-1,-0E0,-9.6265584E-2],"split_indices":[11,33,26,8,7,0,0,1,0,0,0,1,25,0,0,0,0],"split_type":[0,0,0,0,0,0,0,0,0,0,0,0,0,0,0,0,0],"sum_hessian":[5.65715E1,4.1151394E1,1.5420105E1,2.9112972E1,1.2038422E1,6.1108007E0,9.309304E0,2.0272291E1,8.840681E0,5.415935E0,6.6224866E0,1.0132989E1,1.0139303E1,5.124546E0,5.008443E0,5.084983E0,5.05432E0],"tree_param":{"num_deleted":"0","num_feature":"45","num_nodes":"17","size_leaf_vector":"1"}},{"base_weights":[1.6406702E-1,-6.839161E-2,2.865185E-1,4.5437157E-1,-8.460266E-2,-1.6750906E-2,7.231514E-1,1.1750884E-1,-9.621282E-2,1.777389E-1,4.9713898E-1,1.3445547E-1,8.450086E-3],"categories":[],"categories_nodes":[],"categories_segments":[],"categories_sizes":[],"default_left":[0,0,0,0,0,0,0,0,0,0,0,0,0],"id":34,"left_children":[1,-1,3,5,7,-1,9,-1,-1,-1,11,-1,-1],"loss_changes":[3.6314912E0,0E0,2.681526E0,4.426838E0,5.2013545E0,0E0,1.3271809E0,0E0,0E0,0E0,1.623883E0,0E0,0E0],"parents":[2147483647,0,0,2,2,3,3,4,4,6,6,10,10],"right_children":[2,-1,4,6,8,-1,10,-1,-1,-1,12,-1,-1],"split_conditions":[-6.3448435E-1,-6.839161E-2,3.9284876E-1,-5.0557864E-1,-4.004571E-1,-1.6750906E-2,-5.0292176E-1,1.1750884E-1,-9.621282E-2,1.777389E-1,-4.8493835E-1,1.3445547E-1,8.450086E-3],"split_indices":[31,0,31,2,6,0,25,0,0,0,17,0,0],"split_type":[0,0,0,0,0,0,0,0,0,0,0,0,0],"sum_hessian":[5.1480125E1,8.972457E0,4.2507668E1,2.9284279E1,1.3223389E1,9.584225E0,1.9700054E1,5.0100684E0,8.21332E0,7.5969567E0,1.2103098E1,7.093146E0,5.0099516E0],"tree_param":{"num_deleted":"0","num_feature":"45","num_nodes":"13","size_leaf_vector":"1"}},{"base_weights":[1.5091681E-1,3.1464547E-2,5.7383937E-1,9.7848825E-2,-7.821993E-2,1.3852617E-1,4.4379435E-2,-6.0395646E-1,2.0935796E-1,-1.9022861E-1,1.1750983E-2,5.06755E-1,-1.1879187E-1,1.3598868E-1,3.1055983E-2],"categories":[],"categories_nodes":[],"categories_segments":[],"categories_sizes":[],"default_left":[0,0,0,0,0,0,0,0,0,0,0,0,0,0,0],"id":35,"left_children":[1,3,5,-1,7,-1,-1,9,11,-1,-1,13,-1,-1,-1],"loss_changes":[2.5294685E0,2.412114E0,7.7084374E-1,0E0,5.0624733E0,0E0,0E0,4.229369E0,5.9520044E0,0E0,0E0,1.5306587E0,0E0,0E0,0E0],"parents":[2147483647,0,0,1,1,2,2,4,4,7,7,8,8,11,11],"right_children":[2,4,6,-1,8,-1,-1,10,12,-1,-1,14,-1,-1,-1],"split_conditions":[1.3115721E0,-8.29347E-1,-2.3132913E-1,9.7848825E-2,-6.954212E-2,1.3852617E-1,4.4379435E-2,5.318668E-1,5.2362536E-3,-1.9022861E-1,1.1750983E-2,7.367347E-1,-1.1879187E-1,1.3598868E-1,3.1055983E-2],"split_indices":[0,23,14,0,29,0,0,23,0,0,0,29,0,0,0],"split_type":[0,0,0,0,0,0,0,0,0,0,0,0,0,0,0],"sum_hessian":[5.0247753E1,3.9426655E1,1.0821101E1,6.44133E0,3.298532E1,5.7568836E0,5.064218E0,1.1606289E1,2.1379034E1,6.4607606E0,5.145529E0,1.6231167E1,5.1478667E0,8.18654E0,8.044627E0],"tree_param":{"num_deleted":"0","num_feature":"45","num_nodes":"15","size_leaf_vector":"1"}},{"base_weights":[1.917049E-1,-8.3525985E-2,2.8273186E-1,6.582871E-1,1.17870905E-1,1.7428659E-1,6.4138636E-2,-6.8289354E-2,3.1790656E-1,1.4398208E-1,1.2113754E-1,9.299137E-2,-6.1686747E-2],"categories":[],"categories_nodes":[],"categories_segments":[],"categories_sizes":[],"default_left":[0,0,0,0,0,0,0,0,0,0,0,0,0],"id":36,"left_children":[1,-1,3,5,7,-1,-1,-1,9,-1,11,-1,-1],"loss_changes":[3.012167E0,0E0,2.5815291E0,1.2064242E0,3.1396124E0,0E0,0E0,0E0,2.2370417E0,0E0,3.44247E0,0E0,0E0],"parents":[2147483647,0,0,2,2,3,3,4,4,8,8,10,10],"right_children":[2,-1,4,6,8,-1,-1,-1,10,-1,12,-1,-1],"split_conditions":[-9.749935E-1,-8.3525985E-2,-1.072977E0,-8.271723E-1,-3.286112E-2,1.7428659E-1,6.4138636E-2,-6.8289354E-2,-8.0077773E-1,1.4398208E-1,-5.066687E-1,9.299137E-2,-6.1686747E-2],"split_indices":[16,0,22,23,27,0,0,0,42,0,38,0,0],"split_type":[0,0,0,0,0,0,0,0,0,0,0,0,0],"sum_hessian":[4.7496906E1,5.3999352E0,4.209697E1,1.2579092E1,2.9517878E1,5.0385103E0,7.5405817E0,8.06345E0,2.1454428E1,5.514159E0,1.5940269E1,8.475212E0,7.4650574E0],"tree_param":{"num_deleted":"0","num_feature":"45","num_nodes":"13","size_leaf_vector":"1"}}]},"name":"gbtree"},"learner_model_param":{"base_score":"5E-1","boost_from_average":"1","num_class":"0","num_feature":"45","num_target":"1"},"objective":{"name":"binary:logistic","reg_loss_param":{"scale_pos_weight":"4.70886087"}}},"version":[2,1,4]}